<?xml version="1.0"?>
<opencv_storage>
<frontface31_v1 type_id="opencv-haar-classifier">
  <size>
    24 24</size>
  <stages>
    <_>
      <!-- stage 0 -->
      <trees>
        <_>
          <!-- tree 0 -->
          <_>
            <!-- root node -->
            <feature>
              <rects>
                <_>
                  1 0 22 9 -1.</_>
                <_>
                  1 3 22 3 3.</_></rects>
              <tilted>0</tilted></feature>
            <threshold>-1.0182140022516251e-001</threshold>
            <left_val>8.1310462951660156e-001</left_val>
            <right_val>-9.0280121564865112e-001</right_val></_></_>
        <_>
          <!-- tree 1 -->
          <_>
            <!-- root node -->
            <feature>
              <rects>
                <_>
                  10 3 10 12 -1.</_>
                <_>
                  15 3 5 6 2.</_>
                <_>
                  10 9 5 6 2.</_></rects>
              <tilted>0</tilted></feature>
            <threshold>-2.1589940413832664e-002</threshold>
            <left_val>7.2081547975540161e-001</left_val>
            <right_val>-7.4295479059219360e-001</right_val></_></_>
        <_>
          <!-- tree 2 -->
          <_>
            <!-- root node -->
            <feature>
              <rects>
                <_>
                  9 2 9 5 -1.</_>
                <_>
                  12 5 3 5 3.</_></rects>
              <tilted>1</tilted></feature>
            <threshold>5.2898589521646500e-002</threshold>
            <left_val>-7.3333609104156494e-001</left_val>
            <right_val>7.8778809309005737e-001</right_val></_></_>
        <_>
          <!-- tree 3 -->
          <_>
            <!-- root node -->
            <feature>
              <rects>
                <_>
                  3 8 19 12 -1.</_>
                <_>
                  3 14 19 6 2.</_></rects>
              <tilted>0</tilted></feature>
            <threshold>-6.6436782479286194e-002</threshold>
            <left_val>5.0843852758407593e-001</left_val>
            <right_val>-8.5112631320953369e-001</right_val></_></_></trees>
      <stage_threshold>-1.8706539869308472e+000</stage_threshold>
      <parent>-1</parent>
      <next>-1</next></_>
    <_>
      <!-- stage 1 -->
      <trees>
        <_>
          <!-- tree 0 -->
          <_>
            <!-- root node -->
            <feature>
              <rects>
                <_>
                  0 0 12 9 -1.</_>
                <_>
                  4 3 4 3 9.</_></rects>
              <tilted>0</tilted></feature>
            <threshold>-1.1002369970083237e-001</threshold>
            <left_val>7.6551991701126099e-001</left_val>
            <right_val>-8.7399381399154663e-001</right_val></_></_>
        <_>
          <!-- tree 1 -->
          <_>
            <!-- root node -->
            <feature>
              <rects>
                <_>
                  9 1 14 16 -1.</_>
                <_>
                  16 1 7 8 2.</_>
                <_>
                  9 9 7 8 2.</_></rects>
              <tilted>0</tilted></feature>
            <threshold>-7.7391117811203003e-002</threshold>
            <left_val>6.4699089527130127e-001</left_val>
            <right_val>-6.0844492912292480e-001</right_val></_></_>
        <_>
          <!-- tree 2 -->
          <_>
            <!-- root node -->
            <feature>
              <rects>
                <_>
                  1 4 13 6 -1.</_>
                <_>
                  1 7 13 3 2.</_></rects>
              <tilted>0</tilted></feature>
            <threshold>3.5867970436811447e-002</threshold>
            <left_val>-8.4485447406768799e-001</left_val>
            <right_val>5.7517367601394653e-001</right_val></_></_>
        <_>
          <!-- tree 3 -->
          <_>
            <!-- root node -->
            <feature>
              <rects>
                <_>
                  8 0 16 18 -1.</_>
                <_>
                  16 0 8 9 2.</_>
                <_>
                  8 9 8 9 2.</_></rects>
              <tilted>0</tilted></feature>
            <threshold>-1.2718030251562595e-002</threshold>
            <left_val>1.8512010574340820e-001</left_val>
            <right_val>-7.0521688461303711e-001</right_val></_></_>
        <_>
          <!-- tree 4 -->
          <_>
            <!-- root node -->
            <feature>
              <rects>
                <_>
                  2 9 12 1 -1.</_>
                <_>
                  2 9 6 1 2.</_></rects>
              <tilted>1</tilted></feature>
            <threshold>1.1777780018746853e-002</threshold>
            <left_val>-7.2713881731033325e-001</left_val>
            <right_val>4.6573871374130249e-001</right_val></_></_></trees>
      <stage_threshold>-1.6764340400695801e+000</stage_threshold>
      <parent>0</parent>
      <next>-1</next></_>
    <_>
      <!-- stage 2 -->
      <trees>
        <_>
          <!-- tree 0 -->
          <_>
            <!-- root node -->
            <feature>
              <rects>
                <_>
                  0 4 24 6 -1.</_>
                <_>
                  0 7 24 3 2.</_></rects>
              <tilted>0</tilted></feature>
            <threshold>1.0145050287246704e-001</threshold>
            <left_val>-8.2684147357940674e-001</left_val>
            <right_val>8.0762559175491333e-001</right_val></_></_>
        <_>
          <!-- tree 1 -->
          <_>
            <!-- root node -->
            <feature>
              <rects>
                <_>
                  9 1 12 18 -1.</_>
                <_>
                  15 1 6 9 2.</_>
                <_>
                  9 10 6 9 2.</_></rects>
              <tilted>0</tilted></feature>
            <threshold>-6.5370708703994751e-002</threshold>
            <left_val>3.4970200061798096e-001</left_val>
            <right_val>-4.1564908623695374e-001</right_val></_></_>
        <_>
          <!-- tree 2 -->
          <_>
            <!-- root node -->
            <feature>
              <rects>
                <_>
                  1 2 16 14 -1.</_>
                <_>
                  1 2 8 7 2.</_>
                <_>
                  9 9 8 7 2.</_></rects>
              <tilted>0</tilted></feature>
            <threshold>-6.0301110148429871e-002</threshold>
            <left_val>6.2653607130050659e-001</left_val>
            <right_val>-7.0951950550079346e-001</right_val></_></_>
        <_>
          <!-- tree 3 -->
          <_>
            <!-- root node -->
            <feature>
              <rects>
                <_>
                  7 0 10 4 -1.</_>
                <_>
                  7 2 10 2 2.</_></rects>
              <tilted>0</tilted></feature>
            <threshold>-1.6469679772853851e-002</threshold>
            <left_val>6.2376111745834351e-001</left_val>
            <right_val>-6.7963528633117676e-001</right_val></_></_>
        <_>
          <!-- tree 4 -->
          <_>
            <!-- root node -->
            <feature>
              <rects>
                <_>
                  6 4 12 7 -1.</_>
                <_>
                  10 4 4 7 3.</_></rects>
              <tilted>0</tilted></feature>
            <threshold>5.9573739767074585e-002</threshold>
            <left_val>-4.0398481488227844e-001</left_val>
            <right_val>7.4019032716751099e-001</right_val></_></_></trees>
      <stage_threshold>-1.6995739936828613e+000</stage_threshold>
      <parent>1</parent>
      <next>-1</next></_>
    <_>
      <!-- stage 3 -->
      <trees>
        <_>
          <!-- tree 0 -->
          <_>
            <!-- root node -->
            <feature>
              <rects>
                <_>
                  0 0 12 9 -1.</_>
                <_>
                  4 3 4 3 9.</_></rects>
              <tilted>0</tilted></feature>
            <threshold>-1.8709829449653625e-001</threshold>
            <left_val>7.6153117418289185e-001</left_val>
            <right_val>-6.8204230070114136e-001</right_val></_></_>
        <_>
          <!-- tree 1 -->
          <_>
            <!-- root node -->
            <feature>
              <rects>
                <_>
                  17 6 5 10 -1.</_>
                <_>
                  17 6 5 5 2.</_></rects>
              <tilted>1</tilted></feature>
            <threshold>4.7338209114968777e-003</threshold>
            <left_val>-4.3947601318359375e-001</left_val>
            <right_val>2.1311089396476746e-001</right_val></_></_>
        <_>
          <!-- tree 2 -->
          <_>
            <!-- root node -->
            <feature>
              <rects>
                <_>
                  0 5 24 9 -1.</_>
                <_>
                  0 8 24 3 3.</_></rects>
              <tilted>0</tilted></feature>
            <threshold>1.2553830444812775e-001</threshold>
            <left_val>-6.1154001951217651e-001</left_val>
            <right_val>5.1715552806854248e-001</right_val></_></_>
        <_>
          <!-- tree 3 -->
          <_>
            <!-- root node -->
            <feature>
              <rects>
                <_>
                  5 0 16 7 -1.</_>
                <_>
                  9 0 8 7 2.</_></rects>
              <tilted>0</tilted></feature>
            <threshold>3.4539159387350082e-002</threshold>
            <left_val>-5.1493412256240845e-001</left_val>
            <right_val>4.8667290806770325e-001</right_val></_></_>
        <_>
          <!-- tree 4 -->
          <_>
            <!-- root node -->
            <feature>
              <rects>
                <_>
                  3 7 12 3 -1.</_>
                <_>
                  3 7 6 3 2.</_></rects>
              <tilted>1</tilted></feature>
            <threshold>4.1429419070482254e-002</threshold>
            <left_val>-7.5968682765960693e-001</left_val>
            <right_val>4.2288321256637573e-001</right_val></_></_>
        <_>
          <!-- tree 5 -->
          <_>
            <!-- root node -->
            <feature>
              <rects>
                <_>
                  11 15 3 4 -1.</_>
                <_>
                  11 16 3 2 2.</_></rects>
              <tilted>0</tilted></feature>
            <threshold>4.7033191658556461e-003</threshold>
            <left_val>-2.7833038568496704e-001</left_val>
            <right_val>7.7681887149810791e-001</right_val></_></_>
        <_>
          <!-- tree 6 -->
          <_>
            <!-- root node -->
            <feature>
              <rects>
                <_>
                  3 17 17 3 -1.</_>
                <_>
                  3 18 17 1 3.</_></rects>
              <tilted>0</tilted></feature>
            <threshold>8.1782685592770576e-003</threshold>
            <left_val>-2.8172689676284790e-001</left_val>
            <right_val>7.1618312597274780e-001</right_val></_></_></trees>
      <stage_threshold>-1.7325789928436279e+000</stage_threshold>
      <parent>2</parent>
      <next>-1</next></_>
    <_>
      <!-- stage 4 -->
      <trees>
        <_>
          <!-- tree 0 -->
          <_>
            <!-- root node -->
            <feature>
              <rects>
                <_>
                  1 0 22 9 -1.</_>
                <_>
                  1 3 22 3 3.</_></rects>
              <tilted>0</tilted></feature>
            <threshold>-1.3528479635715485e-001</threshold>
            <left_val>5.5468302965164185e-001</left_val>
            <right_val>-7.8305160999298096e-001</right_val></_></_>
        <_>
          <!-- tree 1 -->
          <_>
            <!-- root node -->
            <feature>
              <rects>
                <_>
                  6 1 12 8 -1.</_>
                <_>
                  9 1 6 8 2.</_></rects>
              <tilted>0</tilted></feature>
            <threshold>4.0023088455200195e-002</threshold>
            <left_val>-6.7431890964508057e-001</left_val>
            <right_val>5.8622711896896362e-001</right_val></_></_>
        <_>
          <!-- tree 2 -->
          <_>
            <!-- root node -->
            <feature>
              <rects>
                <_>
                  0 6 18 6 -1.</_>
                <_>
                  0 8 18 2 3.</_></rects>
              <tilted>0</tilted></feature>
            <threshold>3.0106540769338608e-002</threshold>
            <left_val>-6.9425737857818604e-001</left_val>
            <right_val>3.6991140246391296e-001</right_val></_></_>
        <_>
          <!-- tree 3 -->
          <_>
            <!-- root node -->
            <feature>
              <rects>
                <_>
                  4 12 20 9 -1.</_>
                <_>
                  4 12 10 9 2.</_></rects>
              <tilted>0</tilted></feature>
            <threshold>3.9448849856853485e-002</threshold>
            <left_val>-2.9765510559082031e-001</left_val>
            <right_val>3.1338641047477722e-001</right_val></_></_>
        <_>
          <!-- tree 4 -->
          <_>
            <!-- root node -->
            <feature>
              <rects>
                <_>
                  0 12 24 3 -1.</_>
                <_>
                  6 12 12 3 2.</_></rects>
              <tilted>0</tilted></feature>
            <threshold>-1.6977140679955482e-002</threshold>
            <left_val>4.3483769893646240e-001</left_val>
            <right_val>-5.6751692295074463e-001</right_val></_></_>
        <_>
          <!-- tree 5 -->
          <_>
            <!-- root node -->
            <feature>
              <rects>
                <_>
                  2 8 21 12 -1.</_>
                <_>
                  2 14 21 6 2.</_></rects>
              <tilted>0</tilted></feature>
            <threshold>-7.8240953385829926e-002</threshold>
            <left_val>2.7866208553314209e-001</left_val>
            <right_val>-7.5341010093688965e-001</right_val></_></_>
        <_>
          <!-- tree 6 -->
          <_>
            <!-- root node -->
            <feature>
              <rects>
                <_>
                  4 1 12 6 -1.</_>
                <_>
                  7 1 6 6 2.</_></rects>
              <tilted>0</tilted></feature>
            <threshold>3.2646980136632919e-002</threshold>
            <left_val>-4.1338419914245605e-001</left_val>
            <right_val>5.8733087778091431e-001</right_val></_></_>
        <_>
          <!-- tree 7 -->
          <_>
            <!-- root node -->
            <feature>
              <rects>
                <_>
                  11 4 4 3 -1.</_>
                <_>
                  11 4 2 3 2.</_></rects>
              <tilted>0</tilted></feature>
            <threshold>-7.8546330332756042e-003</threshold>
            <left_val>7.4712759256362915e-001</left_val>
            <right_val>-1.8630610406398773e-001</right_val></_></_>
        <_>
          <!-- tree 8 -->
          <_>
            <!-- root node -->
            <feature>
              <rects>
                <_>
                  8 2 8 9 -1.</_>
                <_>
                  10 2 4 9 2.</_></rects>
              <tilted>0</tilted></feature>
            <threshold>3.7927288562059402e-002</threshold>
            <left_val>-2.7720189094543457e-001</left_val>
            <right_val>7.0358997583389282e-001</right_val></_></_>
        <_>
          <!-- tree 9 -->
          <_>
            <!-- root node -->
            <feature>
              <rects>
                <_>
                  2 0 22 6 -1.</_>
                <_>
                  2 2 22 2 3.</_></rects>
              <tilted>0</tilted></feature>
            <threshold>-4.1029669344425201e-002</threshold>
            <left_val>5.1103287935256958e-001</left_val>
            <right_val>-3.9221420884132385e-001</right_val></_></_></trees>
      <stage_threshold>-1.7956240177154541e+000</stage_threshold>
      <parent>3</parent>
      <next>-1</next></_>
    <_>
      <!-- stage 5 -->
      <trees>
        <_>
          <!-- tree 0 -->
          <_>
            <!-- root node -->
            <feature>
              <rects>
                <_>
                  4 4 3 4 -1.</_>
                <_>
                  4 4 3 2 2.</_></rects>
              <tilted>1</tilted></feature>
            <threshold>-2.3229770362377167e-002</threshold>
            <left_val>5.6937628984451294e-001</left_val>
            <right_val>-5.6426531076431274e-001</right_val></_></_>
        <_>
          <!-- tree 1 -->
          <_>
            <!-- root node -->
            <feature>
              <rects>
                <_>
                  0 0 24 7 -1.</_>
                <_>
                  8 0 8 7 3.</_></rects>
              <tilted>0</tilted></feature>
            <threshold>3.4680388867855072e-002</threshold>
            <left_val>-7.9747927188873291e-001</left_val>
            <right_val>3.3597418665885925e-001</right_val></_></_>
        <_>
          <!-- tree 2 -->
          <_>
            <!-- root node -->
            <feature>
              <rects>
                <_>
                  0 0 24 8 -1.</_>
                <_>
                  0 2 24 4 2.</_></rects>
              <tilted>0</tilted></feature>
            <threshold>-7.9128518700599670e-002</threshold>
            <left_val>3.5656911134719849e-001</left_val>
            <right_val>-7.6279807090759277e-001</right_val></_></_>
        <_>
          <!-- tree 3 -->
          <_>
            <!-- root node -->
            <feature>
              <rects>
                <_>
                  8 2 8 8 -1.</_>
                <_>
                  10 2 4 8 2.</_></rects>
              <tilted>0</tilted></feature>
            <threshold>3.4702338278293610e-002</threshold>
            <left_val>-3.9816969633102417e-001</left_val>
            <right_val>6.4851242303848267e-001</right_val></_></_>
        <_>
          <!-- tree 4 -->
          <_>
            <!-- root node -->
            <feature>
              <rects>
                <_>
                  0 9 24 12 -1.</_>
                <_>
                  0 15 24 6 2.</_></rects>
              <tilted>0</tilted></feature>
            <threshold>-2.9950980097055435e-002</threshold>
            <left_val>2.3231099545955658e-001</left_val>
            <right_val>-9.0175247192382813e-001</right_val></_></_>
        <_>
          <!-- tree 5 -->
          <_>
            <!-- root node -->
            <feature>
              <rects>
                <_>
                  3 10 18 6 -1.</_>
                <_>
                  9 12 6 2 9.</_></rects>
              <tilted>0</tilted></feature>
            <threshold>-9.9443629384040833e-002</threshold>
            <left_val>5.6079471111297607e-001</left_val>
            <right_val>-3.4714320302009583e-001</right_val></_></_>
        <_>
          <!-- tree 6 -->
          <_>
            <!-- root node -->
            <feature>
              <rects>
                <_>
                  4 22 16 2 -1.</_>
                <_>
                  4 23 16 1 2.</_></rects>
              <tilted>0</tilted></feature>
            <threshold>-1.0714580304920673e-002</threshold>
            <left_val>6.8933898210525513e-001</left_val>
            <right_val>-2.3964290320873260e-001</right_val></_></_>
        <_>
          <!-- tree 7 -->
          <_>
            <!-- root node -->
            <feature>
              <rects>
                <_>
                  0 0 24 21 -1.</_>
                <_>
                  0 0 12 21 2.</_></rects>
              <tilted>0</tilted></feature>
            <threshold>1.2872129678726196e-001</threshold>
            <left_val>-3.8553771376609802e-001</left_val>
            <right_val>3.9766559004783630e-001</right_val></_></_>
        <_>
          <!-- tree 8 -->
          <_>
            <!-- root node -->
            <feature>
              <rects>
                <_>
                  7 0 15 6 -1.</_>
                <_>
                  5 2 15 2 3.</_></rects>
              <tilted>1</tilted></feature>
            <threshold>-2.4042649194598198e-002</threshold>
            <left_val>3.1395110487937927e-001</left_val>
            <right_val>-4.9375230073928833e-001</right_val></_></_>
        <_>
          <!-- tree 9 -->
          <_>
            <!-- root node -->
            <feature>
              <rects>
                <_>
                  0 2 24 18 -1.</_>
                <_>
                  0 8 24 6 3.</_></rects>
              <tilted>0</tilted></feature>
            <threshold>2.1480040252208710e-001</threshold>
            <left_val>-6.4930421113967896e-001</left_val>
            <right_val>2.5845891237258911e-001</right_val></_></_>
        <_>
          <!-- tree 10 -->
          <_>
            <!-- root node -->
            <feature>
              <rects>
                <_>
                  10 15 2 4 -1.</_>
                <_>
                  10 16 2 2 2.</_></rects>
              <tilted>0</tilted></feature>
            <threshold>2.3957819212228060e-003</threshold>
            <left_val>-2.7550968527793884e-001</left_val>
            <right_val>6.2156331539154053e-001</right_val></_></_>
        <_>
          <!-- tree 11 -->
          <_>
            <!-- root node -->
            <feature>
              <rects>
                <_>
                  11 2 4 7 -1.</_>
                <_>
                  11 2 2 7 2.</_></rects>
              <tilted>0</tilted></feature>
            <threshold>1.1527179740369320e-002</threshold>
            <left_val>-2.0813539624214172e-001</left_val>
            <right_val>5.8415102958679199e-001</right_val></_></_>
        <_>
          <!-- tree 12 -->
          <_>
            <!-- root node -->
            <feature>
              <rects>
                <_>
                  6 3 8 4 -1.</_>
                <_>
                  8 3 4 4 2.</_></rects>
              <tilted>0</tilted></feature>
            <threshold>-1.1416500434279442e-002</threshold>
            <left_val>8.1182670593261719e-001</left_val>
            <right_val>-2.3546659946441650e-001</right_val></_></_>
        <_>
          <!-- tree 13 -->
          <_>
            <!-- root node -->
            <feature>
              <rects>
                <_>
                  11 2 4 7 -1.</_>
                <_>
                  11 2 2 7 2.</_></rects>
              <tilted>0</tilted></feature>
            <threshold>1.9415669143199921e-002</threshold>
            <left_val>-4.0628280490636826e-002</left_val>
            <right_val>4.9891468882560730e-001</right_val></_></_>
        <_>
          <!-- tree 14 -->
          <_>
            <!-- root node -->
            <feature>
              <rects>
                <_>
                  9 2 4 7 -1.</_>
                <_>
                  11 2 2 7 2.</_></rects>
              <tilted>0</tilted></feature>
            <threshold>-1.1285680346190929e-002</threshold>
            <left_val>8.4939479827880859e-001</left_val>
            <right_val>-2.3119840025901794e-001</right_val></_></_></trees>
      <stage_threshold>-1.7168899774551392e+000</stage_threshold>
      <parent>4</parent>
      <next>-1</next></_>
    <_>
      <!-- stage 6 -->
      <trees>
        <_>
          <!-- tree 0 -->
          <_>
            <!-- root node -->
            <feature>
              <rects>
                <_>
                  0 0 12 9 -1.</_>
                <_>
                  4 3 4 3 9.</_></rects>
              <tilted>0</tilted></feature>
            <threshold>-2.0037169754505157e-001</threshold>
            <left_val>5.6867188215255737e-001</left_val>
            <right_val>-5.9023517370223999e-001</right_val></_></_>
        <_>
          <!-- tree 1 -->
          <_>
            <!-- root node -->
            <feature>
              <rects>
                <_>
                  10 7 14 6 -1.</_>
                <_>
                  10 9 14 2 3.</_></rects>
              <tilted>0</tilted></feature>
            <threshold>2.6104820892214775e-002</threshold>
            <left_val>-5.0457620620727539e-001</left_val>
            <right_val>5.0256431102752686e-001</right_val></_></_>
        <_>
          <!-- tree 2 -->
          <_>
            <!-- root node -->
            <feature>
              <rects>
                <_>
                  0 0 24 7 -1.</_>
                <_>
                  6 0 12 7 2.</_></rects>
              <tilted>0</tilted></feature>
            <threshold>1.3427239842712879e-002</threshold>
            <left_val>-7.4916017055511475e-001</left_val>
            <right_val>2.9164978861808777e-001</right_val></_></_>
        <_>
          <!-- tree 3 -->
          <_>
            <!-- root node -->
            <feature>
              <rects>
                <_>
                  22 8 2 12 -1.</_>
                <_>
                  22 8 2 6 2.</_></rects>
              <tilted>1</tilted></feature>
            <threshold>1.0800929740071297e-002</threshold>
            <left_val>-5.9259778261184692e-001</left_val>
            <right_val>2.6908519864082336e-001</right_val></_></_>
        <_>
          <!-- tree 4 -->
          <_>
            <!-- root node -->
            <feature>
              <rects>
                <_>
                  0 9 18 7 -1.</_>
                <_>
                  9 9 9 7 2.</_></rects>
              <tilted>0</tilted></feature>
            <threshold>-2.7151340618729591e-002</threshold>
            <left_val>3.3497980237007141e-001</left_val>
            <right_val>-6.7766457796096802e-001</right_val></_></_>
        <_>
          <!-- tree 5 -->
          <_>
            <!-- root node -->
            <feature>
              <rects>
                <_>
                  11 13 7 3 -1.</_>
                <_>
                  11 14 7 1 3.</_></rects>
              <tilted>0</tilted></feature>
            <threshold>4.8799179494380951e-003</threshold>
            <left_val>-2.3292030394077301e-001</left_val>
            <right_val>5.0393688678741455e-001</right_val></_></_>
        <_>
          <!-- tree 6 -->
          <_>
            <!-- root node -->
            <feature>
              <rects>
                <_>
                  4 1 8 11 -1.</_>
                <_>
                  6 1 4 11 2.</_></rects>
              <tilted>0</tilted></feature>
            <threshold>-7.7223507687449455e-003</threshold>
            <left_val>4.5455241203308105e-001</left_val>
            <right_val>-4.3495109677314758e-001</right_val></_></_>
        <_>
          <!-- tree 7 -->
          <_>
            <!-- root node -->
            <feature>
              <rects>
                <_>
                  7 3 15 12 -1.</_>
                <_>
                  7 7 15 4 3.</_></rects>
              <tilted>0</tilted></feature>
            <threshold>1.3069629669189453e-001</threshold>
            <left_val>-4.5371660590171814e-001</left_val>
            <right_val>3.7250441312789917e-001</right_val></_></_>
        <_>
          <!-- tree 8 -->
          <_>
            <!-- root node -->
            <feature>
              <rects>
                <_>
                  0 2 9 7 -1.</_>
                <_>
                  3 2 3 7 3.</_></rects>
              <tilted>0</tilted></feature>
            <threshold>-1.7219219356775284e-002</threshold>
            <left_val>4.5187890529632568e-001</left_val>
            <right_val>-4.2797708511352539e-001</right_val></_></_>
        <_>
          <!-- tree 9 -->
          <_>
            <!-- root node -->
            <feature>
              <rects>
                <_>
                  14 8 10 3 -1.</_>
                <_>
                  14 9 10 1 3.</_></rects>
              <tilted>0</tilted></feature>
            <threshold>-8.6884666234254837e-003</threshold>
            <left_val>-5.0381517410278320e-001</left_val>
            <right_val>6.2358740717172623e-002</right_val></_></_>
        <_>
          <!-- tree 10 -->
          <_>
            <!-- root node -->
            <feature>
              <rects>
                <_>
                  2 0 20 4 -1.</_>
                <_>
                  2 1 20 2 2.</_></rects>
              <tilted>0</tilted></feature>
            <threshold>-2.8832670301198959e-002</threshold>
            <left_val>8.0961740016937256e-001</left_val>
            <right_val>-2.4055120348930359e-001</right_val></_></_>
        <_>
          <!-- tree 11 -->
          <_>
            <!-- root node -->
            <feature>
              <rects>
                <_>
                  20 2 4 12 -1.</_>
                <_>
                  20 8 4 6 2.</_></rects>
              <tilted>0</tilted></feature>
            <threshold>1.2391819618642330e-002</threshold>
            <left_val>-6.0502731800079346e-001</left_val>
            <right_val>2.5135171413421631e-001</right_val></_></_>
        <_>
          <!-- tree 12 -->
          <_>
            <!-- root node -->
            <feature>
              <rects>
                <_>
                  3 8 10 2 -1.</_>
                <_>
                  3 8 5 2 2.</_></rects>
              <tilted>1</tilted></feature>
            <threshold>1.9670169800519943e-002</threshold>
            <left_val>-6.7364531755447388e-001</left_val>
            <right_val>3.6817151308059692e-001</right_val></_></_>
        <_>
          <!-- tree 13 -->
          <_>
            <!-- root node -->
            <feature>
              <rects>
                <_>
                  14 8 10 3 -1.</_>
                <_>
                  14 9 10 1 3.</_></rects>
              <tilted>0</tilted></feature>
            <threshold>5.3026349633000791e-005</threshold>
            <left_val>-2.8156891465187073e-001</left_val>
            <right_val>-8.6243860423564911e-003</right_val></_></_>
        <_>
          <!-- tree 14 -->
          <_>
            <!-- root node -->
            <feature>
              <rects>
                <_>
                  9 2 6 20 -1.</_>
                <_>
                  9 12 6 10 2.</_></rects>
              <tilted>0</tilted></feature>
            <threshold>-3.1710551120340824e-003</threshold>
            <left_val>2.5998258590698242e-001</left_val>
            <right_val>-8.3957517147064209e-001</right_val></_></_>
        <_>
          <!-- tree 15 -->
          <_>
            <!-- root node -->
            <feature>
              <rects>
                <_>
                  14 8 10 3 -1.</_>
                <_>
                  14 9 10 1 3.</_></rects>
              <tilted>0</tilted></feature>
            <threshold>-2.6799369152286090e-005</threshold>
            <left_val>1.8726749718189240e-001</left_val>
            <right_val>-1.8836820125579834e-001</right_val></_></_>
        <_>
          <!-- tree 16 -->
          <_>
            <!-- root node -->
            <feature>
              <rects>
                <_>
                  0 8 10 3 -1.</_>
                <_>
                  0 9 10 1 3.</_></rects>
              <tilted>0</tilted></feature>
            <threshold>1.1437699431553483e-003</threshold>
            <left_val>-5.1171857118606567e-001</left_val>
            <right_val>4.0884891152381897e-001</right_val></_></_>
        <_>
          <!-- tree 17 -->
          <_>
            <!-- root node -->
            <feature>
              <rects>
                <_>
                  17 2 6 2 -1.</_>
                <_>
                  20 2 3 1 2.</_>
                <_>
                  17 3 3 1 2.</_></rects>
              <tilted>0</tilted></feature>
            <threshold>3.5265330225229263e-003</threshold>
            <left_val>-1.7509040236473083e-001</left_val>
            <right_val>6.9397187232971191e-001</right_val></_></_>
        <_>
          <!-- tree 18 -->
          <_>
            <!-- root node -->
            <feature>
              <rects>
                <_>
                  12 0 6 1 -1.</_>
                <_>
                  12 0 3 1 2.</_></rects>
              <tilted>1</tilted></feature>
            <threshold>2.3731130640953779e-003</threshold>
            <left_val>-6.4432501792907715e-001</left_val>
            <right_val>3.5212209820747375e-001</right_val></_></_>
        <_>
          <!-- tree 19 -->
          <_>
            <!-- root node -->
            <feature>
              <rects>
                <_>
                  20 2 3 10 -1.</_>
                <_>
                  20 7 3 5 2.</_></rects>
              <tilted>0</tilted></feature>
            <threshold>1.2162799946963787e-002</threshold>
            <left_val>-5.2782738208770752e-001</left_val>
            <right_val>1.4077280461788177e-001</right_val></_></_>
        <_>
          <!-- tree 20 -->
          <_>
            <!-- root node -->
            <feature>
              <rects>
                <_>
                  1 2 3 10 -1.</_>
                <_>
                  1 7 3 5 2.</_></rects>
              <tilted>0</tilted></feature>
            <threshold>5.1391869783401489e-004</threshold>
            <left_val>-9.7095251083374023e-001</left_val>
            <right_val>2.6301050186157227e-001</right_val></_></_>
        <_>
          <!-- tree 21 -->
          <_>
            <!-- root node -->
            <feature>
              <rects>
                <_>
                  10 4 12 3 -1.</_>
                <_>
                  14 4 4 3 3.</_></rects>
              <tilted>0</tilted></feature>
            <threshold>-4.6040960587561131e-003</threshold>
            <left_val>2.2013179957866669e-001</left_val>
            <right_val>-5.7061827182769775e-001</right_val></_></_>
        <_>
          <!-- tree 22 -->
          <_>
            <!-- root node -->
            <feature>
              <rects>
                <_>
                  2 4 12 3 -1.</_>
                <_>
                  6 4 4 3 3.</_></rects>
              <tilted>0</tilted></feature>
            <threshold>-1.0500039905309677e-002</threshold>
            <left_val>6.8477910757064819e-001</left_val>
            <right_val>-5.5915462970733643e-001</right_val></_></_>
        <_>
          <!-- tree 23 -->
          <_>
            <!-- root node -->
            <feature>
              <rects>
                <_>
                  0 1 24 4 -1.</_>
                <_>
                  6 1 12 4 2.</_></rects>
              <tilted>0</tilted></feature>
            <threshold>1.0020519606769085e-002</threshold>
            <left_val>-6.9860512018203735e-001</left_val>
            <right_val>4.4617980718612671e-001</right_val></_></_>
        <_>
          <!-- tree 24 -->
          <_>
            <!-- root node -->
            <feature>
              <rects>
                <_>
                  0 0 5 4 -1.</_>
                <_>
                  0 2 5 2 2.</_></rects>
              <tilted>0</tilted></feature>
            <threshold>-1.5763629926368594e-003</threshold>
            <left_val>3.0808839201927185e-001</left_val>
            <right_val>-8.4279179573059082e-001</right_val></_></_></trees>
      <stage_threshold>-2.0953879356384277e+000</stage_threshold>
      <parent>5</parent>
      <next>-1</next></_>
    <_>
      <!-- stage 7 -->
      <trees>
        <_>
          <!-- tree 0 -->
          <_>
            <!-- root node -->
            <feature>
              <rects>
                <_>
                  0 7 14 6 -1.</_>
                <_>
                  0 9 14 2 3.</_></rects>
              <tilted>0</tilted></feature>
            <threshold>2.8395500034093857e-002</threshold>
            <left_val>-5.5980217456817627e-001</left_val>
            <right_val>5.7649171352386475e-001</right_val></_></_>
        <_>
          <!-- tree 1 -->
          <_>
            <!-- root node -->
            <feature>
              <rects>
                <_>
                  17 0 5 4 -1.</_>
                <_>
                  16 1 5 2 2.</_></rects>
              <tilted>1</tilted></feature>
            <threshold>-3.3628658857196569e-003</threshold>
            <left_val>2.7966991066932678e-001</left_val>
            <right_val>-6.0755968093872070e-001</right_val></_></_>
        <_>
          <!-- tree 2 -->
          <_>
            <!-- root node -->
            <feature>
              <rects>
                <_>
                  7 0 4 5 -1.</_>
                <_>
                  8 1 2 5 2.</_></rects>
              <tilted>1</tilted></feature>
            <threshold>-7.5807329267263412e-003</threshold>
            <left_val>5.5103230476379395e-001</left_val>
            <right_val>-6.3122278451919556e-001</right_val></_></_>
        <_>
          <!-- tree 3 -->
          <_>
            <!-- root node -->
            <feature>
              <rects>
                <_>
                  8 8 8 8 -1.</_>
                <_>
                  8 10 8 4 2.</_></rects>
              <tilted>0</tilted></feature>
            <threshold>-1.1719279922544956e-002</threshold>
            <left_val>7.4171221256256104e-001</left_val>
            <right_val>-4.3216881155967712e-001</right_val></_></_>
        <_>
          <!-- tree 4 -->
          <_>
            <!-- root node -->
            <feature>
              <rects>
                <_>
                  2 8 14 2 -1.</_>
                <_>
                  2 8 7 2 2.</_></rects>
              <tilted>1</tilted></feature>
            <threshold>6.4389337785542011e-003</threshold>
            <left_val>-8.6172908544540405e-001</left_val>
            <right_val>3.6988541483879089e-001</right_val></_></_>
        <_>
          <!-- tree 5 -->
          <_>
            <!-- root node -->
            <feature>
              <rects>
                <_>
                  12 22 12 2 -1.</_>
                <_>
                  12 23 12 1 2.</_></rects>
              <tilted>0</tilted></feature>
            <threshold>-4.5138788409531116e-003</threshold>
            <left_val>6.9396501779556274e-001</left_val>
            <right_val>-4.3206301331520081e-001</right_val></_></_>
        <_>
          <!-- tree 6 -->
          <_>
            <!-- root node -->
            <feature>
              <rects>
                <_>
                  6 4 12 8 -1.</_>
                <_>
                  10 4 4 8 3.</_></rects>
              <tilted>0</tilted></feature>
            <threshold>5.7198818773031235e-002</threshold>
            <left_val>-4.4883638620376587e-001</left_val>
            <right_val>6.8132662773132324e-001</right_val></_></_>
        <_>
          <!-- tree 7 -->
          <_>
            <!-- root node -->
            <feature>
              <rects>
                <_>
                  4 0 18 8 -1.</_>
                <_>
                  4 2 18 4 2.</_></rects>
              <tilted>0</tilted></feature>
            <threshold>-5.5288229137659073e-002</threshold>
            <left_val>4.3528088927268982e-001</left_val>
            <right_val>-7.4133288860321045e-001</right_val></_></_>
        <_>
          <!-- tree 8 -->
          <_>
            <!-- root node -->
            <feature>
              <rects>
                <_>
                  0 4 16 8 -1.</_>
                <_>
                  0 4 8 4 2.</_>
                <_>
                  8 8 8 4 2.</_></rects>
              <tilted>0</tilted></feature>
            <threshold>-1.2547710502985865e-004</threshold>
            <left_val>3.1785631179809570e-001</left_val>
            <right_val>-8.9849478006362915e-001</right_val></_></_>
        <_>
          <!-- tree 9 -->
          <_>
            <!-- root node -->
            <feature>
              <rects>
                <_>
                  12 2 4 6 -1.</_>
                <_>
                  13 2 2 6 2.</_></rects>
              <tilted>0</tilted></feature>
            <threshold>7.4515850283205509e-003</threshold>
            <left_val>-2.4819490313529968e-001</left_val>
            <right_val>7.5000107288360596e-001</right_val></_></_>
        <_>
          <!-- tree 10 -->
          <_>
            <!-- root node -->
            <feature>
              <rects>
                <_>
                  0 10 5 8 -1.</_>
                <_>
                  0 14 5 4 2.</_></rects>
              <tilted>0</tilted></feature>
            <threshold>-8.2877508248202503e-005</threshold>
            <left_val>3.9225459098815918e-001</left_val>
            <right_val>-7.6518297195434570e-001</right_val></_></_>
        <_>
          <!-- tree 11 -->
          <_>
            <!-- root node -->
            <feature>
              <rects>
                <_>
                  18 2 6 2 -1.</_>
                <_>
                  21 2 3 1 2.</_>
                <_>
                  18 3 3 1 2.</_></rects>
              <tilted>0</tilted></feature>
            <threshold>7.6089199865236878e-004</threshold>
            <left_val>-2.7463540434837341e-001</left_val>
            <right_val>3.7503850460052490e-001</right_val></_></_>
        <_>
          <!-- tree 12 -->
          <_>
            <!-- root node -->
            <feature>
              <rects>
                <_>
                  0 2 6 2 -1.</_>
                <_>
                  0 2 3 1 2.</_>
                <_>
                  3 3 3 1 2.</_></rects>
              <tilted>0</tilted></feature>
            <threshold>-4.6294220373965800e-004</threshold>
            <left_val>8.0253297090530396e-001</left_val>
            <right_val>-4.8838570713996887e-001</right_val></_></_>
        <_>
          <!-- tree 13 -->
          <_>
            <!-- root node -->
            <feature>
              <rects>
                <_>
                  18 2 4 10 -1.</_>
                <_>
                  18 2 2 10 2.</_></rects>
              <tilted>0</tilted></feature>
            <threshold>2.0558289543259889e-004</threshold>
            <left_val>-1.8309779465198517e-001</left_val>
            <right_val>4.0898311138153076e-001</right_val></_></_>
        <_>
          <!-- tree 14 -->
          <_>
            <!-- root node -->
            <feature>
              <rects>
                <_>
                  2 2 4 10 -1.</_>
                <_>
                  4 2 2 10 2.</_></rects>
              <tilted>0</tilted></feature>
            <threshold>-2.4531149392714724e-005</threshold>
            <left_val>5.3004419803619385e-001</left_val>
            <right_val>-6.3151967525482178e-001</right_val></_></_>
        <_>
          <!-- tree 15 -->
          <_>
            <!-- root node -->
            <feature>
              <rects>
                <_>
                  12 3 1 6 -1.</_>
                <_>
                  10 5 1 2 3.</_></rects>
              <tilted>1</tilted></feature>
            <threshold>1.0556469671428204e-002</threshold>
            <left_val>-1.2693530321121216e-001</left_val>
            <right_val>9.9999648332595825e-001</right_val></_></_></trees>
      <stage_threshold>-1.6855809688568115e+000</stage_threshold>
      <parent>6</parent>
      <next>-1</next></_>
    <_>
      <!-- stage 8 -->
      <trees>
        <_>
          <!-- tree 0 -->
          <_>
            <!-- root node -->
            <feature>
              <rects>
                <_>
                  4 7 13 6 -1.</_>
                <_>
                  4 9 13 2 3.</_></rects>
              <tilted>0</tilted></feature>
            <threshold>2.9333939775824547e-002</threshold>
            <left_val>-5.8314728736877441e-001</left_val>
            <right_val>9.1360950469970703e-001</right_val></_></_>
        <_>
          <!-- tree 1 -->
          <_>
            <!-- root node -->
            <feature>
              <rects>
                <_>
                  2 5 20 2 -1.</_>
                <_>
                  7 5 10 2 2.</_></rects>
              <tilted>0</tilted></feature>
            <threshold>1.3526479713618755e-002</threshold>
            <left_val>-8.2184958457946777e-001</left_val>
            <right_val>6.8515181541442871e-001</right_val></_></_>
        <_>
          <!-- tree 2 -->
          <_>
            <!-- root node -->
            <feature>
              <rects>
                <_>
                  5 6 12 3 -1.</_>
                <_>
                  5 6 6 3 2.</_></rects>
              <tilted>1</tilted></feature>
            <threshold>7.8507903963327408e-003</threshold>
            <left_val>-9.8323231935501099e-001</left_val>
            <right_val>6.6255998611450195e-001</right_val></_></_>
        <_>
          <!-- tree 3 -->
          <_>
            <!-- root node -->
            <feature>
              <rects>
                <_>
                  10 0 8 3 -1.</_>
                <_>
                  12 0 4 3 2.</_></rects>
              <tilted>0</tilted></feature>
            <threshold>9.0312480460852385e-004</threshold>
            <left_val>-9.5260751247406006e-001</left_val>
            <right_val>-2.5951141119003296e-001</right_val></_></_>
        <_>
          <!-- tree 4 -->
          <_>
            <!-- root node -->
            <feature>
              <rects>
                <_>
                  3 0 15 1 -1.</_>
                <_>
                  8 0 5 1 3.</_></rects>
              <tilted>0</tilted></feature>
            <threshold>1.8632590581546538e-005</threshold>
            <left_val>-9.3787068128585815e-001</left_val>
            <right_val>7.4726068973541260e-001</right_val></_></_>
        <_>
          <!-- tree 5 -->
          <_>
            <!-- root node -->
            <feature>
              <rects>
                <_>
                  16 6 8 6 -1.</_>
                <_>
                  16 8 8 2 3.</_></rects>
              <tilted>0</tilted></feature>
            <threshold>3.1874089036136866e-003</threshold>
            <left_val>-9.7011119127273560e-001</left_val>
            <right_val>4.3601679801940918e-001</right_val></_></_>
        <_>
          <!-- tree 6 -->
          <_>
            <!-- root node -->
            <feature>
              <rects>
                <_>
                  3 11 8 3 -1.</_>
                <_>
                  3 11 4 3 2.</_></rects>
              <tilted>1</tilted></feature>
            <threshold>2.1430440028780140e-005</threshold>
            <left_val>-9.8947042226791382e-001</left_val>
            <right_val>1.0001219511032104e+000</right_val></_></_>
        <_>
          <!-- tree 7 -->
          <_>
            <!-- root node -->
            <feature>
              <rects>
                <_>
                  10 0 5 15 -1.</_>
                <_>
                  10 5 5 5 3.</_></rects>
              <tilted>0</tilted></feature>
            <threshold>4.1249222122132778e-003</threshold>
            <left_val>-9.9938821792602539e-001</left_val>
            <right_val>1.</right_val></_></_>
        <_>
          <!-- tree 8 -->
          <_>
            <!-- root node -->
            <feature>
              <rects>
                <_>
                  0 0 3 9 -1.</_>
                <_>
                  1 0 1 9 3.</_></rects>
              <tilted>0</tilted></feature>
            <threshold>2.3821380455046892e-003</threshold>
            <left_val>-1.</left_val>
            <right_val>1.0007909536361694e+000</right_val></_></_>
        <_>
          <!-- tree 9 -->
          <_>
            <!-- root node -->
            <feature>
              <rects>
                <_>
                  22 0 2 1 -1.</_>
                <_>
                  22 0 1 1 2.</_></rects>
              <tilted>0</tilted></feature>
            <threshold>0.</threshold>
            <left_val>0.</left_val>
            <right_val>-1.</right_val></_></_>
        <_>
          <!-- tree 10 -->
          <_>
            <!-- root node -->
            <feature>
              <rects>
                <_>
                  0 0 2 1 -1.</_>
                <_>
                  1 0 1 1 2.</_></rects>
              <tilted>0</tilted></feature>
            <threshold>0.</threshold>
            <left_val>0.</left_val>
            <right_val>-1.</right_val></_></_>
        <_>
          <!-- tree 11 -->
          <_>
            <!-- root node -->
            <feature>
              <rects>
                <_>
                  17 2 7 12 -1.</_>
                <_>
                  17 8 7 6 2.</_></rects>
              <tilted>0</tilted></feature>
            <threshold>2.4055589456111193e-003</threshold>
            <left_val>-9.7552877664566040e-001</left_val>
            <right_val>1.</right_val></_></_>
        <_>
          <!-- tree 12 -->
          <_>
            <!-- root node -->
            <feature>
              <rects>
                <_>
                  0 0 2 8 -1.</_>
                <_>
                  0 0 1 4 2.</_>
                <_>
                  1 4 1 4 2.</_></rects>
              <tilted>0</tilted></feature>
            <threshold>5.6147610303014517e-004</threshold>
            <left_val>-1.</left_val>
            <right_val>1.0000070333480835e+000</right_val></_></_>
        <_>
          <!-- tree 13 -->
          <_>
            <!-- root node -->
            <feature>
              <rects>
                <_>
                  22 0 2 1 -1.</_>
                <_>
                  22 0 1 1 2.</_></rects>
              <tilted>0</tilted></feature>
            <threshold>0.</threshold>
            <left_val>0.</left_val>
            <right_val>-1.</right_val></_></_>
        <_>
          <!-- tree 14 -->
          <_>
            <!-- root node -->
            <feature>
              <rects>
                <_>
                  6 3 3 6 -1.</_>
                <_>
                  6 3 3 3 2.</_></rects>
              <tilted>1</tilted></feature>
            <threshold>-1.4870780287310481e-003</threshold>
            <left_val>1.</left_val>
            <right_val>-1.</right_val></_></_>
        <_>
          <!-- tree 15 -->
          <_>
            <!-- root node -->
            <feature>
              <rects>
                <_>
                  2 2 20 2 -1.</_>
                <_>
                  7 2 10 2 2.</_></rects>
              <tilted>0</tilted></feature>
            <threshold>2.2192189935594797e-003</threshold>
            <left_val>-9.8859602212905884e-001</left_val>
            <right_val>1.</right_val></_></_>
        <_>
          <!-- tree 16 -->
          <_>
            <!-- root node -->
            <feature>
              <rects>
                <_>
                  2 4 6 2 -1.</_>
                <_>
                  2 4 6 1 2.</_></rects>
              <tilted>1</tilted></feature>
            <threshold>-3.6447858292376623e-005</threshold>
            <left_val>1.</left_val>
            <right_val>-1.0000009536743164e+000</right_val></_></_>
        <_>
          <!-- tree 17 -->
          <_>
            <!-- root node -->
            <feature>
              <rects>
                <_>
                  14 6 6 7 -1.</_>
                <_>
                  16 6 2 7 3.</_></rects>
              <tilted>0</tilted></feature>
            <threshold>7.2782090865075588e-004</threshold>
            <left_val>-9.8065358400344849e-001</left_val>
            <right_val>1.</right_val></_></_>
        <_>
          <!-- tree 18 -->
          <_>
            <!-- root node -->
            <feature>
              <rects>
                <_>
                  0 0 3 21 -1.</_>
                <_>
                  1 7 1 7 9.</_></rects>
              <tilted>0</tilted></feature>
            <threshold>1.0014180094003677e-002</threshold>
            <left_val>-1.</left_val>
            <right_val>1.</right_val></_></_>
        <_>
          <!-- tree 19 -->
          <_>
            <!-- root node -->
            <feature>
              <rects>
                <_>
                  22 0 2 1 -1.</_>
                <_>
                  22 0 1 1 2.</_></rects>
              <tilted>0</tilted></feature>
            <threshold>0.</threshold>
            <left_val>0.</left_val>
            <right_val>-1.</right_val></_></_>
        <_>
          <!-- tree 20 -->
          <_>
            <!-- root node -->
            <feature>
              <rects>
                <_>
                  3 0 4 3 -1.</_>
                <_>
                  2 1 4 1 3.</_></rects>
              <tilted>1</tilted></feature>
            <threshold>-1.0605670104268938e-004</threshold>
            <left_val>1.</left_val>
            <right_val>-1.</right_val></_></_>
        <_>
          <!-- tree 21 -->
          <_>
            <!-- root node -->
            <feature>
              <rects>
                <_>
                  14 0 1 10 -1.</_>
                <_>
                  14 0 1 5 2.</_></rects>
              <tilted>1</tilted></feature>
            <threshold>1.4217480085790157e-002</threshold>
            <left_val>-9.7096097469329834e-001</left_val>
            <right_val>1.</right_val></_></_>
        <_>
          <!-- tree 22 -->
          <_>
            <!-- root node -->
            <feature>
              <rects>
                <_>
                  0 0 3 9 -1.</_>
                <_>
                  1 3 1 3 9.</_></rects>
              <tilted>0</tilted></feature>
            <threshold>-4.7472012229263783e-003</threshold>
            <left_val>1.</left_val>
            <right_val>-1.</right_val></_></_>
        <_>
          <!-- tree 23 -->
          <_>
            <!-- root node -->
            <feature>
              <rects>
                <_>
                  18 3 2 17 -1.</_>
                <_>
                  18 3 1 17 2.</_></rects>
              <tilted>0</tilted></feature>
            <threshold>-1.1580550344660878e-003</threshold>
            <left_val>-3.1784030795097351e-001</left_val>
            <right_val>-9.8284661769866943e-001</right_val></_></_>
        <_>
          <!-- tree 24 -->
          <_>
            <!-- root node -->
            <feature>
              <rects>
                <_>
                  4 3 2 17 -1.</_>
                <_>
                  5 3 1 17 2.</_></rects>
              <tilted>0</tilted></feature>
            <threshold>-5.7888420997187495e-005</threshold>
            <left_val>1.</left_val>
            <right_val>-9.6030849218368530e-001</right_val></_></_>
        <_>
          <!-- tree 25 -->
          <_>
            <!-- root node -->
            <feature>
              <rects>
                <_>
                  12 5 8 11 -1.</_>
                <_>
                  14 7 4 11 2.</_></rects>
              <tilted>1</tilted></feature>
            <threshold>3.6749120801687241e-002</threshold>
            <left_val>-7.0311349630355835e-001</left_val>
            <right_val>1.</right_val></_></_>
        <_>
          <!-- tree 26 -->
          <_>
            <!-- root node -->
            <feature>
              <rects>
                <_>
                  4 1 2 12 -1.</_>
                <_>
                  4 7 2 6 2.</_></rects>
              <tilted>0</tilted></feature>
            <threshold>4.3626679689623415e-004</threshold>
            <left_val>-9.8732441663742065e-001</left_val>
            <right_val>9.1442847251892090e-001</right_val></_></_>
        <_>
          <!-- tree 27 -->
          <_>
            <!-- root node -->
            <feature>
              <rects>
                <_>
                  3 4 21 9 -1.</_>
                <_>
                  10 7 7 3 9.</_></rects>
              <tilted>0</tilted></feature>
            <threshold>1.2884910218417645e-002</threshold>
            <left_val>-9.9727147817611694e-001</left_val>
            <right_val>1.</right_val></_></_>
        <_>
          <!-- tree 28 -->
          <_>
            <!-- root node -->
            <feature>
              <rects>
                <_>
                  3 10 12 1 -1.</_>
                <_>
                  3 10 6 1 2.</_></rects>
              <tilted>1</tilted></feature>
            <threshold>3.9148479118011892e-004</threshold>
            <left_val>-1.</left_val>
            <right_val>1.0005450248718262e+000</right_val></_></_>
        <_>
          <!-- tree 29 -->
          <_>
            <!-- root node -->
            <feature>
              <rects>
                <_>
                  22 0 2 1 -1.</_>
                <_>
                  22 0 1 1 2.</_></rects>
              <tilted>0</tilted></feature>
            <threshold>0.</threshold>
            <left_val>0.</left_val>
            <right_val>-1.</right_val></_></_>
        <_>
          <!-- tree 30 -->
          <_>
            <!-- root node -->
            <feature>
              <rects>
                <_>
                  9 0 4 22 -1.</_>
                <_>
                  9 11 4 11 2.</_></rects>
              <tilted>0</tilted></feature>
            <threshold>-3.3428780734539032e-003</threshold>
            <left_val>1.</left_val>
            <right_val>-9.9999988079071045e-001</right_val></_></_>
        <_>
          <!-- tree 31 -->
          <_>
            <!-- root node -->
            <feature>
              <rects>
                <_>
                  15 7 9 1 -1.</_>
                <_>
                  18 10 3 1 3.</_></rects>
              <tilted>1</tilted></feature>
            <threshold>1.1518980376422405e-002</threshold>
            <left_val>-9.9006247520446777e-001</left_val>
            <right_val>1.</right_val></_></_>
        <_>
          <!-- tree 32 -->
          <_>
            <!-- root node -->
            <feature>
              <rects>
                <_>
                  7 17 4 1 -1.</_>
                <_>
                  7 17 2 1 2.</_></rects>
              <tilted>1</tilted></feature>
            <threshold>1.1448399891378358e-004</threshold>
            <left_val>-1.</left_val>
            <right_val>1.0005769729614258e+000</right_val></_></_>
        <_>
          <!-- tree 33 -->
          <_>
            <!-- root node -->
            <feature>
              <rects>
                <_>
                  22 0 2 1 -1.</_>
                <_>
                  22 0 1 1 2.</_></rects>
              <tilted>0</tilted></feature>
            <threshold>0.</threshold>
            <left_val>0.</left_val>
            <right_val>-1.</right_val></_></_>
        <_>
          <!-- tree 34 -->
          <_>
            <!-- root node -->
            <feature>
              <rects>
                <_>
                  4 0 15 6 -1.</_>
                <_>
                  9 0 5 6 3.</_></rects>
              <tilted>0</tilted></feature>
            <threshold>7.8446548432111740e-003</threshold>
            <left_val>-1.</left_val>
            <right_val>1.0000950098037720e+000</right_val></_></_>
        <_>
          <!-- tree 35 -->
          <_>
            <!-- root node -->
            <feature>
              <rects>
                <_>
                  13 1 11 18 -1.</_>
                <_>
                  13 7 11 6 3.</_></rects>
              <tilted>0</tilted></feature>
            <threshold>1.4699889719486237e-001</threshold>
            <left_val>-9.9915158748626709e-001</left_val>
            <right_val>1.</right_val></_></_>
        <_>
          <!-- tree 36 -->
          <_>
            <!-- root node -->
            <feature>
              <rects>
                <_>
                  0 0 2 1 -1.</_>
                <_>
                  1 0 1 1 2.</_></rects>
              <tilted>0</tilted></feature>
            <threshold>0.</threshold>
            <left_val>0.</left_val>
            <right_val>-1.</right_val></_></_>
        <_>
          <!-- tree 37 -->
          <_>
            <!-- root node -->
            <feature>
              <rects>
                <_>
                  15 3 3 15 -1.</_>
                <_>
                  15 8 3 5 3.</_></rects>
              <tilted>0</tilted></feature>
            <threshold>5.7911197654902935e-004</threshold>
            <left_val>-9.9843549728393555e-001</left_val>
            <right_val>1.</right_val></_></_>
        <_>
          <!-- tree 38 -->
          <_>
            <!-- root node -->
            <feature>
              <rects>
                <_>
                  0 0 2 8 -1.</_>
                <_>
                  0 0 1 4 2.</_>
                <_>
                  1 4 1 4 2.</_></rects>
              <tilted>0</tilted></feature>
            <threshold>7.8296958236023784e-004</threshold>
            <left_val>-1.</left_val>
            <right_val>1.0001670122146606e+000</right_val></_></_>
        <_>
          <!-- tree 39 -->
          <_>
            <!-- root node -->
            <feature>
              <rects>
                <_>
                  22 0 2 1 -1.</_>
                <_>
                  22 0 1 1 2.</_></rects>
              <tilted>0</tilted></feature>
            <threshold>0.</threshold>
            <left_val>0.</left_val>
            <right_val>-1.</right_val></_></_>
        <_>
          <!-- tree 40 -->
          <_>
            <!-- root node -->
            <feature>
              <rects>
                <_>
                  1 8 14 3 -1.</_>
                <_>
                  1 9 14 1 3.</_></rects>
              <tilted>0</tilted></feature>
            <threshold>7.9110718797892332e-004</threshold>
            <left_val>-1.</left_val>
            <right_val>1.0001169443130493e+000</right_val></_></_>
        <_>
          <!-- tree 41 -->
          <_>
            <!-- root node -->
            <feature>
              <rects>
                <_>
                  22 0 2 1 -1.</_>
                <_>
                  22 0 1 1 2.</_></rects>
              <tilted>0</tilted></feature>
            <threshold>0.</threshold>
            <left_val>0.</left_val>
            <right_val>-1.</right_val></_></_>
        <_>
          <!-- tree 42 -->
          <_>
            <!-- root node -->
            <feature>
              <rects>
                <_>
                  0 0 12 9 -1.</_>
                <_>
                  4 3 4 3 9.</_></rects>
              <tilted>0</tilted></feature>
            <threshold>-3.4643439576029778e-003</threshold>
            <left_val>1.</left_val>
            <right_val>-1.</right_val></_></_>
        <_>
          <!-- tree 43 -->
          <_>
            <!-- root node -->
            <feature>
              <rects>
                <_>
                  17 3 4 11 -1.</_>
                <_>
                  17 3 2 11 2.</_></rects>
              <tilted>0</tilted></feature>
            <threshold>-5.9382227482274175e-004</threshold>
            <left_val>-5.0814008712768555e-001</left_val>
            <right_val>-9.9017667770385742e-001</right_val></_></_>
        <_>
          <!-- tree 44 -->
          <_>
            <!-- root node -->
            <feature>
              <rects>
                <_>
                  0 6 3 12 -1.</_>
                <_>
                  1 10 1 4 9.</_></rects>
              <tilted>0</tilted></feature>
            <threshold>5.6693027727305889e-004</threshold>
            <left_val>-9.9468898773193359e-001</left_val>
            <right_val>1.0000050067901611e+000</right_val></_></_>
        <_>
          <!-- tree 45 -->
          <_>
            <!-- root node -->
            <feature>
              <rects>
                <_>
                  9 5 9 3 -1.</_>
                <_>
                  12 5 3 3 3.</_></rects>
              <tilted>0</tilted></feature>
            <threshold>8.5465442389249802e-003</threshold>
            <left_val>-9.9610197544097900e-001</left_val>
            <right_val>1.</right_val></_></_>
        <_>
          <!-- tree 46 -->
          <_>
            <!-- root node -->
            <feature>
              <rects>
                <_>
                  0 0 3 9 -1.</_>
                <_>
                  1 3 1 3 9.</_></rects>
              <tilted>0</tilted></feature>
            <threshold>-9.7871208563446999e-003</threshold>
            <left_val>1.</left_val>
            <right_val>-1.</right_val></_></_>
        <_>
          <!-- tree 47 -->
          <_>
            <!-- root node -->
            <feature>
              <rects>
                <_>
                  20 2 3 10 -1.</_>
                <_>
                  21 2 1 10 3.</_></rects>
              <tilted>0</tilted></feature>
            <threshold>7.4701657285913825e-004</threshold>
            <left_val>-9.9357521533966064e-001</left_val>
            <right_val>1.</right_val></_></_>
        <_>
          <!-- tree 48 -->
          <_>
            <!-- root node -->
            <feature>
              <rects>
                <_>
                  12 4 9 4 -1.</_>
                <_>
                  11 5 9 2 2.</_></rects>
              <tilted>1</tilted></feature>
            <threshold>5.8152351994067430e-004</threshold>
            <left_val>-1.</left_val>
            <right_val>1.0003000497817993e+000</right_val></_></_>
        <_>
          <!-- tree 49 -->
          <_>
            <!-- root node -->
            <feature>
              <rects>
                <_>
                  22 0 2 1 -1.</_>
                <_>
                  22 0 1 1 2.</_></rects>
              <tilted>0</tilted></feature>
            <threshold>0.</threshold>
            <left_val>0.</left_val>
            <right_val>-1.</right_val></_></_>
        <_>
          <!-- tree 50 -->
          <_>
            <!-- root node -->
            <feature>
              <rects>
                <_>
                  4 1 16 3 -1.</_>
                <_>
                  4 1 8 3 2.</_></rects>
              <tilted>1</tilted></feature>
            <threshold>4.7544441185891628e-003</threshold>
            <left_val>-1.</left_val>
            <right_val>1.0003910064697266e+000</right_val></_></_>
        <_>
          <!-- tree 51 -->
          <_>
            <!-- root node -->
            <feature>
              <rects>
                <_>
                  22 0 2 1 -1.</_>
                <_>
                  22 0 1 1 2.</_></rects>
              <tilted>0</tilted></feature>
            <threshold>0.</threshold>
            <left_val>0.</left_val>
            <right_val>-1.</right_val></_></_>
        <_>
          <!-- tree 52 -->
          <_>
            <!-- root node -->
            <feature>
              <rects>
                <_>
                  5 1 2 14 -1.</_>
                <_>
                  5 8 2 7 2.</_></rects>
              <tilted>0</tilted></feature>
            <threshold>3.8280088920146227e-003</threshold>
            <left_val>-1.</left_val>
            <right_val>1.0001239776611328e+000</right_val></_></_>
        <_>
          <!-- tree 53 -->
          <_>
            <!-- root node -->
            <feature>
              <rects>
                <_>
                  22 0 2 1 -1.</_>
                <_>
                  22 0 1 1 2.</_></rects>
              <tilted>0</tilted></feature>
            <threshold>0.</threshold>
            <left_val>0.</left_val>
            <right_val>-1.</right_val></_></_>
        <_>
          <!-- tree 54 -->
          <_>
            <!-- root node -->
            <feature>
              <rects>
                <_>
                  0 2 7 12 -1.</_>
                <_>
                  0 8 7 6 2.</_></rects>
              <tilted>0</tilted></feature>
            <threshold>6.9259610027074814e-003</threshold>
            <left_val>-1.</left_val>
            <right_val>1.0000319480895996e+000</right_val></_></_>
        <_>
          <!-- tree 55 -->
          <_>
            <!-- root node -->
            <feature>
              <rects>
                <_>
                  22 0 2 1 -1.</_>
                <_>
                  22 0 1 1 2.</_></rects>
              <tilted>0</tilted></feature>
            <threshold>0.</threshold>
            <left_val>0.</left_val>
            <right_val>-1.</right_val></_></_>
        <_>
          <!-- tree 56 -->
          <_>
            <!-- root node -->
            <feature>
              <rects>
                <_>
                  5 0 15 4 -1.</_>
                <_>
                  10 5 5 4 3.</_></rects>
              <tilted>1</tilted></feature>
            <threshold>1.4618850313127041e-002</threshold>
            <left_val>-1.</left_val>
            <right_val>1.0000389814376831e+000</right_val></_></_>
        <_>
          <!-- tree 57 -->
          <_>
            <!-- root node -->
            <feature>
              <rects>
                <_>
                  12 20 2 3 -1.</_>
                <_>
                  12 21 2 1 3.</_></rects>
              <tilted>0</tilted></feature>
            <threshold>5.8206869289278984e-004</threshold>
            <left_val>-9.9658548831939697e-001</left_val>
            <right_val>1.</right_val></_></_>
        <_>
          <!-- tree 58 -->
          <_>
            <!-- root node -->
            <feature>
              <rects>
                <_>
                  0 0 6 11 -1.</_>
                <_>
                  2 0 2 11 3.</_></rects>
              <tilted>0</tilted></feature>
            <threshold>2.6441831141710281e-003</threshold>
            <left_val>-1.</left_val>
            <right_val>1.0003219842910767e+000</right_val></_></_>
        <_>
          <!-- tree 59 -->
          <_>
            <!-- root node -->
            <feature>
              <rects>
                <_>
                  22 0 2 1 -1.</_>
                <_>
                  22 0 1 1 2.</_></rects>
              <tilted>0</tilted></feature>
            <threshold>0.</threshold>
            <left_val>0.</left_val>
            <right_val>-1.</right_val></_></_>
        <_>
          <!-- tree 60 -->
          <_>
            <!-- root node -->
            <feature>
              <rects>
                <_>
                  9 16 2 5 -1.</_>
                <_>
                  9 16 1 5 2.</_></rects>
              <tilted>1</tilted></feature>
            <threshold>5.3746451158076525e-004</threshold>
            <left_val>-1.</left_val>
            <right_val>1.0003800392150879e+000</right_val></_></_>
        <_>
          <!-- tree 61 -->
          <_>
            <!-- root node -->
            <feature>
              <rects>
                <_>
                  22 0 2 1 -1.</_>
                <_>
                  22 0 1 1 2.</_></rects>
              <tilted>0</tilted></feature>
            <threshold>0.</threshold>
            <left_val>0.</left_val>
            <right_val>-1.</right_val></_></_>
        <_>
          <!-- tree 62 -->
          <_>
            <!-- root node -->
            <feature>
              <rects>
                <_>
                  9 9 6 3 -1.</_>
                <_>
                  9 9 3 3 2.</_></rects>
              <tilted>1</tilted></feature>
            <threshold>7.8296958236023784e-004</threshold>
            <left_val>-1.</left_val>
            <right_val>1.0000489950180054e+000</right_val></_></_>
        <_>
          <!-- tree 63 -->
          <_>
            <!-- root node -->
            <feature>
              <rects>
                <_>
                  22 0 2 1 -1.</_>
                <_>
                  22 0 1 1 2.</_></rects>
              <tilted>0</tilted></feature>
            <threshold>0.</threshold>
            <left_val>0.</left_val>
            <right_val>-1.</right_val></_></_>
        <_>
          <!-- tree 64 -->
          <_>
            <!-- root node -->
            <feature>
              <rects>
                <_>
                  5 1 15 2 -1.</_>
                <_>
                  10 6 5 2 3.</_></rects>
              <tilted>1</tilted></feature>
            <threshold>5.3220260888338089e-003</threshold>
            <left_val>-1.</left_val>
            <right_val>1.0000209808349609e+000</right_val></_></_>
        <_>
          <!-- tree 65 -->
          <_>
            <!-- root node -->
            <feature>
              <rects>
                <_>
                  22 0 2 1 -1.</_>
                <_>
                  22 0 1 1 2.</_></rects>
              <tilted>0</tilted></feature>
            <threshold>0.</threshold>
            <left_val>0.</left_val>
            <right_val>-1.</right_val></_></_>
        <_>
          <!-- tree 66 -->
          <_>
            <!-- root node -->
            <feature>
              <rects>
                <_>
                  6 0 4 4 -1.</_>
                <_>
                  5 1 4 2 2.</_></rects>
              <tilted>1</tilted></feature>
            <threshold>-1.5483299503102899e-003</threshold>
            <left_val>1.</left_val>
            <right_val>-1.0000009536743164e+000</right_val></_></_>
        <_>
          <!-- tree 67 -->
          <_>
            <!-- root node -->
            <feature>
              <rects>
                <_>
                  4 1 16 2 -1.</_>
                <_>
                  8 1 8 2 2.</_></rects>
              <tilted>0</tilted></feature>
            <threshold>7.4840552406385541e-004</threshold>
            <left_val>-9.9891960620880127e-001</left_val>
            <right_val>1.</right_val></_></_>
        <_>
          <!-- tree 68 -->
          <_>
            <!-- root node -->
            <feature>
              <rects>
                <_>
                  0 0 3 23 -1.</_>
                <_>
                  1 0 1 23 3.</_></rects>
              <tilted>0</tilted></feature>
            <threshold>5.8231630828231573e-004</threshold>
            <left_val>-1.</left_val>
            <right_val>1.0006370544433594e+000</right_val></_></_>
        <_>
          <!-- tree 69 -->
          <_>
            <!-- root node -->
            <feature>
              <rects>
                <_>
                  3 17 18 6 -1.</_>
                <_>
                  3 20 18 3 2.</_></rects>
              <tilted>0</tilted></feature>
            <threshold>3.9343428798019886e-003</threshold>
            <left_val>-1.</left_val>
            <right_val>1.</right_val></_></_>
        <_>
          <!-- tree 70 -->
          <_>
            <!-- root node -->
            <feature>
              <rects>
                <_>
                  0 0 2 1 -1.</_>
                <_>
                  1 0 1 1 2.</_></rects>
              <tilted>0</tilted></feature>
            <threshold>0.</threshold>
            <left_val>0.</left_val>
            <right_val>-1.</right_val></_></_>
        <_>
          <!-- tree 71 -->
          <_>
            <!-- root node -->
            <feature>
              <rects>
                <_>
                  10 6 6 4 -1.</_>
                <_>
                  12 6 2 4 3.</_></rects>
              <tilted>0</tilted></feature>
            <threshold>2.8430719394236803e-003</threshold>
            <left_val>-9.9617052078247070e-001</left_val>
            <right_val>1.</right_val></_></_>
        <_>
          <!-- tree 72 -->
          <_>
            <!-- root node -->
            <feature>
              <rects>
                <_>
                  5 8 12 3 -1.</_>
                <_>
                  5 9 12 1 3.</_></rects>
              <tilted>0</tilted></feature>
            <threshold>3.1318790279328823e-003</threshold>
            <left_val>-1.</left_val>
            <right_val>1.0008540153503418e+000</right_val></_></_>
        <_>
          <!-- tree 73 -->
          <_>
            <!-- root node -->
            <feature>
              <rects>
                <_>
                  22 0 2 1 -1.</_>
                <_>
                  22 0 1 1 2.</_></rects>
              <tilted>0</tilted></feature>
            <threshold>0.</threshold>
            <left_val>0.</left_val>
            <right_val>-1.</right_val></_></_>
        <_>
          <!-- tree 74 -->
          <_>
            <!-- root node -->
            <feature>
              <rects>
                <_>
                  1 0 16 2 -1.</_>
                <_>
                  5 0 8 2 2.</_></rects>
              <tilted>0</tilted></feature>
            <threshold>7.8296958236023784e-004</threshold>
            <left_val>-1.</left_val>
            <right_val>1.0000449419021606e+000</right_val></_></_>
        <_>
          <!-- tree 75 -->
          <_>
            <!-- root node -->
            <feature>
              <rects>
                <_>
                  15 9 9 4 -1.</_>
                <_>
                  15 9 9 2 2.</_></rects>
              <tilted>1</tilted></feature>
            <threshold>7.7948151156306267e-003</threshold>
            <left_val>-9.9825721979141235e-001</left_val>
            <right_val>1.</right_val></_></_>
        <_>
          <!-- tree 76 -->
          <_>
            <!-- root node -->
            <feature>
              <rects>
                <_>
                  0 0 4 1 -1.</_>
                <_>
                  1 0 2 1 2.</_></rects>
              <tilted>0</tilted></feature>
            <threshold>6.2436517328023911e-004</threshold>
            <left_val>-1.</left_val>
            <right_val>1.0001380443572998e+000</right_val></_></_>
        <_>
          <!-- tree 77 -->
          <_>
            <!-- root node -->
            <feature>
              <rects>
                <_>
                  22 0 2 1 -1.</_>
                <_>
                  22 0 1 1 2.</_></rects>
              <tilted>0</tilted></feature>
            <threshold>0.</threshold>
            <left_val>0.</left_val>
            <right_val>-1.</right_val></_></_>
        <_>
          <!-- tree 78 -->
          <_>
            <!-- root node -->
            <feature>
              <rects>
                <_>
                  0 0 4 9 -1.</_>
                <_>
                  1 0 2 9 2.</_></rects>
              <tilted>0</tilted></feature>
            <threshold>2.9452570015564561e-004</threshold>
            <left_val>-1.</left_val>
            <right_val>1.0000079870223999e+000</right_val></_></_>
        <_>
          <!-- tree 79 -->
          <_>
            <!-- root node -->
            <feature>
              <rects>
                <_>
                  22 0 2 1 -1.</_>
                <_>
                  22 0 1 1 2.</_></rects>
              <tilted>0</tilted></feature>
            <threshold>0.</threshold>
            <left_val>0.</left_val>
            <right_val>-1.</right_val></_></_>
        <_>
          <!-- tree 80 -->
          <_>
            <!-- root node -->
            <feature>
              <rects>
                <_>
                  0 0 15 8 -1.</_>
                <_>
                  0 2 15 4 2.</_></rects>
              <tilted>0</tilted></feature>
            <threshold>-8.1663712626323104e-004</threshold>
            <left_val>1.</left_val>
            <right_val>-1.0000009536743164e+000</right_val></_></_>
        <_>
          <!-- tree 81 -->
          <_>
            <!-- root node -->
            <feature>
              <rects>
                <_>
                  16 1 8 14 -1.</_>
                <_>
                  16 8 8 7 2.</_></rects>
              <tilted>0</tilted></feature>
            <threshold>2.2728820331394672e-003</threshold>
            <left_val>-9.8636972904205322e-001</left_val>
            <right_val>1.</right_val></_></_>
        <_>
          <!-- tree 82 -->
          <_>
            <!-- root node -->
            <feature>
              <rects>
                <_>
                  0 0 3 15 -1.</_>
                <_>
                  1 5 1 5 9.</_></rects>
              <tilted>0</tilted></feature>
            <threshold>1.1744540184736252e-002</threshold>
            <left_val>-1.</left_val>
            <right_val>1.</right_val></_></_>
        <_>
          <!-- tree 83 -->
          <_>
            <!-- root node -->
            <feature>
              <rects>
                <_>
                  22 0 2 1 -1.</_>
                <_>
                  22 0 1 1 2.</_></rects>
              <tilted>0</tilted></feature>
            <threshold>0.</threshold>
            <left_val>0.</left_val>
            <right_val>-1.</right_val></_></_>
        <_>
          <!-- tree 84 -->
          <_>
            <!-- root node -->
            <feature>
              <rects>
                <_>
                  0 0 16 16 -1.</_>
                <_>
                  0 0 8 8 2.</_>
                <_>
                  8 8 8 8 2.</_></rects>
              <tilted>0</tilted></feature>
            <threshold>-3.7867589853703976e-003</threshold>
            <left_val>1.</left_val>
            <right_val>-1.0000009536743164e+000</right_val></_></_>
        <_>
          <!-- tree 85 -->
          <_>
            <!-- root node -->
            <feature>
              <rects>
                <_>
                  16 1 8 14 -1.</_>
                <_>
                  16 8 8 7 2.</_></rects>
              <tilted>0</tilted></feature>
            <threshold>9.5466775819659233e-003</threshold>
            <left_val>-9.8655307292938232e-001</left_val>
            <right_val>1.</right_val></_></_>
        <_>
          <!-- tree 86 -->
          <_>
            <!-- root node -->
            <feature>
              <rects>
                <_>
                  0 0 3 9 -1.</_>
                <_>
                  1 3 1 3 9.</_></rects>
              <tilted>0</tilted></feature>
            <threshold>-6.8372390232980251e-003</threshold>
            <left_val>1.</left_val>
            <right_val>-1.</right_val></_></_>
        <_>
          <!-- tree 87 -->
          <_>
            <!-- root node -->
            <feature>
              <rects>
                <_>
                  10 5 6 16 -1.</_>
                <_>
                  10 13 6 8 2.</_></rects>
              <tilted>0</tilted></feature>
            <threshold>-4.3301720172166824e-002</threshold>
            <left_val>1.</left_val>
            <right_val>-9.5421421527862549e-001</right_val></_></_>
        <_>
          <!-- tree 88 -->
          <_>
            <!-- root node -->
            <feature>
              <rects>
                <_>
                  6 4 9 2 -1.</_>
                <_>
                  9 7 3 2 3.</_></rects>
              <tilted>1</tilted></feature>
            <threshold>8.3013912662863731e-003</threshold>
            <left_val>-9.9720841646194458e-001</left_val>
            <right_val>9.9999958276748657e-001</right_val></_></_>
        <_>
          <!-- tree 89 -->
          <_>
            <!-- root node -->
            <feature>
              <rects>
                <_>
                  12 4 4 4 -1.</_>
                <_>
                  13 5 2 4 2.</_></rects>
              <tilted>1</tilted></feature>
            <threshold>1.0751919762697071e-004</threshold>
            <left_val>-9.9552500247955322e-001</left_val>
            <right_val>1.7002670466899872e-001</right_val></_></_>
        <_>
          <!-- tree 90 -->
          <_>
            <!-- root node -->
            <feature>
              <rects>
                <_>
                  0 1 3 14 -1.</_>
                <_>
                  0 8 3 7 2.</_></rects>
              <tilted>0</tilted></feature>
            <threshold>3.3030800987035036e-003</threshold>
            <left_val>-1.</left_val>
            <right_val>1.0000029802322388e+000</right_val></_></_>
        <_>
          <!-- tree 91 -->
          <_>
            <!-- root node -->
            <feature>
              <rects>
                <_>
                  22 0 2 1 -1.</_>
                <_>
                  22 0 1 1 2.</_></rects>
              <tilted>0</tilted></feature>
            <threshold>5.9553451137617230e-005</threshold>
            <left_val>-1.</left_val>
            <right_val>1.</right_val></_></_>
        <_>
          <!-- tree 92 -->
          <_>
            <!-- root node -->
            <feature>
              <rects>
                <_>
                  0 0 2 1 -1.</_>
                <_>
                  1 0 1 1 2.</_></rects>
              <tilted>0</tilted></feature>
            <threshold>0.</threshold>
            <left_val>0.</left_val>
            <right_val>-1.</right_val></_></_>
        <_>
          <!-- tree 93 -->
          <_>
            <!-- root node -->
            <feature>
              <rects>
                <_>
                  17 6 6 4 -1.</_>
                <_>
                  17 8 6 2 2.</_></rects>
              <tilted>0</tilted></feature>
            <threshold>1.1716959998011589e-002</threshold>
            <left_val>-9.9590438604354858e-001</left_val>
            <right_val>1.</right_val></_></_>
        <_>
          <!-- tree 94 -->
          <_>
            <!-- root node -->
            <feature>
              <rects>
                <_>
                  0 0 1 21 -1.</_>
                <_>
                  0 7 1 7 3.</_></rects>
              <tilted>0</tilted></feature>
            <threshold>-3.9148479118011892e-004</threshold>
            <left_val>1.</left_val>
            <right_val>-1.</right_val></_></_>
        <_>
          <!-- tree 95 -->
          <_>
            <!-- root node -->
            <feature>
              <rects>
                <_>
                  13 17 6 6 -1.</_>
                <_>
                  16 17 3 3 2.</_>
                <_>
                  13 20 3 3 2.</_></rects>
              <tilted>0</tilted></feature>
            <threshold>6.1041591688990593e-003</threshold>
            <left_val>-9.9762189388275146e-001</left_val>
            <right_val>1.</right_val></_></_>
        <_>
          <!-- tree 96 -->
          <_>
            <!-- root node -->
            <feature>
              <rects>
                <_>
                  0 0 2 12 -1.</_>
                <_>
                  0 0 1 6 2.</_>
                <_>
                  1 6 1 6 2.</_></rects>
              <tilted>0</tilted></feature>
            <threshold>1.6969069838523865e-003</threshold>
            <left_val>-1.</left_val>
            <right_val>1.0001020431518555e+000</right_val></_></_>
        <_>
          <!-- tree 97 -->
          <_>
            <!-- root node -->
            <feature>
              <rects>
                <_>
                  22 0 2 1 -1.</_>
                <_>
                  22 0 1 1 2.</_></rects>
              <tilted>0</tilted></feature>
            <threshold>0.</threshold>
            <left_val>0.</left_val>
            <right_val>-1.</right_val></_></_>
        <_>
          <!-- tree 98 -->
          <_>
            <!-- root node -->
            <feature>
              <rects>
                <_>
                  6 3 12 2 -1.</_>
                <_>
                  9 3 6 2 2.</_></rects>
              <tilted>0</tilted></feature>
            <threshold>1.7901880200952291e-003</threshold>
            <left_val>-1.</left_val>
            <right_val>1.0001130104064941e+000</right_val></_></_>
        <_>
          <!-- tree 99 -->
          <_>
            <!-- root node -->
            <feature>
              <rects>
                <_>
                  22 0 2 1 -1.</_>
                <_>
                  22 0 1 1 2.</_></rects>
              <tilted>0</tilted></feature>
            <threshold>0.</threshold>
            <left_val>0.</left_val>
            <right_val>-1.</right_val></_></_>
        <_>
          <!-- tree 100 -->
          <_>
            <!-- root node -->
            <feature>
              <rects>
                <_>
                  8 8 8 6 -1.</_>
                <_>
                  8 8 4 6 2.</_></rects>
              <tilted>1</tilted></feature>
            <threshold>5.8584811631590128e-004</threshold>
            <left_val>-1.</left_val>
            <right_val>1.0000419616699219e+000</right_val></_></_>
        <_>
          <!-- tree 101 -->
          <_>
            <!-- root node -->
            <feature>
              <rects>
                <_>
                  22 0 2 1 -1.</_>
                <_>
                  22 0 1 1 2.</_></rects>
              <tilted>0</tilted></feature>
            <threshold>0.</threshold>
            <left_val>0.</left_val>
            <right_val>-1.</right_val></_></_>
        <_>
          <!-- tree 102 -->
          <_>
            <!-- root node -->
            <feature>
              <rects>
                <_>
                  1 3 4 10 -1.</_>
                <_>
                  1 8 4 5 2.</_></rects>
              <tilted>0</tilted></feature>
            <threshold>2.9560551047325134e-003</threshold>
            <left_val>-1.</left_val>
            <right_val>1.0000970363616943e+000</right_val></_></_>
        <_>
          <!-- tree 103 -->
          <_>
            <!-- root node -->
            <feature>
              <rects>
                <_>
                  22 0 2 1 -1.</_>
                <_>
                  22 0 1 1 2.</_></rects>
              <tilted>0</tilted></feature>
            <threshold>0.</threshold>
            <left_val>0.</left_val>
            <right_val>-1.</right_val></_></_>
        <_>
          <!-- tree 104 -->
          <_>
            <!-- root node -->
            <feature>
              <rects>
                <_>
                  0 3 2 8 -1.</_>
                <_>
                  0 7 2 4 2.</_></rects>
              <tilted>0</tilted></feature>
            <threshold>6.5508799161761999e-004</threshold>
            <left_val>-1.</left_val>
            <right_val>1.0000300407409668e+000</right_val></_></_>
        <_>
          <!-- tree 105 -->
          <_>
            <!-- root node -->
            <feature>
              <rects>
                <_>
                  22 0 2 1 -1.</_>
                <_>
                  22 0 1 1 2.</_></rects>
              <tilted>0</tilted></feature>
            <threshold>0.</threshold>
            <left_val>0.</left_val>
            <right_val>-1.</right_val></_></_>
        <_>
          <!-- tree 106 -->
          <_>
            <!-- root node -->
            <feature>
              <rects>
                <_>
                  3 8 1 6 -1.</_>
                <_>
                  3 10 1 2 3.</_></rects>
              <tilted>0</tilted></feature>
            <threshold>3.8246120675466955e-004</threshold>
            <left_val>-1.</left_val>
            <right_val>1.0000640153884888e+000</right_val></_></_>
        <_>
          <!-- tree 107 -->
          <_>
            <!-- root node -->
            <feature>
              <rects>
                <_>
                  15 7 9 8 -1.</_>
                <_>
                  15 7 9 4 2.</_></rects>
              <tilted>1</tilted></feature>
            <threshold>3.5791099071502686e-002</threshold>
            <left_val>-9.9616271257400513e-001</left_val>
            <right_val>1.</right_val></_></_>
        <_>
          <!-- tree 108 -->
          <_>
            <!-- root node -->
            <feature>
              <rects>
                <_>
                  0 0 2 1 -1.</_>
                <_>
                  1 0 1 1 2.</_></rects>
              <tilted>0</tilted></feature>
            <threshold>0.</threshold>
            <left_val>0.</left_val>
            <right_val>-1.</right_val></_></_>
        <_>
          <!-- tree 109 -->
          <_>
            <!-- root node -->
            <feature>
              <rects>
                <_>
                  6 3 12 18 -1.</_>
                <_>
                  9 3 6 18 2.</_></rects>
              <tilted>0</tilted></feature>
            <threshold>6.4213830046355724e-003</threshold>
            <left_val>-1.</left_val>
            <right_val>1.</right_val></_></_>
        <_>
          <!-- tree 110 -->
          <_>
            <!-- root node -->
            <feature>
              <rects>
                <_>
                  0 0 2 1 -1.</_>
                <_>
                  1 0 1 1 2.</_></rects>
              <tilted>0</tilted></feature>
            <threshold>0.</threshold>
            <left_val>0.</left_val>
            <right_val>-1.</right_val></_></_>
        <_>
          <!-- tree 111 -->
          <_>
            <!-- root node -->
            <feature>
              <rects>
                <_>
                  6 4 18 4 -1.</_>
                <_>
                  6 6 18 2 2.</_></rects>
              <tilted>0</tilted></feature>
            <threshold>1.8172610551118851e-002</threshold>
            <left_val>-1.</left_val>
            <right_val>1.</right_val></_></_>
        <_>
          <!-- tree 112 -->
          <_>
            <!-- root node -->
            <feature>
              <rects>
                <_>
                  0 0 2 1 -1.</_>
                <_>
                  1 0 1 1 2.</_></rects>
              <tilted>0</tilted></feature>
            <threshold>0.</threshold>
            <left_val>0.</left_val>
            <right_val>-1.</right_val></_></_>
        <_>
          <!-- tree 113 -->
          <_>
            <!-- root node -->
            <feature>
              <rects>
                <_>
                  19 1 4 12 -1.</_>
                <_>
                  19 7 4 6 2.</_></rects>
              <tilted>0</tilted></feature>
            <threshold>3.7586980033665895e-003</threshold>
            <left_val>-9.9666202068328857e-001</left_val>
            <right_val>1.</right_val></_></_>
        <_>
          <!-- tree 114 -->
          <_>
            <!-- root node -->
            <feature>
              <rects>
                <_>
                  1 2 3 19 -1.</_>
                <_>
                  2 2 1 19 3.</_></rects>
              <tilted>0</tilted></feature>
            <threshold>3.6547658964991570e-004</threshold>
            <left_val>-1.</left_val>
            <right_val>1.0013149976730347e+000</right_val></_></_>
        <_>
          <!-- tree 115 -->
          <_>
            <!-- root node -->
            <feature>
              <rects>
                <_>
                  22 0 2 1 -1.</_>
                <_>
                  22 0 1 1 2.</_></rects>
              <tilted>0</tilted></feature>
            <threshold>0.</threshold>
            <left_val>0.</left_val>
            <right_val>-1.</right_val></_></_>
        <_>
          <!-- tree 116 -->
          <_>
            <!-- root node -->
            <feature>
              <rects>
                <_>
                  10 2 9 9 -1.</_>
                <_>
                  13 5 3 9 3.</_></rects>
              <tilted>1</tilted></feature>
            <threshold>8.1623103469610214e-003</threshold>
            <left_val>-1.</left_val>
            <right_val>1.0001829862594604e+000</right_val></_></_>
        <_>
          <!-- tree 117 -->
          <_>
            <!-- root node -->
            <feature>
              <rects>
                <_>
                  22 0 2 1 -1.</_>
                <_>
                  22 0 1 1 2.</_></rects>
              <tilted>0</tilted></feature>
            <threshold>0.</threshold>
            <left_val>0.</left_val>
            <right_val>-1.</right_val></_></_>
        <_>
          <!-- tree 118 -->
          <_>
            <!-- root node -->
            <feature>
              <rects>
                <_>
                  0 2 10 12 -1.</_>
                <_>
                  0 8 10 6 2.</_></rects>
              <tilted>0</tilted></feature>
            <threshold>9.6573885530233383e-003</threshold>
            <left_val>-1.</left_val>
            <right_val>1.0006480216979980e+000</right_val></_></_>
        <_>
          <!-- tree 119 -->
          <_>
            <!-- root node -->
            <feature>
              <rects>
                <_>
                  22 0 2 1 -1.</_>
                <_>
                  22 0 1 1 2.</_></rects>
              <tilted>0</tilted></feature>
            <threshold>0.</threshold>
            <left_val>0.</left_val>
            <right_val>-1.</right_val></_></_>
        <_>
          <!-- tree 120 -->
          <_>
            <!-- root node -->
            <feature>
              <rects>
                <_>
                  0 2 3 10 -1.</_>
                <_>
                  0 7 3 5 2.</_></rects>
              <tilted>0</tilted></feature>
            <threshold>4.6860361471772194e-003</threshold>
            <left_val>-1.</left_val>
            <right_val>1.0010520219802856e+000</right_val></_></_>
        <_>
          <!-- tree 121 -->
          <_>
            <!-- root node -->
            <feature>
              <rects>
                <_>
                  22 0 2 1 -1.</_>
                <_>
                  22 0 1 1 2.</_></rects>
              <tilted>0</tilted></feature>
            <threshold>0.</threshold>
            <left_val>0.</left_val>
            <right_val>-1.</right_val></_></_>
        <_>
          <!-- tree 122 -->
          <_>
            <!-- root node -->
            <feature>
              <rects>
                <_>
                  12 5 4 3 -1.</_>
                <_>
                  11 6 4 1 3.</_></rects>
              <tilted>1</tilted></feature>
            <threshold>2.3085669454303570e-005</threshold>
            <left_val>-1.</left_val>
            <right_val>9.9999177455902100e-001</right_val></_></_>
        <_>
          <!-- tree 123 -->
          <_>
            <!-- root node -->
            <feature>
              <rects>
                <_>
                  22 0 2 1 -1.</_>
                <_>
                  22 0 1 1 2.</_></rects>
              <tilted>0</tilted></feature>
            <threshold>0.</threshold>
            <left_val>0.</left_val>
            <right_val>-1.</right_val></_></_>
        <_>
          <!-- tree 124 -->
          <_>
            <!-- root node -->
            <feature>
              <rects>
                <_>
                  6 8 7 4 -1.</_>
                <_>
                  6 9 7 2 2.</_></rects>
              <tilted>0</tilted></feature>
            <threshold>3.1409119401359931e-005</threshold>
            <left_val>-1.</left_val>
            <right_val>1.0003639459609985e+000</right_val></_></_>
        <_>
          <!-- tree 125 -->
          <_>
            <!-- root node -->
            <feature>
              <rects>
                <_>
                  22 0 2 1 -1.</_>
                <_>
                  22 0 1 1 2.</_></rects>
              <tilted>0</tilted></feature>
            <threshold>0.</threshold>
            <left_val>0.</left_val>
            <right_val>-1.</right_val></_></_>
        <_>
          <!-- tree 126 -->
          <_>
            <!-- root node -->
            <feature>
              <rects>
                <_>
                  2 0 18 18 -1.</_>
                <_>
                  8 6 6 6 9.</_></rects>
              <tilted>0</tilted></feature>
            <threshold>2.1019529551267624e-002</threshold>
            <left_val>-9.9870389699935913e-001</left_val>
            <right_val>1.0002590417861938e+000</right_val></_></_>
        <_>
          <!-- tree 127 -->
          <_>
            <!-- root node -->
            <feature>
              <rects>
                <_>
                  15 7 9 8 -1.</_>
                <_>
                  15 7 9 4 2.</_></rects>
              <tilted>1</tilted></feature>
            <threshold>3.9050329476594925e-002</threshold>
            <left_val>-9.8648780584335327e-001</left_val>
            <right_val>1.</right_val></_></_>
        <_>
          <!-- tree 128 -->
          <_>
            <!-- root node -->
            <feature>
              <rects>
                <_>
                  0 0 2 18 -1.</_>
                <_>
                  0 9 2 9 2.</_></rects>
              <tilted>0</tilted></feature>
            <threshold>4.8730210401117802e-003</threshold>
            <left_val>-1.</left_val>
            <right_val>1.0002950429916382e+000</right_val></_></_>
