<?xml version="1.0"?>
<opencv_storage>
<haartraining_final_6 type_id="opencv-haar-classifier">
  <size>
    24 24</size>
  <stages>
    <_>
      <!-- stage 0 -->
      <trees>
        <_>
          <!-- tree 0 -->
          <_>
            <!-- root node -->
            <feature>
              <rects>
                <_>
                  0 4 6 8 -1.</_>
                <_>
                  0 8 6 4 2.</_></rects>
              <tilted>0</tilted></feature>
            <threshold>3.7858579307794571e-002</threshold>
            <left_val>-8.7891238927841187e-001</left_val>
            <right_val>8.0808508396148682e-001</right_val></_></_>
        <_>
          <!-- tree 1 -->
          <_>
            <!-- root node -->
            <feature>
              <rects>
                <_>
                  4 1 16 5 -1.</_>
                <_>
                  8 1 8 5 2.</_></rects>
              <tilted>0</tilted></feature>
            <threshold>3.3087410032749176e-002</threshold>
            <left_val>-7.1621108055114746e-001</left_val>
            <right_val>8.2035142183303833e-001</right_val></_></_>
        <_>
          <!-- tree 2 -->
          <_>
            <!-- root node -->
            <feature>
              <rects>
                <_>
                  0 5 24 4 -1.</_>
                <_>
                  0 7 24 2 2.</_></rects>
              <tilted>0</tilted></feature>
            <threshold>3.1430050730705261e-002</threshold>
            <left_val>-7.8695762157440186e-001</left_val>
            <right_val>5.9373760223388672e-001</right_val></_></_>
        <_>
          <!-- tree 3 -->
          <_>
            <!-- root node -->
            <feature>
              <rects>
                <_>
                  18 2 6 19 -1.</_>
                <_>
                  18 2 3 19 2.</_></rects>
              <tilted>0</tilted></feature>
            <threshold>-8.7559148669242859e-003</threshold>
            <left_val>3.5017389059066772e-001</left_val>
            <right_val>-3.9706119894981384e-001</right_val></_></_>
        <_>
          <!-- tree 4 -->
          <_>
            <!-- root node -->
            <feature>
              <rects>
                <_>
                  0 2 6 19 -1.</_>
                <_>
                  3 2 3 19 2.</_></rects>
              <tilted>0</tilted></feature>
            <threshold>-1.0959849692881107e-002</threshold>
            <left_val>7.0579320192337036e-001</left_val>
            <right_val>-6.9112879037857056e-001</right_val></_></_>
        <_>
          <!-- tree 5 -->
          <_>
            <!-- root node -->
            <feature>
              <rects>
                <_>
                  15 0 4 1 -1.</_>
                <_>
                  15 0 2 1 2.</_></rects>
              <tilted>1</tilted></feature>
            <threshold>4.3411608785390854e-003</threshold>
            <left_val>-4.1503170132637024e-001</left_val>
            <right_val>5.6227052211761475e-001</right_val></_></_>
        <_>
          <!-- tree 6 -->
          <_>
            <!-- root node -->
            <feature>
              <rects>
                <_>
                  0 0 15 6 -1.</_>
                <_>
                  0 2 15 2 3.</_></rects>
              <tilted>0</tilted></feature>
            <threshold>-3.3542271703481674e-002</threshold>
            <left_val>6.9143402576446533e-001</left_val>
            <right_val>-5.2968978881835938e-001</right_val></_></_></trees>
      <stage_threshold>-2.0407691001892090e+000</stage_threshold>
      <parent>-1</parent>
      <next>-1</next></_>
    <_>
      <!-- stage 1 -->
      <trees>
        <_>
          <!-- tree 0 -->
          <_>
            <!-- root node -->
            <feature>
              <rects>
                <_>
                  0 5 24 4 -1.</_>
                <_>
                  0 7 24 2 2.</_></rects>
              <tilted>0</tilted></feature>
            <threshold>6.2610693275928497e-002</threshold>
            <left_val>-7.4936157464981079e-001</left_val>
            <right_val>8.2495391368865967e-001</right_val></_></_>
        <_>
          <!-- tree 1 -->
          <_>
            <!-- root node -->
            <feature>
              <rects>
                <_>
                  3 4 18 4 -1.</_>
                <_>
                  9 4 6 4 3.</_></rects>
              <tilted>0</tilted></feature>
            <threshold>6.5951369702816010e-002</threshold>
            <left_val>-6.0729187726974487e-001</left_val>
            <right_val>7.5080722570419312e-001</right_val></_></_>
        <_>
          <!-- tree 2 -->
          <_>
            <!-- root node -->
            <feature>
              <rects>
                <_>
                  0 2 24 12 -1.</_>
                <_>
                  0 8 24 6 2.</_></rects>
              <tilted>0</tilted></feature>
            <threshold>1.1457499861717224e-001</threshold>
            <left_val>-8.1082421541213989e-001</left_val>
            <right_val>4.9258300662040710e-001</right_val></_></_>
        <_>
          <!-- tree 3 -->
          <_>
            <!-- root node -->
            <feature>
              <rects>
                <_>
                  23 8 1 12 -1.</_>
                <_>
                  23 8 1 6 2.</_></rects>
              <tilted>1</tilted></feature>
            <threshold>2.9351838747970760e-004</threshold>
            <left_val>-6.5621751546859741e-001</left_val>
            <right_val>3.8156849145889282e-001</right_val></_></_>
        <_>
          <!-- tree 4 -->
          <_>
            <!-- root node -->
            <feature>
              <rects>
                <_>
                  0 14 24 8 -1.</_>
                <_>
                  12 14 12 8 2.</_></rects>
              <tilted>0</tilted></feature>
            <threshold>-8.4958806633949280e-002</threshold>
            <left_val>7.4444687366485596e-001</left_val>
            <right_val>-5.7247561216354370e-001</right_val></_></_>
        <_>
          <!-- tree 5 -->
          <_>
            <!-- root node -->
            <feature>
              <rects>
                <_>
                  5 0 18 3 -1.</_>
                <_>
                  11 1 6 1 9.</_></rects>
              <tilted>0</tilted></feature>
            <threshold>5.9199980460107327e-003</threshold>
            <left_val>-6.0900390148162842e-001</left_val>
            <right_val>3.7576329708099365e-001</right_val></_></_>
        <_>
          <!-- tree 6 -->
          <_>
            <!-- root node -->
            <feature>
              <rects>
                <_>
                  1 19 2 1 -1.</_>
                <_>
                  1 19 1 1 2.</_></rects>
              <tilted>1</tilted></feature>
            <threshold>1.4661799650639296e-004</threshold>
            <left_val>-7.5268852710723877e-001</left_val>
            <right_val>4.8341161012649536e-001</right_val></_></_>
        <_>
          <!-- tree 7 -->
          <_>
            <!-- root node -->
            <feature>
              <rects>
                <_>
                  23 2 1 12 -1.</_>
                <_>
                  23 8 1 6 2.</_></rects>
              <tilted>0</tilted></feature>
            <threshold>2.5251999031752348e-003</threshold>
            <left_val>-8.3595722913742065e-001</left_val>
            <right_val>4.1527819633483887e-001</right_val></_></_></trees>
      <stage_threshold>-2.9996209144592285e+000</stage_threshold>
      <parent>0</parent>
      <next>-1</next></_>
    <_>
      <!-- stage 2 -->
      <trees>
        <_>
          <!-- tree 0 -->
          <_>
            <!-- root node -->
            <feature>
              <rects>
                <_>
                  7 1 12 5 -1.</_>
                <_>
                  11 5 4 5 3.</_></rects>
              <tilted>1</tilted></feature>
            <threshold>1.3773770630359650e-001</threshold>
            <left_val>-6.2499928474426270e-001</left_val>
            <right_val>8.8712298870086670e-001</right_val></_></_>
        <_>
          <!-- tree 1 -->
          <_>
            <!-- root node -->
            <feature>
              <rects>
                <_>
                  15 0 9 2 -1.</_>
                <_>
                  18 3 3 2 3.</_></rects>
              <tilted>1</tilted></feature>
            <threshold>-1.3680090196430683e-002</threshold>
            <left_val>3.9962780475616455e-001</left_val>
            <right_val>-7.9020071029663086e-001</right_val></_></_>
        <_>
          <!-- tree 2 -->
          <_>
            <!-- root node -->
            <feature>
              <rects>
                <_>
                  9 0 1 8 -1.</_>
                <_>
                  7 2 1 4 2.</_></rects>
              <tilted>1</tilted></feature>
            <threshold>-1.1449949815869331e-002</threshold>
            <left_val>6.5211987495422363e-001</left_val>
            <right_val>-6.1944907903671265e-001</right_val></_></_>
        <_>
          <!-- tree 3 -->
          <_>
            <!-- root node -->
            <feature>
              <rects>
                <_>
                  23 10 1 10 -1.</_>
                <_>
                  23 10 1 5 2.</_></rects>
              <tilted>1</tilted></feature>
            <threshold>3.1960529740899801e-003</threshold>
            <left_val>-4.6861401200294495e-001</left_val>
            <right_val>3.0802831053733826e-001</right_val></_></_>
        <_>
          <!-- tree 4 -->
          <_>
            <!-- root node -->
            <feature>
              <rects>
                <_>
                  0 3 2 12 -1.</_>
                <_>
                  0 9 2 6 2.</_></rects>
              <tilted>0</tilted></feature>
            <threshold>6.4306058920919895e-003</threshold>
            <left_val>-8.0018979310989380e-001</left_val>
            <right_val>3.3593991398811340e-001</right_val></_></_>
        <_>
          <!-- tree 5 -->
          <_>
            <!-- root node -->
            <feature>
              <rects>
                <_>
                  6 0 17 2 -1.</_>
                <_>
                  6 1 17 1 2.</_></rects>
              <tilted>0</tilted></feature>
            <threshold>-7.4910679832100868e-003</threshold>
            <left_val>5.0133901834487915e-001</left_val>
            <right_val>-4.8669761419296265e-001</right_val></_></_>
        <_>
          <!-- tree 6 -->
          <_>
            <!-- root node -->
            <feature>
              <rects>
                <_>
                  8 3 4 7 -1.</_>
                <_>
                  10 3 2 7 2.</_></rects>
              <tilted>0</tilted></feature>
            <threshold>1.0415679775178432e-002</threshold>
            <left_val>-4.7260639071464539e-001</left_val>
            <right_val>6.3220697641372681e-001</right_val></_></_>
        <_>
          <!-- tree 7 -->
          <_>
            <!-- root node -->
            <feature>
              <rects>
                <_>
                  22 11 2 8 -1.</_>
                <_>
                  22 11 2 4 2.</_></rects>
              <tilted>1</tilted></feature>
            <threshold>3.9987578056752682e-003</threshold>
            <left_val>-3.3127608895301819e-001</left_val>
            <right_val>1.1514479666948318e-001</right_val></_></_>
        <_>
          <!-- tree 8 -->
          <_>
            <!-- root node -->
            <feature>
              <rects>
                <_>
                  1 4 22 12 -1.</_>
                <_>
                  1 8 22 4 3.</_></rects>
              <tilted>0</tilted></feature>
            <threshold>8.5025332868099213e-002</threshold>
            <left_val>-7.1487480401992798e-001</left_val>
            <right_val>4.2065611481666565e-001</right_val></_></_>
        <_>
          <!-- tree 9 -->
          <_>
            <!-- root node -->
            <feature>
              <rects>
                <_>
                  15 0 9 9 -1.</_>
                <_>
                  18 3 3 9 3.</_></rects>
              <tilted>1</tilted></feature>
            <threshold>-2.6034750044345856e-002</threshold>
            <left_val>4.2308178544044495e-001</left_val>
            <right_val>-4.6533969044685364e-001</right_val></_></_>
        <_>
          <!-- tree 10 -->
          <_>
            <!-- root node -->
            <feature>
              <rects>
                <_>
                  2 3 12 11 -1.</_>
                <_>
                  5 3 6 11 2.</_></rects>
              <tilted>0</tilted></feature>
            <threshold>-4.9699340015649796e-002</threshold>
            <left_val>7.7946567535400391e-001</left_val>
            <right_val>-4.6525770425796509e-001</right_val></_></_></trees>
      <stage_threshold>-2.7231209278106689e+000</stage_threshold>
      <parent>1</parent>
      <next>-1</next></_>
    <_>
      <!-- stage 3 -->
      <trees>
        <_>
          <!-- tree 0 -->
          <_>
            <!-- root node -->
            <feature>
              <rects>
                <_>
                  5 4 12 3 -1.</_>
                <_>
                  8 4 6 3 2.</_></rects>
              <tilted>0</tilted></feature>
            <threshold>3.2453268766403198e-002</threshold>
            <left_val>-5.9296977519989014e-001</left_val>
            <right_val>8.4630471467971802e-001</right_val></_></_>
        <_>
          <!-- tree 1 -->
          <_>
            <!-- root node -->
            <feature>
              <rects>
                <_>
                  1 5 23 4 -1.</_>
                <_>
                  1 7 23 2 2.</_></rects>
              <tilted>0</tilted></feature>
            <threshold>5.6554138660430908e-002</threshold>
            <left_val>-5.8653628826141357e-001</left_val>
            <right_val>6.1086118221282959e-001</right_val></_></_>
        <_>
          <!-- tree 2 -->
          <_>
            <!-- root node -->
            <feature>
              <rects>
                <_>
                  1 0 22 23 -1.</_>
                <_>
                  12 0 11 23 2.</_></rects>
              <tilted>0</tilted></feature>
            <threshold>-1.3255059719085693e-001</threshold>
            <left_val>6.3223069906234741e-001</left_val>
            <right_val>-4.5232209563255310e-001</right_val></_></_>
        <_>
          <!-- tree 3 -->
          <_>
            <!-- root node -->
            <feature>
              <rects>
                <_>
                  15 1 9 3 -1.</_>
                <_>
                  15 2 9 1 3.</_></rects>
              <tilted>0</tilted></feature>
            <threshold>-7.6441462151706219e-003</threshold>
            <left_val>6.7242872714996338e-001</left_val>
            <right_val>-2.3292389512062073e-001</right_val></_></_>
        <_>
          <!-- tree 4 -->
          <_>
            <!-- root node -->
            <feature>
              <rects>
                <_>
                  1 0 6 4 -1.</_>
                <_>
                  1 1 6 2 2.</_></rects>
              <tilted>0</tilted></feature>
            <threshold>-1.3637909665703773e-002</threshold>
            <left_val>8.6160588264465332e-001</left_val>
            <right_val>-3.0346161127090454e-001</right_val></_></_>
        <_>
          <!-- tree 5 -->
          <_>
            <!-- root node -->
            <feature>
              <rects>
                <_>
                  8 5 8 7 -1.</_>
                <_>
                  10 5 4 7 2.</_></rects>
              <tilted>0</tilted></feature>
            <threshold>2.4427190423011780e-002</threshold>
            <left_val>-2.5154641270637512e-001</left_val>
            <right_val>8.3105427026748657e-001</right_val></_></_>
        <_>
          <!-- tree 6 -->
          <_>
            <!-- root node -->
            <feature>
              <rects>
                <_>
                  0 1 23 14 -1.</_>
                <_>
                  0 8 23 7 2.</_></rects>
              <tilted>0</tilted></feature>
            <threshold>1.2703800201416016e-001</threshold>
            <left_val>-7.2797328233718872e-001</left_val>
            <right_val>3.7463578581809998e-001</right_val></_></_>
        <_>
          <!-- tree 7 -->
          <_>
            <!-- root node -->
            <feature>
              <rects>
                <_>
                  16 0 8 9 -1.</_>
                <_>
                  18 2 4 9 2.</_></rects>
              <tilted>1</tilted></feature>
            <threshold>-1.8279200419783592e-002</threshold>
            <left_val>2.5573199987411499e-001</left_val>
            <right_val>-2.6818260550498962e-001</right_val></_></_>
        <_>
          <!-- tree 8 -->
          <_>
            <!-- root node -->
            <feature>
              <rects>
                <_>
                  8 0 9 8 -1.</_>
                <_>
                  6 2 9 4 2.</_></rects>
              <tilted>1</tilted></feature>
            <threshold>-5.3055230528116226e-003</threshold>
            <left_val>3.7077561020851135e-001</left_val>
            <right_val>-7.6798021793365479e-001</right_val></_></_>
        <_>
          <!-- tree 9 -->
          <_>
            <!-- root node -->
            <feature>
              <rects>
                <_>
                  21 3 2 3 -1.</_>
                <_>
                  21 4 2 1 3.</_></rects>
              <tilted>0</tilted></feature>
            <threshold>-3.1882789917290211e-003</threshold>
            <left_val>4.0166670083999634e-001</left_val>
            <right_val>-1.7621269822120667e-001</right_val></_></_>
        <_>
          <!-- tree 10 -->
          <_>
            <!-- root node -->
            <feature>
              <rects>
                <_>
                  1 3 2 3 -1.</_>
                <_>
                  1 4 2 1 3.</_></rects>
              <tilted>0</tilted></feature>
            <threshold>2.6078650262206793e-003</threshold>
            <left_val>-3.0063509941101074e-001</left_val>
            <right_val>7.4585837125778198e-001</right_val></_></_></trees>
      <stage_threshold>-1.8368229866027832e+000</stage_threshold>
      <parent>2</parent>
      <next>-1</next></_>
    <_>
      <!-- stage 4 -->
      <trees>
        <_>
          <!-- tree 0 -->
          <_>
            <!-- root node -->
            <feature>
              <rects>
                <_>
                  0 4 16 10 -1.</_>
                <_>
                  0 4 8 5 2.</_>
                <_>
                  8 9 8 5 2.</_></rects>
              <tilted>0</tilted></feature>
            <threshold>-5.6173998862504959e-002</threshold>
            <left_val>7.9548817873001099e-001</left_val>
            <right_val>-7.1306300163269043e-001</right_val></_></_>
        <_>
          <!-- tree 1 -->
          <_>
            <!-- root node -->
            <feature>
              <rects>
                <_>
                  0 9 24 8 -1.</_>
                <_>
                  0 13 24 4 2.</_></rects>
              <tilted>0</tilted></feature>
            <threshold>-2.2562470287084579e-002</threshold>
            <left_val>6.4644598960876465e-001</left_val>
            <right_val>-7.1803539991378784e-001</right_val></_></_>
        <_>
          <!-- tree 2 -->
          <_>
            <!-- root node -->
            <feature>
              <rects>
                <_>
                  8 0 2 4 -1.</_>
                <_>
                  8 2 2 2 2.</_></rects>
              <tilted>0</tilted></feature>
            <threshold>-2.6826129760593176e-003</threshold>
            <left_val>4.8635751008987427e-001</left_val>
            <right_val>-6.4239388704299927e-001</right_val></_></_>
        <_>
          <!-- tree 3 -->
          <_>
            <!-- root node -->
            <feature>
              <rects>
                <_>
                  20 0 4 21 -1.</_>
                <_>
                  20 0 2 21 2.</_></rects>
              <tilted>0</tilted></feature>
            <threshold>-1.1014459887519479e-003</threshold>
            <left_val>2.0055989921092987e-001</left_val>
            <right_val>-3.3673080801963806e-001</right_val></_></_>
        <_>
          <!-- tree 4 -->
          <_>
            <!-- root node -->
            <feature>
              <rects>
                <_>
                  0 10 8 3 -1.</_>
                <_>
                  4 10 4 3 2.</_></rects>
              <tilted>0</tilted></feature>
            <threshold>-5.6134612532332540e-004</threshold>
            <left_val>5.0569432973861694e-001</left_val>
            <right_val>-6.1475712060928345e-001</right_val></_></_>
        <_>
          <!-- tree 5 -->
          <_>
            <!-- root node -->
            <feature>
              <rects>
                <_>
                  8 14 15 4 -1.</_>
                <_>
                  8 15 15 2 2.</_></rects>
              <tilted>0</tilted></feature>
            <threshold>7.0149721577763557e-003</threshold>
            <left_val>-3.7251359224319458e-001</left_val>
            <right_val>4.9896168708801270e-001</right_val></_></_>
        <_>
          <!-- tree 6 -->
          <_>
            <!-- root node -->
            <feature>
              <rects>
                <_>
                  9 2 9 5 -1.</_>
                <_>
                  12 5 3 5 3.</_></rects>
              <tilted>1</tilted></feature>
            <threshold>8.8781833648681641e-002</threshold>
            <left_val>-3.3673548698425293e-001</left_val>
            <right_val>7.6366800069808960e-001</right_val></_></_></trees>
      <stage_threshold>-1.7423030138015747e+000</stage_threshold>
      <parent>3</parent>
      <next>-1</next></_>
    <_>
      <!-- stage 5 -->
      <trees>
        <_>
          <!-- tree 0 -->
          <_>
            <!-- root node -->
            <feature>
              <rects>
                <_>
                  0 0 12 9 -1.</_>
                <_>
                  4 3 4 3 9.</_></rects>
              <tilted>0</tilted></feature>
            <threshold>-1.8012279272079468e-001</threshold>
            <left_val>6.6643720865249634e-001</left_val>
            <right_val>-6.1438798904418945e-001</right_val></_></_>
        <_>
          <!-- tree 1 -->
          <_>
            <!-- root node -->
            <feature>
              <rects>
                <_>
                  20 6 4 2 -1.</_>
                <_>
                  20 7 4 1 2.</_></rects>
              <tilted>0</tilted></feature>
            <threshold>2.2065041121095419e-003</threshold>
            <left_val>-6.1109292507171631e-001</left_val>
            <right_val>4.6739909052848816e-001</right_val></_></_>
        <_>
          <!-- tree 2 -->
          <_>
            <!-- root node -->
            <feature>
              <rects>
                <_>
                  4 7 14 6 -1.</_>
                <_>
                  4 9 14 2 3.</_></rects>
              <tilted>0</tilted></feature>
            <threshold>9.7971949726343155e-003</threshold>
            <left_val>-6.7708969116210938e-001</left_val>
            <right_val>3.9523300528526306e-001</right_val></_></_>
        <_>
          <!-- tree 3 -->
          <_>
            <!-- root node -->
            <feature>
              <rects>
                <_>
                  6 5 16 1 -1.</_>
                <_>
                  10 5 8 1 2.</_></rects>
              <tilted>0</tilted></feature>
            <threshold>3.8876300677657127e-003</threshold>
            <left_val>-3.6933210492134094e-001</left_val>
            <right_val>2.0848619937896729e-001</right_val></_></_>
        <_>
          <!-- tree 4 -->
          <_>
            <!-- root node -->
            <feature>
              <rects>
                <_>
                  1 1 1 14 -1.</_>
                <_>
                  1 8 1 7 2.</_></rects>
              <tilted>0</tilted></feature>
            <threshold>9.5186177641153336e-003</threshold>
            <left_val>-7.2124391794204712e-001</left_val>
            <right_val>3.1604281067848206e-001</right_val></_></_>
        <_>
          <!-- tree 5 -->
          <_>
            <!-- root node -->
            <feature>
              <rects>
                <_>
                  12 0 1 4 -1.</_>
                <_>
                  12 0 1 2 2.</_></rects>
              <tilted>1</tilted></feature>
            <threshold>1.5618279576301575e-003</threshold>
            <left_val>-5.0892800092697144e-001</left_val>
            <right_val>1.9187310338020325e-001</right_val></_></_>
        <_>
          <!-- tree 6 -->
          <_>
            <!-- root node -->
            <feature>
              <rects>
                <_>
                  0 0 24 8 -1.</_>
                <_>
                  12 0 12 8 2.</_></rects>
              <tilted>0</tilted></feature>
            <threshold>-7.5772841228172183e-005</threshold>
            <left_val>4.9623361229896545e-001</left_val>
            <right_val>-5.4922401905059814e-001</right_val></_></_>
        <_>
          <!-- tree 7 -->
          <_>
            <!-- root node -->
            <feature>
              <rects>
                <_>
                  21 2 3 3 -1.</_>
                <_>
                  21 3 3 1 3.</_></rects>
              <tilted>0</tilted></feature>
            <threshold>1.4614160172641277e-003</threshold>
            <left_val>-3.4550189971923828e-001</left_val>
            <right_val>4.6154141426086426e-001</right_val></_></_>
        <_>
          <!-- tree 8 -->
          <_>
            <!-- root node -->
            <feature>
              <rects>
                <_>
                  0 19 24 1 -1.</_>
                <_>
                  6 19 12 1 2.</_></rects>
              <tilted>0</tilted></feature>
            <threshold>-2.3963880084920675e-004</threshold>
            <left_val>4.0114408731460571e-001</left_val>
            <right_val>-5.8766061067581177e-001</right_val></_></_>
        <_>
          <!-- tree 9 -->
          <_>
            <!-- root node -->
            <feature>
              <rects>
                <_>
                  21 2 3 3 -1.</_>
                <_>
                  21 3 3 1 3.</_></rects>
              <tilted>0</tilted></feature>
            <threshold>-2.6342170313000679e-003</threshold>
            <left_val>6.2391448020935059e-001</left_val>
            <right_val>-2.6530429720878601e-001</right_val></_></_>
        <_>
          <!-- tree 10 -->
          <_>
            <!-- root node -->
            <feature>
              <rects>
                <_>
                  0 2 3 3 -1.</_>
                <_>
                  0 3 3 1 3.</_></rects>
              <tilted>0</tilted></feature>
            <threshold>3.4326410386711359e-003</threshold>
            <left_val>-2.9524910449981689e-001</left_val>
            <right_val>7.9701262712478638e-001</right_val></_></_></trees>
      <stage_threshold>-1.9213910102844238e+000</stage_threshold>
      <parent>4</parent>
      <next>-1</next></_>
    <_>
      <!-- stage 6 -->
      <trees>
        <_>
          <!-- tree 0 -->
          <_>
            <!-- root node -->
            <feature>
              <rects>
                <_>
                  1 0 20 10 -1.</_>
                <_>
                  6 0 10 10 2.</_></rects>
              <tilted>0</tilted></feature>
            <threshold>8.2605808973312378e-002</threshold>
            <left_val>-6.7938637733459473e-001</left_val>
            <right_val>7.4792361259460449e-001</right_val></_></_>
        <_>
          <!-- tree 1 -->
          <_>
            <!-- root node -->
            <feature>
              <rects>
                <_>
                  15 3 3 9 -1.</_>
                <_>
                  12 6 3 3 3.</_></rects>
              <tilted>1</tilted></feature>
            <threshold>5.0094600766897202e-002</threshold>
            <left_val>-2.2938579320907593e-001</left_val>
            <right_val>4.0761971473693848e-001</right_val></_></_>
        <_>
          <!-- tree 2 -->
          <_>
            <!-- root node -->
            <feature>
              <rects>
                <_>
                  1 8 12 1 -1.</_>
                <_>
                  1 8 6 1 2.</_></rects>
              <tilted>1</tilted></feature>
            <threshold>1.1874959804117680e-002</threshold>
            <left_val>-6.2794810533523560e-001</left_val>
            <right_val>4.7713598608970642e-001</right_val></_></_>
        <_>
          <!-- tree 3 -->
          <_>
            <!-- root node -->
            <feature>
              <rects>
                <_>
                  12 2 2 7 -1.</_>
                <_>
                  12 2 1 7 2.</_></rects>
              <tilted>0</tilted></feature>
            <threshold>2.7810619212687016e-003</threshold>
            <left_val>-3.0848801136016846e-001</left_val>
            <right_val>3.4617999196052551e-001</right_val></_></_>
        <_>
          <!-- tree 4 -->
          <_>
            <!-- root node -->
            <feature>
              <rects>
                <_>
                  9 0 6 10 -1.</_>
                <_>
                  12 0 3 10 2.</_></rects>
              <tilted>0</tilted></feature>
            <threshold>1.9063580781221390e-002</threshold>
            <left_val>-4.7719520330429077e-001</left_val>
            <right_val>7.7250152826309204e-001</right_val></_></_>
        <_>
          <!-- tree 5 -->
          <_>
            <!-- root node -->
            <feature>
              <rects>
                <_>
                  2 1 20 8 -1.</_>
                <_>
                  7 1 10 8 2.</_></rects>
              <tilted>0</tilted></feature>
            <threshold>9.2176776379346848e-003</threshold>
            <left_val>-8.3703207969665527e-001</left_val>
            <right_val>4.4208911061286926e-001</right_val></_></_>
        <_>
          <!-- tree 6 -->
          <_>
            <!-- root node -->
            <feature>
              <rects>
                <_>
                  0 1 2 19 -1.</_>
                <_>
                  1 1 1 19 2.</_></rects>
              <tilted>0</tilted></feature>
            <threshold>-4.7848970280028880e-004</threshold>
            <left_val>3.6452451348304749e-001</left_val>
            <right_val>-8.6513751745223999e-001</right_val></_></_>
        <_>
          <!-- tree 7 -->
          <_>
            <!-- root node -->
            <feature>
              <rects>
                <_>
                  0 4 24 8 -1.</_>
                <_>
                  0 8 24 4 2.</_></rects>
              <tilted>0</tilted></feature>
            <threshold>6.8468786776065826e-002</threshold>
            <left_val>-9.1231197118759155e-001</left_val>
            <right_val>3.4854519367218018e-001</right_val></_></_>
        <_>
          <!-- tree 8 -->
          <_>
            <!-- root node -->
            <feature>
              <rects>
                <_>
                  0 1 20 3 -1.</_>
                <_>
                  5 1 10 3 2.</_></rects>
              <tilted>0</tilted></feature>
            <threshold>1.5342559665441513e-002</threshold>
            <left_val>-7.3923981189727783e-001</left_val>
            <right_val>5.1652258634567261e-001</right_val></_></_>
        <_>
          <!-- tree 9 -->
          <_>
            <!-- root node -->
            <feature>
              <rects>
                <_>
                  13 0 2 4 -1.</_>
                <_>
                  13 2 2 2 2.</_></rects>
              <tilted>0</tilted></feature>
            <threshold>-1.5285170229617506e-004</threshold>
            <left_val>2.1227900683879852e-001</left_val>
            <right_val>-8.6570131778717041e-001</right_val></_></_>
        <_>
          <!-- tree 10 -->
          <_>
            <!-- root node -->
            <feature>
              <rects>
                <_>
                  3 19 16 4 -1.</_>
                <_>
                  3 21 16 2 2.</_></rects>
              <tilted>0</tilted></feature>
            <threshold>1.5217609470710158e-003</threshold>
            <left_val>-7.0190328359603882e-001</left_val>
            <right_val>5.7755231857299805e-001</right_val></_></_></trees>
      <stage_threshold>-2.3737649917602539e+000</stage_threshold>
      <parent>5</parent>
      <next>-1</next></_>
    <_>
      <!-- stage 7 -->
      <trees>
        <_>
          <!-- tree 0 -->
          <_>
            <!-- root node -->
            <feature>
              <rects>
                <_>
                  8 2 8 7 -1.</_>
                <_>
                  10 2 4 7 2.</_></rects>
              <tilted>0</tilted></feature>
            <threshold>3.6960121244192123e-002</threshold>
            <left_val>-4.5058348774909973e-001</left_val>
            <right_val>7.5852137804031372e-001</right_val></_></_>
        <_>
          <!-- tree 1 -->
          <_>
            <!-- root node -->
            <feature>
              <rects>
                <_>
                  20 5 4 1 -1.</_>
                <_>
                  20 5 2 1 2.</_></rects>
              <tilted>1</tilted></feature>
            <threshold>-6.3400231301784515e-003</threshold>
            <left_val>4.6087890863418579e-001</left_val>
            <right_val>-4.7715520858764648e-001</right_val></_></_>
        <_>
          <!-- tree 2 -->
          <_>
            <!-- root node -->
            <feature>
              <rects>
                <_>
                  0 1 10 2 -1.</_>
                <_>
                  0 2 10 1 2.</_></rects>
              <tilted>0</tilted></feature>
            <threshold>-1.2268059886991978e-002</threshold>
            <left_val>7.7330541610717773e-001</left_val>
            <right_val>-3.4670141339302063e-001</right_val></_></_>
        <_>
          <!-- tree 3 -->
          <_>
            <!-- root node -->
            <feature>
              <rects>
                <_>
                  4 10 20 12 -1.</_>
                <_>
                  4 10 10 12 2.</_></rects>
              <tilted>0</tilted></feature>
            <threshold>4.8565190285444260e-002</threshold>
            <left_val>-2.7653819322586060e-001</left_val>
            <right_val>3.2077738642692566e-001</right_val></_></_>
        <_>
          <!-- tree 4 -->
          <_>
            <!-- root node -->
            <feature>
              <rects>
                <_>
                  1 5 2 4 -1.</_>
                <_>
                  1 7 2 2 2.</_></rects>
              <tilted>0</tilted></feature>
            <threshold>5.2246288396418095e-003</threshold>
            <left_val>-5.6504219770431519e-001</left_val>
            <right_val>3.9853510260581970e-001</right_val></_></_>
        <_>
          <!-- tree 5 -->
          <_>
            <!-- root node -->
            <feature>
              <rects>
                <_>
                  12 0 11 4 -1.</_>
                <_>
                  12 1 11 2 2.</_></rects>
              <tilted>0</tilted></feature>
            <threshold>-9.5300562679767609e-003</threshold>
            <left_val>5.6497830152511597e-001</left_val>
            <right_val>-2.4269959330558777e-001</right_val></_></_>
        <_>
          <!-- tree 6 -->
          <_>
            <!-- root node -->
            <feature>
              <rects>
                <_>
                  0 1 8 3 -1.</_>
                <_>
                  0 2 8 1 3.</_></rects>
              <tilted>0</tilted></feature>
            <threshold>1.0538590140640736e-002</threshold>
            <left_val>-2.6833310723304749e-001</left_val>
            <right_val>7.8761410713195801e-001</right_val></_></_>
        <_>
          <!-- tree 7 -->
          <_>
            <!-- root node -->
            <feature>
              <rects>
                <_>
                  12 0 11 4 -1.</_>
                <_>
                  12 1 11 2 2.</_></rects>
              <tilted>0</tilted></feature>
            <threshold>-2.7901049703359604e-002</threshold>
            <left_val>5.6737691164016724e-001</left_val>
            <right_val>-2.2830029949545860e-002</right_val></_></_>
        <_>
          <!-- tree 8 -->
          <_>
            <!-- root node -->
            <feature>
              <rects>
                <_>
                  1 0 11 4 -1.</_>
                <_>
                  1 1 11 2 2.</_></rects>
              <tilted>0</tilted></feature>
            <threshold>-1.9263099879026413e-002</threshold>
            <left_val>8.4141582250595093e-001</left_val>
            <right_val>-2.3724399507045746e-001</right_val></_></_>
        <_>
          <!-- tree 9 -->
          <_>
            <!-- root node -->
            <feature>
              <rects>
                <_>
                  15 1 9 14 -1.</_>
                <_>
                  18 4 3 14 3.</_></rects>
              <tilted>1</tilted></feature>
            <threshold>-9.2241503298282623e-002</threshold>
            <left_val>6.0325682163238525e-001</left_val>
            <right_val>-5.4019648581743240e-002</right_val></_></_>
        <_>
          <!-- tree 10 -->
          <_>
            <!-- root node -->
            <feature>
              <rects>
                <_>
                  0 3 4 13 -1.</_>
                <_>
                  2 3 2 13 2.</_></rects>
              <tilted>0</tilted></feature>
            <threshold>-3.8027809932827950e-003</threshold>
            <left_val>3.5185179114341736e-001</left_val>
            <right_val>-5.3662401437759399e-001</right_val></_></_>
        <_>
          <!-- tree 11 -->
          <_>
            <!-- root node -->
            <feature>
              <rects>
                <_>
                  11 16 7 3 -1.</_>
                <_>
                  11 17 7 1 3.</_></rects>
              <tilted>0</tilted></feature>
            <threshold>8.9594349265098572e-003</threshold>
            <left_val>-1.7705570161342621e-001</left_val>
            <right_val>6.6658008098602295e-001</right_val></_></_>
        <_>
          <!-- tree 12 -->
          <_>
            <!-- root node -->
            <feature>
              <rects>
                <_>
                  2 7 16 6 -1.</_>
                <_>
                  2 9 16 2 3.</_></rects>
              <tilted>0</tilted></feature>
            <threshold>1.4299689792096615e-002</threshold>
            <left_val>-5.9749108552932739e-001</left_val>
            <right_val>3.2428690791130066e-001</right_val></_></_>
        <_>
          <!-- tree 13 -->
          <_>
            <!-- root node -->
            <feature>
              <rects>
                <_>
                  9 14 10 4 -1.</_>
                <_>
                  9 15 10 2 2.</_></rects>
              <tilted>0</tilted></feature>
            <threshold>1.0748269967734814e-002</threshold>
            <left_val>-2.7194750308990479e-001</left_val>
            <right_val>5.7886022329330444e-001</right_val></_></_>
        <_>
          <!-- tree 14 -->
          <_>
            <!-- root node -->
            <feature>
              <rects>
                <_>
                  9 0 13 9 -1.</_>
                <_>
                  6 3 13 3 3.</_></rects>
              <tilted>1</tilted></feature>
            <threshold>-1.2933299876749516e-002</threshold>
            <left_val>3.1952428817749023e-001</left_val>
            <right_val>-6.5491318702697754e-001</right_val></_></_>
        <_>
          <!-- tree 15 -->
          <_>
            <!-- root node -->
            <feature>
              <rects>
                <_>
                  10 13 4 3 -1.</_>
                <_>
                  10 14 4 1 3.</_></rects>
              <tilted>0</tilted></feature>
            <threshold>3.2751399558037519e-003</threshold>
            <left_val>-3.3194708824157715e-001</left_val>
            <right_val>6.8018537759780884e-001</right_val></_></_>
        <_>
          <!-- tree 16 -->
          <_>
            <!-- root node -->
            <feature>
              <rects>
                <_>
                  3 10 18 10 -1.</_>
                <_>
                  3 15 18 5 2.</_></rects>
              <tilted>0</tilted></feature>
            <threshold>-1.2161999940872192e-002</threshold>
            <left_val>2.7202481031417847e-001</left_val>
            <right_val>-7.0928120613098145e-001</right_val></_></_></trees>
      <stage_threshold>-1.9143340587615967e+000</stage_threshold>
      <parent>6</parent>
      <next>-1</next></_>
    <_>
      <!-- stage 8 -->
      <trees>
        <_>
          <!-- tree 0 -->
          <_>
            <!-- root node -->
            <feature>
              <rects>
                <_>
                  2 5 16 4 -1.</_>
                <_>
                  6 5 8 4 2.</_></rects>
              <tilted>0</tilted></feature>
            <threshold>4.1065029799938202e-002</threshold>
            <left_val>-5.0995481014251709e-001</left_val>
            <right_val>7.7351462841033936e-001</right_val></_></_>
        <_>
          <!-- tree 1 -->
          <_>
            <!-- root node -->
            <feature>
              <rects>
                <_>
                  2 6 22 2 -1.</_>
                <_>
                  2 7 22 1 2.</_></rects>
              <tilted>0</tilted></feature>
            <threshold>1.7740419134497643e-002</threshold>
            <left_val>-5.1089662313461304e-001</left_val>
            <right_val>4.6528410911560059e-001</right_val></_></_>
        <_>
          <!-- tree 2 -->
          <_>
            <!-- root node -->
            <feature>
              <rects>
                <_>
                  0 2 12 4 -1.</_>
                <_>
                  3 2 6 4 2.</_></rects>
              <tilted>0</tilted></feature>
            <threshold>-1.4585319906473160e-002</threshold>
            <left_val>4.4758439064025879e-001</left_val>
            <right_val>-6.4432859420776367e-001</right_val></_></_>
        <_>
          <!-- tree 3 -->
          <_>
            <!-- root node -->
            <feature>
              <rects>
                <_>
                  7 2 17 12 -1.</_>
                <_>
                  7 8 17 6 2.</_></rects>
              <tilted>0</tilted></feature>
            <threshold>6.4550943672657013e-002</threshold>
            <left_val>-6.7539328336715698e-001</left_val>
            <right_val>2.8264090418815613e-001</right_val></_></_>
        <_>
          <!-- tree 4 -->
          <_>
            <!-- root node -->
            <feature>
              <rects>
                <_>
                  1 1 5 3 -1.</_>
                <_>
                  1 2 5 1 3.</_></rects>
              <tilted>0</tilted></feature>
            <threshold>-7.2481120005249977e-003</threshold>
            <left_val>7.7689588069915771e-001</left_val>
            <right_val>-3.6496511101722717e-001</right_val></_></_>
        <_>
          <!-- tree 5 -->
          <_>
            <!-- root node -->
            <feature>
              <rects>
                <_>
                  4 7 20 14 -1.</_>
                <_>
                  4 7 10 14 2.</_></rects>
              <tilted>0</tilted></feature>
            <threshold>1.0321319848299026e-001</threshold>
            <left_val>-2.7072739601135254e-001</left_val>
            <right_val>4.4129401445388794e-001</right_val></_></_>
        <_>
          <!-- tree 6 -->
          <_>
            <!-- root node -->
            <feature>
              <rects>
                <_>
                  0 9 24 13 -1.</_>
                <_>
                  6 9 12 13 2.</_></rects>
              <tilted>0</tilted></feature>
            <threshold>-4.3341130949556828e-003</threshold>
            <left_val>3.4529921412467957e-001</left_val>
            <right_val>-7.1170932054519653e-001</right_val></_></_>
        <_>
          <!-- tree 7 -->
          <_>
            <!-- root node -->
            <feature>
              <rects>
                <_>
                  19 1 5 4 -1.</_>
                <_>
                  19 2 5 2 2.</_></rects>
              <tilted>0</tilted></feature>
            <threshold>6.4538158476352692e-003</threshold>
            <left_val>-1.9779950380325317e-001</left_val>
            <right_val>5.5591452121734619e-001</right_val></_></_>
        <_>
          <!-- tree 8 -->
          <_>
            <!-- root node -->
            <feature>
              <rects>
                <_>
                  2 0 20 9 -1.</_>
                <_>
                  7 0 10 9 2.</_></rects>
              <tilted>0</tilted></feature>
            <threshold>2.1584190428256989e-002</threshold>
            <left_val>-7.0204788446426392e-001</left_val>
            <right_val>3.4540560841560364e-001</right_val></_></_>
        <_>
          <!-- tree 9 -->
          <_>
            <!-- root node -->
            <feature>
              <rects>
                <_>
                  22 6 2 1 -1.</_>
                <_>
                  22 6 1 1 2.</_></rects>
              <tilted>1</tilted></feature>
            <threshold>-3.7581229116767645e-004</threshold>
            <left_val>3.7318021059036255e-002</left_val>
            <right_val>-3.8223791122436523e-001</right_val></_></_>
        <_>
          <!-- tree 10 -->
          <_>
            <!-- root node -->
            <feature>
              <rects>
                <_>
                  0 2 2 16 -1.</_>
                <_>
                  1 2 1 16 2.</_></rects>
              <tilted>0</tilted></feature>
            <threshold>-1.0132000315934420e-003</threshold>
            <left_val>4.4168791174888611e-001</left_val>
            <right_val>-5.3474879264831543e-001</right_val></_></_>
        <_>
          <!-- tree 11 -->
          <_>
            <!-- root node -->
            <feature>
              <rects>
                <_>
                  9 3 9 11 -1.</_>
                <_>
                  12 3 3 11 3.</_></rects>
              <tilted>0</tilted></feature>
            <threshold>8.7415203452110291e-002</threshold>
            <left_val>-1.2522509694099426e-001</left_val>
            <right_val>9.2307609319686890e-001</right_val></_></_>
        <_>
          <!-- tree 12 -->
          <_>
            <!-- root node -->
            <feature>
              <rects>
                <_>
                  0 2 1 12 -1.</_>
                <_>
                  0 8 1 6 2.</_></rects>
              <tilted>0</tilted></feature>
            <threshold>4.3559879995882511e-003</threshold>
            <left_val>-8.3117508888244629e-001</left_val>
            <right_val>3.0362281203269958e-001</right_val></_></_>
        <_>
          <!-- tree 13 -->
          <_>
            <!-- root node -->
            <feature>
              <rects>
                <_>
                  18 1 6 4 -1.</_>
                <_>
                  18 2 6 2 2.</_></rects>
              <tilted>0</tilted></feature>
            <threshold>-9.9889505654573441e-003</threshold>
            <left_val>5.8523118495941162e-001</left_val>
            <right_val>-3.9172628521919250e-001</right_val></_></_>
        <_>
          <!-- tree 14 -->
          <_>
            <!-- root node -->
            <feature>
              <rects>
                <_>
                  0 1 5 4 -1.</_>
                <_>
                  0 2 5 2 2.</_></rects>
              <tilted>0</tilted></feature>
            <threshold>6.3966992311179638e-003</threshold>
            <left_val>-2.9294580221176147e-001</left_val>
            <right_val>8.3967691659927368e-001</right_val></_></_>
        <_>
          <!-- tree 15 -->
          <_>
            <!-- root node -->
            <feature>
              <rects>
                <_>
                  8 0 13 9 -1.</_>
                <_>
                  8 3 13 3 3.</_></rects>
              <tilted>0</tilted></feature>
            <threshold>-2.0934149622917175e-002</threshold>
            <left_val>3.4307301044464111e-001</left_val>
            <right_val>-8.1238132715225220e-001</right_val></_></_>
        <_>
          <!-- tree 16 -->
          <_>
            <!-- root node -->
            <feature>
              <rects>
                <_>
                  0 2 18 1 -1.</_>
                <_>
                  6 2 6 1 3.</_></rects>
              <tilted>0</tilted></feature>
            <threshold>6.3969120383262634e-003</threshold>
            <left_val>-5.5190217494964600e-001</left_val>
            <right_val>6.1052531003952026e-001</right_val></_></_>
        <_>
          <!-- tree 17 -->
          <_>
            <!-- root node -->
            <feature>
              <rects>
                <_>
                  18 8 6 3 -1.</_>
                <_>
                  20 9 2 1 9.</_></rects>
              <tilted>0</tilted></feature>
            <threshold>8.9584973466116935e-005</threshold>
            <left_val>-5.4258817434310913e-001</left_val>
            <right_val>2.1703830361366272e-001</right_val></_></_>
        <_>
          <!-- tree 18 -->
          <_>
            <!-- root node -->
            <feature>
              <rects>
                <_>
                  0 2 10 12 -1.</_>
                <_>
                  0 8 10 6 2.</_></rects>
              <tilted>0</tilted></feature>
            <threshold>3.1802989542484283e-003</threshold>
            <left_val>-9.9312949180603027e-001</left_val>
            <right_val>3.1228640675544739e-001</right_val></_></_>
        <_>
          <!-- tree 19 -->
          <_>
            <!-- root node -->
            <feature>
              <rects>
                <_>
                  8 1 15 10 -1.</_>
                <_>
                  13 1 5 10 3.</_></rects>
              <tilted>0</tilted></feature>
            <threshold>6.9938510656356812e-002</threshold>
            <left_val>-6.5453737974166870e-001</left_val>
            <right_val>5.5266708135604858e-001</right_val></_></_>
        <_>
          <!-- tree 20 -->
          <_>
            <!-- root node -->
            <feature>
              <rects>
                <_>
                  4 2 8 4 -1.</_>
                <_>
                  4 2 8 2 2.</_></rects>
              <tilted>1</tilted></feature>
            <threshold>-5.9302669251337647e-004</threshold>
            <left_val>4.0975138545036316e-001</left_val>
            <right_val>-9.4239479303359985e-001</right_val></_></_></trees>
      <stage_threshold>-2.1696979999542236e+000</stage_threshold>
      <parent>7</parent>
      <next>-1</next></_>
    <_>
      <!-- stage 9 -->
      <trees>
        <_>
          <!-- tree 0 -->
          <_>
            <!-- root node -->
            <feature>
              <rects>
                <_>
                  2 0 18 9 -1.</_>
                <_>
                  8 0 6 9 3.</_></rects>
              <tilted>0</tilted></feature>
            <threshold>1.2781220674514771e-001</threshold>
            <left_val>-6.6876298189163208e-001</left_val>
            <right_val>7.5214838981628418e-001</right_val></_></_>
        <_>
          <!-- tree 1 -->
          <_>
            <!-- root node -->
            <feature>
              <rects>
                <_>
                  20 2 4 5 -1.</_>
                <_>
                  20 2 2 5 2.</_></rects>
              <tilted>0</tilted></feature>
            <threshold>-1.0658390237949789e-004</threshold>
            <left_val>2.8170621395111084e-001</left_val>
            <right_val>-4.6565169095993042e-001</right_val></_></_>
        <_>
          <!-- tree 2 -->
          <_>
            <!-- root node -->
            <feature>
              <rects>
                <_>
                  5 0 8 2 -1.</_>
                <_>
                  5 1 8 1 2.</_></rects>
              <tilted>0</tilted></feature>
            <threshold>-6.9327708333730698e-003</threshold>
            <left_val>8.8151872158050537e-001</left_val>
            <right_val>-3.7493589520454407e-001</right_val></_></_>
        <_>
          <!-- tree 3 -->
          <_>
            <!-- root node -->
            <feature>
              <rects>
                <_>
                  23 12 1 3 -1.</_>
                <_>
                  23 13 1 1 3.</_></rects>
              <tilted>0</tilted></feature>
            <threshold>5.9277628315612674e-004</threshold>
            <left_val>2.6256451010704041e-001</left_val>
            <right_val>-8.4304547309875488e-001</right_val></_></_>
        <_>
          <!-- tree 4 -->
          <_>
            <!-- root node -->
            <feature>
              <rects>
                <_>
                  1 20 2 1 -1.</_>
                <_>
                  1 20 1 1 2.</_></rects>
              <tilted>1</tilted></feature>
            <threshold>-2.9349850956350565e-004</threshold>
            <left_val>-7.4438160657882690e-001</left_val>
            <right_val>3.4656518697738647e-001</right_val></_></_>
        <_>
          <!-- tree 5 -->
          <_>
            <!-- root node -->
            <feature>
              <rects>
                <_>
                  19 3 1 3 -1.</_>
                <_>
                  19 4 1 1 3.</_></rects>
              <tilted>0</tilted></feature>
            <threshold>2.6283140759915113e-003</threshold>
            <left_val>-1.0997120290994644e-001</left_val>
            <right_val>5.8086621761322021e-001</right_val></_></_>
        <_>
          <!-- tree 6 -->
          <_>
            <!-- root node -->
            <feature>
              <rects>
                <_>
                  8 0 16 8 -1.</_>
                <_>
                  6 2 16 4 2.</_></rects>
              <tilted>1</tilted></feature>
            <threshold>-3.6214180290699005e-002</threshold>
            <left_val>4.1739010810852051e-001</left_val>
            <right_val>-5.9554982185363770e-001</right_val></_></_>
        <_>
          <!-- tree 7 -->
          <_>
            <!-- root node -->
            <feature>
              <rects>
                <_>
                  19 3 1 3 -1.</_>
                <_>
                  19 4 1 1 3.</_></rects>
              <tilted>0</tilted></feature>
            <threshold>-3.3046118915081024e-003</threshold>
            <left_val>6.5982037782669067e-001</left_val>
            <right_val>-8.2881771028041840e-002</right_val></_></_>
        <_>
          <!-- tree 8 -->
          <_>
            <!-- root node -->
            <feature>
              <rects>
                <_>
                  4 3 1 3 -1.</_>
                <_>
                  4 4 1 1 3.</_></rects>
              <tilted>0</tilted></feature>
            <threshold>8.4539881208911538e-004</threshold>
            <left_val>-2.7555590867996216e-001</left_val>
            <right_val>8.9340627193450928e-001</right_val></_></_>
        <_>
          <!-- tree 9 -->
          <_>
            <!-- root node -->
            <feature>
              <rects>
                <_>
                  8 4 12 5 -1.</_>
                <_>
                  11 4 6 5 2.</_></rects>
              <tilted>0</tilted></feature>
            <threshold>-3.1110839918255806e-002</threshold>
            <left_val>9.5836907625198364e-001</left_val>
            <right_val>-2.5301370769739151e-002</right_val></_></_>
        <_>
          <!-- tree 10 -->
          <_>
            <!-- root node -->
            <feature>
              <rects>
                <_>
                  7 2 8 7 -1.</_>
                <_>
                  9 2 4 7 2.</_></rects>
              <tilted>0</tilted></feature>
            <threshold>3.5992559045553207e-002</threshold>
            <left_val>-2.3036369681358337e-001</left_val>
            <right_val>9.7091019153594971e-001</right_val></_></_>
        <_>
          <!-- tree 11 -->
          <_>
            <!-- root node -->
            <feature>
              <rects>
                <_>
                  21 11 2 8 -1.</_>
                <_>
                  21 15 2 4 2.</_></rects>
              <tilted>0</tilted></feature>
            <threshold>-4.2800111696124077e-003</threshold>
            <left_val>2.1526870131492615e-001</left_val>
            <right_val>-2.8124809265136719e-001</right_val></_></_></trees>
      <stage_threshold>-1.8537319898605347e+000</stage_threshold>
      <parent>8</parent>
      <next>-1</next></_>
    <_>
      <!-- stage 10 -->
      <trees>
        <_>
          <!-- tree 0 -->
          <_>
            <!-- root node -->
            <feature>
              <rects>
                <_>
                  3 5 16 3 -1.</_>
                <_>
                  7 5 8 3 2.</_></rects>
              <tilted>0</tilted></feature>
            <threshold>2.7228439226746559e-002</threshold>
            <left_val>-7.0433521270751953e-001</left_val>
            <right_val>8.4596222639083862e-001</right_val></_></_>
        <_>
          <!-- tree 1 -->
          <_>
            <!-- root node -->
            <feature>
              <rects>
                <_>
                  5 0 14 2 -1.</_>
                <_>
                  5 1 14 1 2.</_></rects>
              <tilted>0</tilted></feature>
            <threshold>-9.8541639745235443e-003</threshold>
            <left_val>8.7695592641830444e-001</left_val>
            <right_val>-6.0660761594772339e-001</right_val></_></_>
        <_>
          <!-- tree 2 -->
          <_>
            <!-- root node -->
            <feature>
              <rects>
                <_>
                  2 1 20 8 -1.</_>
                <_>
                  7 1 10 8 2.</_></rects>
              <tilted>0</tilted></feature>
            <threshold>1.7706349492073059e-002</threshold>
            <left_val>-8.1942492723464966e-001</left_val>
            <right_val>5.4002481698989868e-001</right_val></_></_>
        <_>
          <!-- tree 3 -->
          <_>
            <!-- root node -->
            <feature>
              <rects>
                <_>
                  20 4 4 2 -1.</_>
                <_>
                  20 4 2 2 2.</_></rects>
              <tilted>0</tilted></feature>
            <threshold>-2.5310799173894338e-005</threshold>
            <left_val>3.7002190947532654e-001</left_val>
            <right_val>-7.7628368139266968e-001</right_val></_></_>
        <_>
          <!-- tree 4 -->
          <_>
            <!-- root node -->
            <feature>
              <rects>
                <_>
                  5 18 13 6 -1.</_>
                <_>
                  5 21 13 3 2.</_></rects>
              <tilted>0</tilted></feature>
            <threshold>1.0622080299071968e-004</threshold>
            <left_val>-6.9219857454299927e-001</left_val>
            <right_val>6.3153672218322754e-001</right_val></_></_>
        <_>
          <!-- tree 5 -->
          <_>
            <!-- root node -->
            <feature>
              <rects>
                <_>
                  14 8 5 4 -1.</_>
                <_>
                  14 9 5 2 2.</_></rects>
              <tilted>0</tilted></feature>
            <threshold>2.2542319129570387e-005</threshold>
            <left_val>-7.2717052698135376e-001</left_val>
            <right_val>1.8310490250587463e-001</right_val></_></_>
        <_>
          <!-- tree 6 -->
          <_>
            <!-- root node -->
            <feature>
              <rects>
                <_>
                  4 4 13 4 -1.</_>
                <_>
                  4 4 13 2 2.</_></rects>
              <tilted>1</tilted></feature>
            <threshold>-6.9582881405949593e-003</threshold>
            <left_val>5.1031678915023804e-001</left_val>
            <right_val>-8.7474787235260010e-001</right_val></_></_>
        <_>
          <!-- tree 7 -->
          <_>
            <!-- root node -->
            <feature>
              <rects>
                <_>
                  22 19 2 2 -1.</_>
                <_>
                  22 19 2 1 2.</_></rects>
              <tilted>1</tilted></feature>
            <threshold>1.1733730207197368e-004</threshold>
            <left_val>-6.0209810733795166e-001</left_val>
            <right_val>4.3302139639854431e-001</right_val></_></_>
        <_>
          <!-- tree 8 -->
          <_>
            <!-- root node -->
            <feature>
              <rects>
                <_>
                  0 6 12 9 -1.</_>
                <_>
                  0 9 12 3 3.</_></rects>
              <tilted>0</tilted></feature>
            <threshold>4.2622331529855728e-003</threshold>
            <left_val>-9.0213537216186523e-001</left_val>
            <right_val>4.6461591124534607e-001</right_val></_></_>
        <_>
          <!-- tree 9 -->
          <_>
            <!-- root node -->
            <feature>
              <rects>
                <_>
                  16 0 3 6 -1.</_>
                <_>
                  17 2 1 2 9.</_></rects>
              <tilted>0</tilted></feature>
            <threshold>-4.1262130253016949e-003</threshold>
            <left_val>2.2734789550304413e-001</left_val>
            <right_val>-7.4135720729827881e-001</right_val></_></_>
        <_>
          <!-- tree 10 -->
          <_>
            <!-- root node -->
            <feature>
              <rects>
                <_>
                  4 16 6 3 -1.</_>
                <_>
                  4 17 6 1 3.</_></rects>
              <tilted>0</tilted></feature>
            <threshold>1.4793789887335151e-004</threshold>
            <left_val>-7.4956691265106201e-001</left_val>
            <right_val>7.6102447509765625e-001</right_val></_></_>
        <_>
          <!-- tree 11 -->
          <_>
            <!-- root node -->
            <feature>
              <rects>
                <_>
                  7 0 15 9 -1.</_>
                <_>
                  7 3 15 3 3.</_></rects>
              <tilted>0</tilted></feature>
            <threshold>-4.4511331361718476e-004</threshold>
            <left_val>4.6054470539093018e-001</left_val>
            <right_val>-9.7648048400878906e-001</right_val></_></_>
        <_>
          <!-- tree 12 -->
          <_>
            <!-- root node -->
            <feature>
              <rects>
                <_>
                  11 13 6 3 -1.</_>
                <_>
                  10 14 6 1 3.</_></rects>
              <tilted>1</tilted></feature>
            <threshold>1.8106799689121544e-004</threshold>
            <left_val>-9.1730070114135742e-001</left_val>
            <right_val>5.8150941133499146e-001</right_val></_></_>
        <_>
          <!-- tree 13 -->
          <_>
            <!-- root node -->
            <feature>
              <rects>
                <_>
                  19 2 1 14 -1.</_>
                <_>
                  19 9 1 7 2.</_></rects>
              <tilted>0</tilted></feature>
            <threshold>7.3430252086836845e-005</threshold>
            <left_val>-9.6999371051788330e-001</left_val>
            <right_val>4.7593471407890320e-001</right_val></_></_>
        <_>
          <!-- tree 14 -->
          <_>
            <!-- root node -->
            <feature>
              <rects>
                <_>
                  4 1 12 20 -1.</_>
                <_>
                  4 1 6 10 2.</_>
                <_>
                  10 11 6 10 2.</_></rects>
              <tilted>0</tilted></feature>
            <threshold>-1.7912590876221657e-002</threshold>
            <left_val>9.7602570056915283e-001</left_val>
            <right_val>-9.8651480674743652e-001</right_val></_></_>
        <_>
          <!-- tree 15 -->
          <_>
            <!-- root node -->
            <feature>
              <rects>
                <_>
                  14 20 4 4 -1.</_>
                <_>
                  14 22 4 2 2.</_></rects>
              <tilted>0</tilted></feature>
            <threshold>1.0542829841142520e-004</threshold>
            <left_val>-9.0083479881286621e-001</left_val>
            <right_val>1.3157349824905396e-001</right_val></_></_>
        <_>
          <!-- tree 16 -->
          <_>
            <!-- root node -->
            <feature>
              <rects>
                <_>
                  1 9 8 1 -1.</_>
                <_>
                  1 9 4 1 2.</_></rects>
              <tilted>1</tilted></feature>
            <threshold>8.2671118434518576e-004</threshold>
            <left_val>-9.8548972606658936e-001</left_val>
            <right_val>6.0527497529983521e-001</right_val></_></_>
        <_>
          <!-- tree 17 -->
          <_>
            <!-- root node -->
            <feature>
              <rects>
                <_>
                  14 3 8 6 -1.</_>
                <_>
                  18 3 4 3 2.</_>
                <_>
                  14 6 4 3 2.</_></rects>
              <tilted>0</tilted></feature>
            <threshold>-1.0354130063205957e-003</threshold>
            <left_val>3.6565130949020386e-001</left_val>
            <right_val>-9.7005850076675415e-001</right_val></_></_>
        <_>
          <!-- tree 18 -->
          <_>
            <!-- root node -->
            <feature>
              <rects>
                <_>
                  3 13 12 1 -1.</_>
                <_>
                  7 13 4 1 3.</_></rects>
              <tilted>0</tilted></feature>
            <threshold>-3.2979100942611694e-003</threshold>
            <left_val>9.5299118757247925e-001</left_val>
            <right_val>-9.2910087108612061e-001</right_val></_></_>
        <_>
          <!-- tree 19 -->
          <_>
            <!-- root node -->
            <feature>
              <rects>
                <_>
                  22 2 1 10 -1.</_>
                <_>
                  22 7 1 5 2.</_></rects>
              <tilted>0</tilted></feature>
            <threshold>1.2335010105744004e-003</threshold>
            <left_val>-9.6093338727951050e-001</left_val>
            <right_val>5.1514011621475220e-001</right_val></_></_>
        <_>
          <!-- tree 20 -->
          <_>
            <!-- root node -->
            <feature>
              <rects>
                <_>
                  2 0 12 3 -1.</_>
                <_>
                  6 1 4 1 9.</_></rects>
              <tilted>0</tilted></feature>
            <threshold>8.1666298210620880e-003</threshold>
            <left_val>-9.2048108577728271e-001</left_val>
            <right_val>7.4349057674407959e-001</right_val></_></_></trees>
      <stage_threshold>-2.0295889377593994e+000</stage_threshold>
      <parent>9</parent>
      <next>-1</next></_>
    <_>
      <!-- stage 11 -->
      <trees>
        <_>
          <!-- tree 0 -->
          <_>
            <!-- root node -->
            <feature>
              <rects>
                <_>
                  7 8 8 11 -1.</_>
                <_>
                  11 8 4 11 2.</_></rects>
              <tilted>0</tilted></feature>
            <threshold>-2.3613539815414697e-004</threshold>
            <left_val>9.3006950616836548e-001</left_val>
            <right_val>-6.9881129264831543e-001</right_val></_></_>
        <_>
          <!-- tree 1 -->
          <_>
            <!-- root node -->
            <feature>
              <rects>
                <_>
                  21 6 3 2 -1.</_>
                <_>
                  21 7 3 1 2.</_></rects>
              <tilted>0</tilted></feature>
            <threshold>1.0525060351938009e-003</threshold>
            <left_val>-6.0214531421661377e-001</left_val>
            <right_val>4.7758838534355164e-001</right_val></_></_>
        <_>
          <!-- tree 2 -->
          <_>
            <!-- root node -->
            <feature>
              <rects>
                <_>
                  9 3 2 2 -1.</_>
                <_>
                  10 3 1 2 2.</_></rects>
              <tilted>0</tilted></feature>
            <threshold>2.3426000552717596e-005</threshold>
            <left_val>-7.7497571706771851e-001</left_val>
            <right_val>8.7089139223098755e-001</right_val></_></_>
        <_>
          <!-- tree 3 -->
          <_>
            <!-- root node -->
            <feature>
              <rects>
                <_>
                  16 3 4 16 -1.</_>
                <_>
                  16 3 2 16 2.</_></rects>
              <tilted>1</tilted></feature>
            <threshold>1.7101640696637332e-004</threshold>
            <left_val>-7.7943718433380127e-001</left_val>
            <right_val>1.3908380270004272e-001</right_val></_></_>
        <_>
          <!-- tree 4 -->
          <_>
            <!-- root node -->
            <feature>
              <rects>
                <_>
                  10 4 14 6 -1.</_>
                <_>
                  10 4 14 3 2.</_></rects>
              <tilted>1</tilted></feature>
            <threshold>5.0308601930737495e-004</threshold>
            <left_val>-9.1159552335739136e-001</left_val>
            <right_val>9.2635381221771240e-001</right_val></_></_>
        <_>
          <!-- tree 5 -->
          <_>
            <!-- root node -->
            <feature>
              <rects>
                <_>
                  23 9 1 8 -1.</_>
                <_>
                  23 9 1 4 2.</_></rects>
              <tilted>1</tilted></feature>
            <threshold>1.6199270612560213e-004</threshold>
            <left_val>-9.6710038185119629e-001</left_val>
            <right_val>4.3737068772315979e-001</right_val></_></_>
        <_>
          <!-- tree 6 -->
          <_>
            <!-- root node -->
            <feature>
              <rects>
                <_>
                  2 8 4 8 -1.</_>
                <_>
                  4 8 2 8 2.</_></rects>
              <tilted>0</tilted></feature>
            <threshold>-6.8277417449280620e-004</threshold>
            <left_val>1.</left_val>
            <right_val>-9.9179959297180176e-001</right_val></_></_>
        <_>
          <!-- tree 7 -->
          <_>
            <!-- root node -->
            <feature>
              <rects>
                <_>
                  21 1 3 18 -1.</_>
                <_>
                  22 7 1 6 9.</_></rects>
              <tilted>0</tilted></feature>
            <threshold>3.5702448803931475e-004</threshold>
            <left_val>-9.6882152557373047e-001</left_val>
            <right_val>3.7416589260101318e-001</right_val></_></_>
        <_>
          <!-- tree 8 -->
          <_>
            <!-- root node -->
            <feature>
              <rects>
                <_>
                  1 1 1 18 -1.</_>
                <_>
                  1 7 1 6 3.</_></rects>
              <tilted>0</tilted></feature>
            <threshold>3.8091659080237150e-003</threshold>
            <left_val>-9.9237251281738281e-001</left_val>
            <right_val>6.8353950977325439e-001</right_val></_></_>
        <_>
          <!-- tree 9 -->
          <_>
            <!-- root node -->
            <feature>
              <rects>
                <_>
                  0 4 24 10 -1.</_>
                <_>
                  0 9 24 5 2.</_></rects>
              <tilted>0</tilted></feature>
            <threshold>1.1412789672613144e-001</threshold>
            <left_val>-1.</left_val>
            <right_val>1.</right_val></_></_>
        <_>
          <!-- tree 10 -->
          <_>
            <!-- root node -->
            <feature>
              <rects>
                <_>
                  0 0 2 1 -1.</_>
                <_>
                  1 0 1 1 2.</_></rects>
              <tilted>0</tilted></feature>
            <threshold>0.</threshold>
            <left_val>0.</left_val>
            <right_val>-1.</right_val></_></_>
        <_>
          <!-- tree 11 -->
          <_>
            <!-- root node -->
            <feature>
              <rects>
                <_>
                  18 9 3 3 -1.</_>
                <_>
                  17 10 3 1 3.</_></rects>
              <tilted>1</tilted></feature>
            <threshold>2.1800069953314960e-004</threshold>
            <left_val>-9.9625897407531738e-001</left_val>
            <right_val>1.</right_val></_></_>
        <_>
          <!-- tree 12 -->
          <_>
            <!-- root node -->
            <feature>
              <rects>
                <_>
                  0 0 2 1 -1.</_>
                <_>
                  1 0 1 1 2.</_></rects>
              <tilted>0</tilted></feature>
            <threshold>0.</threshold>
            <left_val>0.</left_val>
            <right_val>-1.</right_val></_></_>
        <_>
          <!-- tree 13 -->
          <_>
            <!-- root node -->
            <feature>
              <rects>
                <_>
                  8 0 16 2 -1.</_>
                <_>
                  12 0 8 2 2.</_></rects>
              <tilted>0</tilted></feature>
            <threshold>-1.0424850042909384e-003</threshold>
            <left_val>1.</left_val>
            <right_val>-9.9587160348892212e-001</right_val></_></_>
        <_>
          <!-- tree 14 -->
          <_>
            <!-- root node -->
            <feature>
              <rects>
                <_>
                  0 0 9 12 -1.</_>
                <_>
                  3 4 3 4 9.</_></rects>
              <tilted>0</tilted></feature>
            <threshold>-7.4003441259264946e-003</threshold>
            <left_val>1.</left_val>
            <right_val>-1.</right_val></_></_>
        <_>
          <!-- tree 15 -->
          <_>
            <!-- root node -->
            <feature>
              <rects>
                <_>
                  22 0 2 1 -1.</_>
                <_>
                  22 0 1 1 2.</_></rects>
              <tilted>0</tilted></feature>
            <threshold>0.</threshold>
            <left_val>0.</left_val>
            <right_val>-1.</right_val></_></_>
        <_>
          <!-- tree 16 -->
          <_>
            <!-- root node -->
            <feature>
              <rects>
                <_>
                  0 2 24 10 -1.</_>
                <_>
                  0 7 24 5 2.</_></rects>
              <tilted>0</tilted></feature>
            <threshold>1.6505760140717030e-003</threshold>
            <left_val>-1.</left_val>
            <right_val>1.</right_val></_></_>
        <_>
          <!-- tree 17 -->
          <_>
            <!-- root node -->
            <feature>
              <rects>
                <_>
                  22 0 2 1 -1.</_>
                <_>
                  22 0 1 1 2.</_></rects>
              <tilted>0</tilted></feature>
            <threshold>0.</threshold>
            <left_val>0.</left_val>
            <right_val>-1.</right_val></_></_>
        <_>
          <!-- tree 18 -->
          <_>
            <!-- root node -->
            <feature>
              <rects>
                <_>
                  0 1 1 20 -1.</_>
                <_>
                  0 6 1 10 2.</_></rects>
              <tilted>0</tilted></feature>
            <threshold>1.4836540503893048e-004</threshold>
            <left_val>-9.9801212549209595e-001</left_val>
            <right_val>1.</right_val></_></_>
        <_>
          <!-- tree 19 -->
          <_>
            <!-- root node -->
            <feature>
              <rects>
                <_>
                  22 0 2 1 -1.</_>
                <_>
                  22 0 1 1 2.</_></rects>
              <tilted>0</tilted></feature>
            <threshold>0.</threshold>
            <left_val>0.</left_val>
            <right_val>-1.</right_val></_></_>
        <_>
          <!-- tree 20 -->
          <_>
            <!-- root node -->
            <feature>
              <rects>
                <_>
                  9 0 4 2 -1.</_>
                <_>
                  9 0 4 1 2.</_></rects>
              <tilted>1</tilted></feature>
            <threshold>1.5710989828221500e-004</threshold>
            <left_val>-9.8660331964492798e-001</left_val>
            <right_val>1.0000050067901611e+000</right_val></_></_>
        <_>
          <!-- tree 21 -->
          <_>
            <!-- root node -->
            <feature>
              <rects>
                <_>
                  19 3 5 18 -1.</_>
                <_>
                  19 9 5 6 3.</_></rects>
              <tilted>0</tilted></feature>
            <threshold>2.8258739039301872e-003</threshold>
            <left_val>-9.9750387668609619e-001</left_val>
            <right_val>1.</right_val></_></_>
        <_>
          <!-- tree 22 -->
          <_>
            <!-- root node -->
            <feature>
              <rects>
                <_>
                  0 0 2 1 -1.</_>
                <_>
                  1 0 1 1 2.</_></rects>
              <tilted>0</tilted></feature>
            <threshold>0.</threshold>
            <left_val>0.</left_val>
            <right_val>-1.</right_val></_></_>
        <_>
          <!-- tree 23 -->
          <_>
            <!-- root node -->
            <feature>
              <rects>
                <_>
                  21 1 3 9 -1.</_>
                <_>
                  21 4 3 3 3.</_></rects>
              <tilted>0</tilted></feature>
            <threshold>9.4575822004117072e-005</threshold>
            <left_val>-9.9555867910385132e-001</left_val>
            <right_val>1.</right_val></_></_>
        <_>
          <!-- tree 24 -->
          <_>
            <!-- root node -->
            <feature>
              <rects>
                <_>
                  0 0 3 15 -1.</_>
                <_>
                  1 5 1 5 9.</_></rects>
              <tilted>0</tilted></feature>
            <threshold>6.6443480551242828e-002</threshold>
            <left_val>-1.</left_val>
            <right_val>1.0001649856567383e+000</right_val></_></_>
        <_>
          <!-- tree 25 -->
          <_>
            <!-- root node -->
            <feature>
              <rects>
                <_>
                  19 3 5 8 -1.</_>
                <_>
                  19 7 5 4 2.</_></rects>
              <tilted>0</tilted></feature>
            <threshold>8.4342662012204528e-004</threshold>
            <left_val>-9.8765951395034790e-001</left_val>
            <right_val>1.</right_val></_></_>
        <_>
          <!-- tree 26 -->
          <_>
            <!-- root node -->
            <feature>
              <rects>
                <_>
                  0 0 2 1 -1.</_>
                <_>
                  1 0 1 1 2.</_></rects>
              <tilted>0</tilted></feature>
            <threshold>0.</threshold>
            <left_val>0.</left_val>
            <right_val>-1.</right_val></_></_>
        <_>
          <!-- tree 27 -->
          <_>
            <!-- root node -->
            <feature>
              <rects>
                <_>
                  21 0 3 3 -1.</_>
                <_>
                  22 0 1 3 3.</_></rects>
              <tilted>0</tilted></feature>
            <threshold>2.2020889446139336e-005</threshold>
            <left_val>-1.</left_val>
            <right_val>1.</right_val></_></_>
        <_>
          <!-- tree 28 -->
          <_>
            <!-- root node -->
            <feature>
              <rects>
                <_>
                  0 0 2 1 -1.</_>
                <_>
                  1 0 1 1 2.</_></rects>
              <tilted>0</tilted></feature>
            <threshold>0.</threshold>
            <left_val>0.</left_val>
            <right_val>-1.</right_val></_></_>
        <_>
          <!-- tree 29 -->
          <_>
            <!-- root node -->
            <feature>
              <rects>
                <_>
                  18 0 6 9 -1.</_>
                <_>
                  20 3 2 3 9.</_></rects>
              <tilted>0</tilted></feature>
            <threshold>2.7237839531153440e-003</threshold>
            <left_val>-1.</left_val>
            <right_val>1.</right_val></_></_>
        <_>
          <!-- tree 30 -->
          <_>
            <!-- root node -->
            <feature>
              <rects>
                <_>
                  0 0 2 1 -1.</_>
                <_>
                  1 0 1 1 2.</_></rects>
              <tilted>0</tilted></feature>
            <threshold>0.</threshold>
            <left_val>0.</left_val>
            <right_val>-1.</right_val></_></_>
        <_>
          <!-- tree 31 -->
          <_>
            <!-- root node -->
            <feature>
              <rects>
                <_>
                  16 2 8 8 -1.</_>
                <_>
                  16 6 8 4 2.</_></rects>
              <tilted>0</tilted></feature>
            <threshold>3.4494578838348389e-002</threshold>
            <left_val>-9.6720737218856812e-001</left_val>
            <right_val>1.</right_val></_></_>
        <_>
          <!-- tree 32 -->
          <_>
            <!-- root node -->
            <feature>
              <rects>
                <_>
                  0 0 1 2 -1.</_>
                <_>
                  0 1 1 1 2.</_></rects>
              <tilted>0</tilted></feature>
            <threshold>1.5414629888255149e-004</threshold>
            <left_val>-1.</left_val>
            <right_val>1.0000339746475220e+000</right_val></_></_>
        <_>
          <!-- tree 33 -->
          <_>
            <!-- root node -->
            <feature>
              <rects>
                <_>
                  22 0 2 1 -1.</_>
                <_>
                  22 0 1 1 2.</_></rects>
              <tilted>0</tilted></feature>
            <threshold>0.</threshold>
            <left_val>0.</left_val>
            <right_val>-1.</right_val></_></_>
        <_>
          <!-- tree 34 -->
          <_>
            <!-- root node -->
            <feature>
              <rects>
                <_>
                  1 2 4 12 -1.</_>
                <_>
                  1 8 4 6 2.</_></rects>
              <tilted>0</tilted></feature>
            <threshold>9.9094016477465630e-003</threshold>
            <left_val>-1.</left_val>
            <right_val>1.0000050067901611e+000</right_val></_></_>
        <_>
          <!-- tree 35 -->
          <_>
            <!-- root node -->
            <feature>
              <rects>
                <_>
                  22 0 2 1 -1.</_>
                <_>
                  22 0 1 1 2.</_></rects>
              <tilted>0</tilted></feature>
            <threshold>0.</threshold>
            <left_val>0.</left_val>
            <right_val>-1.</right_val></_></_>
        <_>
          <!-- tree 36 -->
          <_>
            <!-- root node -->
            <feature>
              <rects>
                <_>
                  3 2 18 11 -1.</_>
                <_>
                  9 2 6 11 3.</_></rects>
              <tilted>0</tilted></feature>
            <threshold>1.3146470300853252e-002</threshold>
            <left_val>-1.</left_val>
            <right_val>1.0000400543212891e+000</right_val></_></_>
        <_>
          <!-- tree 37 -->
          <_>
            <!-- root node -->
            <feature>
              <rects>
                <_>
                  22 0 2 1 -1.</_>
                <_>
                  22 0 1 1 2.</_></rects>
              <tilted>0</tilted></feature>
            <threshold>0.</threshold>
            <left_val>0.</left_val>
            <right_val>-1.</right_val></_></_>
        <_>
          <!-- tree 38 -->
          <_>
            <!-- root node -->
            <feature>
              <rects>
                <_>
                  5 18 11 6 -1.</_>
                <_>
                  5 21 11 3 2.</_></rects>
              <tilted>0</tilted></feature>
            <threshold>5.0716311670839787e-003</threshold>
            <left_val>-1.</left_val>
            <right_val>1.0000330209732056e+000</right_val></_></_>
        <_>
          <!-- tree 39 -->
          <_>
            <!-- root node -->
            <feature>
              <rects>
                <_>
                  22 0 2 1 -1.</_>
                <_>
                  22 0 1 1 2.</_></rects>
              <tilted>0</tilted></feature>
            <threshold>0.</threshold>
            <left_val>0.</left_val>
            <right_val>-1.</right_val></_></_>
        <_>
          <!-- tree 40 -->
          <_>
            <!-- root node -->
            <feature>
              <rects>
                <_>
                  0 0 2 1 -1.</_>
                <_>
                  1 0 1 1 2.</_></rects>
              <tilted>0</tilted></feature>
            <threshold>0.</threshold>
            <left_val>0.</left_val>
            <right_val>-1.</right_val></_></_>
        <_>
          <!-- tree 41 -->
          <_>
            <!-- root node -->
            <feature>
              <rects>
                <_>
                  21 0 3 21 -1.</_>
                <_>
                  22 7 1 7 9.</_></rects>
              <tilted>0</tilted></feature>
            <threshold>1.6240689437836409e-003</threshold>
            <left_val>-9.8748242855072021e-001</left_val>
            <right_val>1.</right_val></_></_>
        <_>
          <!-- tree 42 -->
          <_>
            <!-- root node -->
            <feature>
              <rects>
                <_>
                  0 0 2 1 -1.</_>
                <_>
                  1 0 1 1 2.</_></rects>
              <tilted>0</tilted></feature>
            <threshold>0.</threshold>
            <left_val>0.</left_val>
            <right_val>-1.</right_val></_></_>
        <_>
          <!-- tree 43 -->
          <_>
            <!-- root node -->
            <feature>
              <rects>
                <_>
                  23 0 1 12 -1.</_>
                <_>
                  23 3 1 6 2.</_></rects>
              <tilted>0</tilted></feature>
            <threshold>-2.2033539135009050e-003</threshold>
            <left_val>1.</left_val>
            <right_val>-9.9147468805313110e-001</right_val></_></_>
        <_>
          <!-- tree 44 -->
          <_>
            <!-- root node -->
            <feature>
              <rects>
                <_>
                  0 0 3 21 -1.</_>
                <_>
                  1 7 1 7 9.</_></rects>
              <tilted>0</tilted></feature>
            <threshold>3.5537959774956107e-004</threshold>
            <left_val>-1.</left_val>
            <right_val>1.</right_val></_></_>
        <_>
          <!-- tree 45 -->
          <_>
            <!-- root node -->
            <feature>
              <rects>
                <_>
                  22 0 2 1 -1.</_>
                <_>
                  22 0 1 1 2.</_></rects>
              <tilted>0</tilted></feature>
            <threshold>0.</threshold>
            <left_val>0.</left_val>
            <right_val>-1.</right_val></_></_>
        <_>
          <!-- tree 46 -->
          <_>
            <!-- root node -->
            <feature>
              <rects>
                <_>
                  0 0 3 1 -1.</_>
                <_>
                  1 0 1 1 3.</_></rects>
              <tilted>0</tilted></feature>
            <threshold>5.1570590585470200e-005</threshold>
            <left_val>-1.</left_val>
            <right_val>9.9999850988388062e-001</right_val></_></_>
        <_>
          <!-- tree 47 -->
          <_>
            <!-- root node -->
            <feature>
              <rects>
                <_>
                  0 0 24 2 -1.</_>
                <_>
                  6 0 12 2 2.</_></rects>
              <tilted>0</tilted></feature>
            <threshold>1.3391469838097692e-003</threshold>
            <left_val>-1.</left_val>
            <right_val>1.</right_val></_></_>
        <_>
          <!-- tree 48 -->
          <_>
            <!-- root node -->
            <feature>
              <rects>
                <_>
                  4 9 3 2 -1.</_>
                <_>
                  5 10 1 2 3.</_></rects>
              <tilted>1</tilted></feature>
            <threshold>7.5660660513676703e-005</threshold>
            <left_val>-1.</left_val>
            <right_val>1.</right_val></_></_>
        <_>
          <!-- tree 49 -->
          <_>
            <!-- root node -->
            <feature>
              <rects>
                <_>
                  22 0 2 7 -1.</_>
                <_>
                  22 0 1 7 2.</_></rects>
              <tilted>0</tilted></feature>
            <threshold>-6.6062682890333235e-005</threshold>
            <left_val>1.</left_val>
            <right_val>-9.9254328012466431e-001</right_val></_></_>
        <_>
          <!-- tree 50 -->
          <_>
            <!-- root node -->
            <feature>
              <rects>
                <_>
                  0 0 2 1 -1.</_>
                <_>
                  1 0 1 1 2.</_></rects>
              <tilted>0</tilted></feature>
            <threshold>0.</threshold>
            <left_val>0.</left_val>
            <right_val>-1.</right_val></_></_>
        <_>
          <!-- tree 51 -->
          <_>
            <!-- root node -->
            <feature>
              <rects>
                <_>
                  22 0 2 1 -1.</_>
                <_>
                  22 0 1 1 2.</_></rects>
              <tilted>0</tilted></feature>
            <threshold>0.</threshold>
            <left_val>0.</left_val>
            <right_val>-1.</right_val></_></_>
        <_>
          <!-- tree 52 -->
          <_>
            <!-- root node -->
            <feature>
              <rects>
                <_>
                  0 0 6 10 -1.</_>
                <_>
                  0 0 3 5 2.</_>
                <_>
                  3 5 3 5 2.</_></rects>
              <tilted>0</tilted></feature>
            <threshold>-1.2483310420066118e-003</threshold>
            <left_val>1.</left_val>
            <right_val>-1.</right_val></_></_>
        <_>
          <!-- tree 53 -->
          <_>
            <!-- root node -->
            <feature>
              <rects>
                <_>
                  22 0 2 1 -1.</_>
                <_>
                  22 0 1 1 2.</_></rects>
              <tilted>0</tilted></feature>
            <threshold>0.</threshold>
            <left_val>0.</left_val>
            <right_val>-1.</right_val></_></_>
        <_>
          <!-- tree 54 -->
          <_>
            <!-- root node -->
            <feature>
              <rects>
                <_>
                  0 0 1 12 -1.</_>
                <_>
                  0 4 1 4 3.</_></rects>
              <tilted>0</tilted></feature>
            <threshold>-1.5248430427163839e-003</threshold>
            <left_val>1.</left_val>
            <right_val>-1.</right_val></_></_>
        <_>
          <!-- tree 55 -->
          <_>
            <!-- root node -->
            <feature>
              <rects>
                <_>
                  16 0 8 8 -1.</_>
                <_>
                  16 2 8 4 2.</_></rects>
              <tilted>0</tilted></feature>
            <threshold>-8.2803452387452126e-003</threshold>
            <left_val>1.</left_val>
            <right_val>-9.5149290561676025e-001</right_val></_></_>
        <_>
          <!-- tree 56 -->
          <_>
            <!-- root node -->
            <feature>
              <rects>
                <_>
                  0 0 1 24 -1.</_>
                <_>
                  0 6 1 12 2.</_></rects>
              <tilted>0</tilted></feature>
            <threshold>2.2035019937902689e-003</threshold>
            <left_val>-1.</left_val>
            <right_val>1.</right_val></_></_>
        <_>
          <!-- tree 57 -->
          <_>
            <!-- root node -->
            <feature>
              <rects>
                <_>
                  22 0 2 1 -1.</_>
                <_>
                  22 0 1 1 2.</_></rects>
              <tilted>0</tilted></feature>
            <threshold>2.4589718668721616e-004</threshold>
            <left_val>-1.</left_val>
            <right_val>1.</right_val></_></_>
        <_>
          <!-- tree 58 -->
          <_>
            <!-- root node -->
            <feature>
              <rects>
                <_>
                  0 0 6 21 -1.</_>
                <_>
                  2 7 2 7 9.</_></rects>
              <tilted>0</tilted></feature>
            <threshold>4.7643278958275914e-004</threshold>
            <left_val>-1.</left_val>
            <right_val>1.</right_val></_></_>
        <_>
          <!-- tree 59 -->
          <_>
            <!-- root node -->
            <feature>
              <rects>
                <_>
                  22 0 2 1 -1.</_>
                <_>
                  22 0 1 1 2.</_></rects>
              <tilted>0</tilted></feature>
            <threshold>0.</threshold>
            <left_val>0.</left_val>
            <right_val>-1.</right_val></_></_>
        <_>
          <!-- tree 60 -->
          <_>
            <!-- root node -->
            <feature>
              <rects>
                <_>
                  0 0 2 2 -1.</_>
                <_>
                  0 0 1 1 2.</_>
                <_>
                  1 1 1 1 2.</_></rects>
              <tilted>0</tilted></feature>
            <threshold>-1.8915170585387386e-005</threshold>
            <left_val>1.</left_val>
            <right_val>-1.</right_val></_></_>
        <_>
          <!-- tree 61 -->
          <_>
            <!-- root node -->
            <feature>
              <rects>
                <_>
                  23 1 1 12 -1.</_>
                <_>
                  23 7 1 6 2.</_></rects>
              <tilted>0</tilted></feature>
            <threshold>1.2294859625399113e-003</threshold>
            <left_val>-9.7382992506027222e-001</left_val>
            <right_val>1.</right_val></_></_>
        <_>
          <!-- tree 62 -->
          <_>
            <!-- root node -->
            <feature>
              <rects>
                <_>
                  0 0 2 1 -1.</_>
                <_>
                  1 0 1 1 2.</_></rects>
              <tilted>0</tilted></feature>
            <threshold>0.</threshold>
            <left_val>0.</left_val>
            <right_val>-1.</right_val></_></_>
        <_>
          <!-- tree 63 -->
          <_>
            <!-- root node -->
            <feature>
              <rects>
                <_>
                  23 0 1 14 -1.</_>
                <_>
                  23 7 1 7 2.</_></rects>
              <tilted>0</tilted></feature>
            <threshold>-1.9818800501525402e-004</threshold>
            <left_val>1.</left_val>
            <right_val>-9.4484257698059082e-001</right_val></_></_>
        <_>
          <!-- tree 64 -->
          <_>
            <!-- root node -->
            <feature>
              <rects>
                <_>
                  7 0 4 6 -1.</_>
                <_>
                  5 2 4 2 3.</_></rects>
              <tilted>1</tilted></feature>
            <threshold>-1.0136429918929935e-003</threshold>
            <left_val>1.</left_val>
            <right_val>-1.</right_val></_></_>
        <_>
          <!-- tree 65 -->
          <_>
            <!-- root node -->
            <feature>
              <rects>
                <_>
                  21 1 3 12 -1.</_>
                <_>
                  21 7 3 6 2.</_></rects>
              <tilted>0</tilted></feature>
            <threshold>1.7337920144200325e-004</threshold>
            <left_val>-8.8777017593383789e-001</left_val>
            <right_val>1.</right_val></_></_>
        <_>
          <!-- tree 66 -->
          <_>
            <!-- root node -->
            <feature>
              <rects>
                <_>
                  0 0 2 8 -1.</_>
                <_>
                  0 0 1 4 2.</_>
                <_>
                  1 4 1 4 2.</_></rects>
              <tilted>0</tilted></feature>
            <threshold>-2.2221849940251559e-004</threshold>
            <left_val>1.</left_val>
            <right_val>-1.</right_val></_></_>
        <_>
          <!-- tree 67 -->
          <_>
            <!-- root node -->
            <feature>
              <rects>
                <_>
                  14 0 10 24 -1.</_>
                <_>
                  14 8 10 8 3.</_></rects>
              <tilted>0</tilted></feature>
            <threshold>1.2067199684679508e-002</threshold>
            <left_val>-9.6821117401123047e-001</left_val>
            <right_val>9.9999952316284180e-001</right_val></_></_>
        <_>
          <!-- tree 68 -->
          <_>
            <!-- root node -->
            <feature>
              <rects>
                <_>
                  0 0 2 1 -1.</_>
                <_>
                  1 0 1 1 2.</_></rects>
              <tilted>0</tilted></feature>
            <threshold>0.</threshold>
            <left_val>0.</left_val>
            <right_val>-1.</right_val></_></_>
        <_>
          <!-- tree 69 -->
          <_>
            <!-- root node -->
            <feature>
              <rects>
                <_>
                  21 0 3 12 -1.</_>
                <_>
                  22 4 1 4 9.</_></rects>
              <tilted>0</tilted></feature>
            <threshold>-6.9479789817705750e-004</threshold>
            <left_val>1.</left_val>
            <right_val>-9.7699522972106934e-001</right_val></_></_>
        <_>
          <!-- tree 70 -->
          <_>
            <!-- root node -->
            <feature>
              <rects>
                <_>
                  0 8 8 3 -1.</_>
                <_>
                  0 9 8 1 3.</_></rects>
              <tilted>0</tilted></feature>
            <threshold>7.6189200626686215e-004</threshold>
            <left_val>-1.</left_val>
            <right_val>9.9999958276748657e-001</right_val></_></_>
        <_>
          <!-- tree 71 -->
          <_>
            <!-- root node -->
            <feature>
              <rects>
                <_>
                  22 0 2 1 -1.</_>
                <_>
                  22 0 1 1 2.</_></rects>
              <tilted>0</tilted></feature>
            <threshold>3.1745501473778859e-005</threshold>
            <left_val>-1.</left_val>
            <right_val>1.</right_val></_></_>
        <_>
          <!-- tree 72 -->
          <_>
            <!-- root node -->
            <feature>
              <rects>
                <_>
                  0 0 2 1 -1.</_>
                <_>
                  1 0 1 1 2.</_></rects>
              <tilted>0</tilted></feature>
            <threshold>9.5236500783357769e-005</threshold>
            <left_val>-1.</left_val>
            <right_val>1.</right_val></_></_>
        <_>
          <!-- tree 73 -->
          <_>
            <!-- root node -->
            <feature>
              <rects>
                <_>
                  22 0 2 5 -1.</_>
                <_>
                  22 0 1 5 2.</_></rects>
              <tilted>0</tilted></feature>
            <threshold>1.0661390115274116e-004</threshold>
            <left_val>-9.6565252542495728e-001</left_val>
            <right_val>1.</right_val></_></_>
        <_>
          <!-- tree 74 -->
          <_>
            <!-- root node -->
            <feature>
              <rects>
                <_>
                  0 1 18 12 -1.</_>
                <_>
                  0 7 18 6 2.</_></rects>
              <tilted>0</tilted></feature>
            <threshold>1.9723330624401569e-003</threshold>
            <left_val>-1.</left_val>
            <right_val>1.0000009536743164e+000</right_val></_></_>
        <_>
          <!-- tree 75 -->
          <_>
            <!-- root node -->
            <feature>
              <rects>
                <_>
                  23 0 1 2 -1.</_>
                <_>
                  23 1 1 1 2.</_></rects>
