<?xml version="1.0"?>
<opencv_storage>
<myfacedetector_6_1_2017_v1 type_id="opencv-haar-classifier">
  <size>
    24 24</size>
  <stages>
    <_>
      <trees>
        <_>
          <_>
            <feature>
              <rects>
                <_>
                  1 1 5 10 -1.</_>
                <_>
                  1 6 5 5 2.</_></rects>
              <tilted>0</tilted></feature>
            <threshold>0.0203463304787874</threshold>
            <left_val>-0.9866979122161865</left_val>
            <right_val>0.8446012735366821</right_val></_></_>
        <_>
          <_>
            <feature>
              <rects>
                <_>
                  0 3 20 6 -1.</_>
                <_>
                  0 6 20 3 2.</_></rects>
              <tilted>0</tilted></feature>
            <threshold>0.0560059212148190</threshold>
            <left_val>-0.8486893177032471</left_val>
            <right_val>0.7670376896858215</right_val></_></_></trees>
      <stage_threshold>-0.2196601927280426</stage_threshold>
      <parent>-1</parent>
      <next>-1</next></_>
    <_>
      <trees>
        <_>
          <_>
            <feature>
              <rects>
                <_>
                  4 0 12 6 -1.</_>
                <_>
                  7 0 6 6 2.</_></rects>
              <tilted>0</tilted></feature>
            <threshold>0.0677129328250885</threshold>
            <left_val>-0.6159083843231201</left_val>
            <right_val>0.8066201806068420</right_val></_></_>
        <_>
          <_>
            <feature>
              <rects>
                <_>
                  6 14 9 4 -1.</_>
                <_>
                  6 16 9 2 2.</_></rects>
              <tilted>0</tilted></feature>
            <threshold>5.8931638486683369e-003</threshold>
            <left_val>-0.7565584182739258</left_val>
            <right_val>0.5213794708251953</right_val></_></_>
        <_>
          <_>
            <feature>
              <rects>
                <_>
                  1 10 1 2 -1.</_>
                <_>
                  1 11 1 1 2.</_></rects>
              <tilted>0</tilted></feature>
            <threshold>-3.1400439183926210e-005</threshold>
            <left_val>0.3737303912639618</left_val>
            <right_val>-0.7734842896461487</right_val></_></_>
        <_>
          <_>
            <feature>
              <rects>
                <_>
                  14 0 6 4 -1.</_>
                <_>
                  17 0 3 2 2.</_>
                <_>
                  14 2 3 2 2.</_></rects>
              <tilted>0</tilted></feature>
            <threshold>-4.0842238813638687e-003</threshold>
            <left_val>0.4490283131599426</left_val>
            <right_val>-0.6021671295166016</right_val></_></_>
        <_>
          <_>
            <feature>
              <rects>
                <_>
                  0 0 20 12 -1.</_>
                <_>
                  0 6 20 6 2.</_></rects>
              <tilted>0</tilted></feature>
            <threshold>0.1191954016685486</threshold>
            <left_val>-0.8652154803276062</left_val>
            <right_val>0.4180667102336884</right_val></_></_>
        <_>
          <_>
            <feature>
              <rects>
                <_>
                  12 8 6 4 -1.</_>
                <_>
                  12 8 3 4 2.</_></rects>
              <tilted>0</tilted></feature>
            <threshold>-7.4780308641493320e-003</threshold>
            <left_val>0.3406147062778473</left_val>
            <right_val>-0.4807488024234772</right_val></_></_></trees>
      <stage_threshold>-1.6689300537109375</stage_threshold>
      <parent>0</parent>
      <next>-1</next></_>
    <_>
      <trees>
        <_>
          <_>
            <feature>
              <rects>
                <_>
                  0 9 1 2 -1.</_>
                <_>
                  0 10 1 1 2.</_></rects>
              <tilted>0</tilted></feature>
            <threshold>-3.1400439183926210e-005</threshold>
            <left_val>0.5421462059020996</left_val>
            <right_val>-0.7153871059417725</right_val></_></_>
        <_>
          <_>
            <feature>
              <rects>
                <_>
                  9 0 10 16 -1.</_>
                <_>
                  14 0 5 8 2.</_>
                <_>
                  9 8 5 8 2.</_></rects>
              <tilted>0</tilted></feature>
            <threshold>-0.0542513206601143</threshold>
            <left_val>0.5779786705970764</left_val>
            <right_val>-0.6562768816947937</right_val></_></_>
        <_>
          <_>
            <feature>
              <rects>
                <_>
                  9 18 1 2 -1.</_>
                <_>
                  9 19 1 1 2.</_></rects>
              <tilted>0</tilted></feature>
            <threshold>-1.4345299859996885e-004</threshold>
            <left_val>0.4486860930919647</left_val>
            <right_val>-0.7393122911453247</right_val></_></_>
        <_>
          <_>
            <feature>
              <rects>
                <_>
                  16 9 2 6 -1.</_>
                <_>
                  16 9 2 3 2.</_></rects>
              <tilted>1</tilted></feature>
            <threshold>4.9587050452828407e-003</threshold>
            <left_val>-0.5550696849822998</left_val>
            <right_val>0.1873824000358582</right_val></_></_>
        <_>
          <_>
            <feature>
              <rects>
                <_>
                  4 9 2 1 -1.</_>
                <_>
                  5 9 1 1 2.</_></rects>
              <tilted>0</tilted></feature>
            <threshold>-1.7229979857802391e-004</threshold>
            <left_val>0.4989477992057800</left_val>
            <right_val>-0.5620033740997315</right_val></_></_></trees>
      <stage_threshold>-1.2975989580154419</stage_threshold>
      <parent>1</parent>
      <next>-1</next></_>
    <_>
      <trees>
        <_>
          <_>
            <feature>
              <rects>
                <_>
                  6 1 8 4 -1.</_>
                <_>
                  8 1 4 4 2.</_></rects>
              <tilted>0</tilted></feature>
            <threshold>0.0209876708686352</threshold>
            <left_val>-0.5876408815383911</left_val>
            <right_val>0.6015337705612183</right_val></_></_>
        <_>
          <_>
            <feature>
              <rects>
                <_>
                  17 9 1 6 -1.</_>
                <_>
                  17 9 1 3 2.</_></rects>
              <tilted>1</tilted></feature>
            <threshold>6.1107082292437553e-003</threshold>
            <left_val>-0.4556578993797302</left_val>
            <right_val>0.2500754892826080</right_val></_></_>
        <_>
          <_>
            <feature>
              <rects>
                <_>
                  6 16 1 4 -1.</_>
                <_>
                  6 17 1 2 2.</_></rects>
              <tilted>0</tilted></feature>
            <threshold>4.7821969928918406e-005</threshold>
            <left_val>-0.7847151756286621</left_val>
            <right_val>0.4123449921607971</right_val></_></_>
        <_>
          <_>
            <feature>
              <rects>
                <_>
                  12 0 8 4 -1.</_>
                <_>
                  16 0 4 2 2.</_>
                <_>
                  12 2 4 2 2.</_></rects>
              <tilted>0</tilted></feature>
            <threshold>-5.3012568969279528e-005</threshold>
            <left_val>0.1693204939365387</left_val>
            <right_val>-0.3434267044067383</right_val></_></_>
        <_>
          <_>
            <feature>
              <rects>
                <_>
                  3 9 6 1 -1.</_>
                <_>
                  3 9 3 1 2.</_></rects>
              <tilted>1</tilted></feature>
            <threshold>6.5925540402531624e-003</threshold>
            <left_val>-0.7493597865104675</left_val>
            <right_val>0.3616974949836731</right_val></_></_>
        <_>
          <_>
            <feature>
              <rects>
                <_>
                  17 16 1 2 -1.</_>
                <_>
                  17 17 1 1 2.</_></rects>
              <tilted>0</tilted></feature>
            <threshold>-4.1244969906983897e-005</threshold>
            <left_val>0.3453156054019928</left_val>
            <right_val>-0.3409959971904755</right_val></_></_>
        <_>
          <_>
            <feature>
              <rects>
                <_>
                  2 16 1 2 -1.</_>
                <_>
                  2 17 1 1 2.</_></rects>
              <tilted>0</tilted></feature>
            <threshold>-3.5021941585000604e-005</threshold>
            <left_val>0.5081179738044739</left_val>
            <right_val>-0.5891538858413696</right_val></_></_>
        <_>
          <_>
            <feature>
              <rects>
                <_>
                  14 0 6 6 -1.</_>
                <_>
                  17 0 3 3 2.</_>
                <_>
                  14 3 3 3 2.</_></rects>
              <tilted>0</tilted></feature>
            <threshold>-3.3924700692296028e-003</threshold>
            <left_val>0.3080368041992188</left_val>
            <right_val>-0.5460525155067444</right_val></_></_></trees>
      <stage_threshold>-1.4242449998855591</stage_threshold>
      <parent>2</parent>
      <next>-1</next></_>
    <_>
      <trees>
        <_>
          <_>
            <feature>
              <rects>
                <_>
                  2 0 8 16 -1.</_>
                <_>
                  2 0 4 8 2.</_>
                <_>
                  6 8 4 8 2.</_></rects>
              <tilted>0</tilted></feature>
            <threshold>-0.0759054571390152</threshold>
            <left_val>0.5717447996139526</left_val>
            <right_val>-0.5157343149185181</right_val></_></_>
        <_>
          <_>
            <feature>
              <rects>
                <_>
                  17 10 1 2 -1.</_>
                <_>
                  17 11 1 1 2.</_></rects>
              <tilted>0</tilted></feature>
            <threshold>-3.1314688385464251e-005</threshold>
            <left_val>0.4317077100276947</left_val>
            <right_val>-0.5573478937149048</right_val></_></_>
        <_>
          <_>
            <feature>
              <rects>
                <_>
                  0 0 8 4 -1.</_>
                <_>
                  0 0 4 2 2.</_>
                <_>
                  4 2 4 2 2.</_></rects>
              <tilted>0</tilted></feature>
            <threshold>-0.0104073500260711</threshold>
            <left_val>0.5063998103141785</left_val>
            <right_val>-0.5494167208671570</right_val></_></_>
        <_>
          <_>
            <feature>
              <rects>
                <_>
                  4 12 13 4 -1.</_>
                <_>
                  4 13 13 2 2.</_></rects>
              <tilted>0</tilted></feature>
            <threshold>-0.0169260706752539</threshold>
            <left_val>0.5222303271293640</left_val>
            <right_val>-0.4460864961147308</right_val></_></_>
        <_>
          <_>
            <feature>
              <rects>
                <_>
                  2 10 1 2 -1.</_>
                <_>
                  2 11 1 1 2.</_></rects>
              <tilted>0</tilted></feature>
            <threshold>-3.1400439183926210e-005</threshold>
            <left_val>0.3985899984836578</left_val>
            <right_val>-0.6413456797599793</right_val></_></_>
        <_>
          <_>
            <feature>
              <rects>
                <_>
                  18 10 2 3 -1.</_>
                <_>
                  17 11 2 1 3.</_></rects>
              <tilted>1</tilted></feature>
            <threshold>-1.9755389075726271e-003</threshold>
            <left_val>-0.5524299740791321</left_val>
            <right_val>0.0789823606610298</right_val></_></_>
        <_>
          <_>
            <feature>
              <rects>
                <_>
                  1 9 2 3 -1.</_>
                <_>
                  1 10 2 1 3.</_></rects>
              <tilted>0</tilted></feature>
            <threshold>2.6839780621230602e-003</threshold>
            <left_val>0.3341751098632813</left_val>
            <right_val>-0.8360602855682373</right_val></_></_>
        <_>
          <_>
            <feature>
              <rects>
                <_>
                  9 0 10 9 -1.</_>
                <_>
                  9 3 10 3 3.</_></rects>
              <tilted>0</tilted></feature>
            <threshold>-0.0839032828807831</threshold>
            <left_val>0.5422397255897522</left_val>
            <right_val>-0.3871772885322571</right_val></_></_>
        <_>
          <_>
            <feature>
              <rects>
                <_>
                  4 5 2 4 -1.</_>
                <_>
                  4 6 2 2 2.</_></rects>
              <tilted>0</tilted></feature>
            <threshold>6.1888212803751230e-004</threshold>
            <left_val>-0.6800407767295837</left_val>
            <right_val>0.3650453090667725</right_val></_></_></trees>
      <stage_threshold>-1.4662580490112305</stage_threshold>
      <parent>3</parent>
      <next>-1</next></_>
    <_>
      <trees>
        <_>
          <_>
            <feature>
              <rects>
                <_>
                  4 3 12 3 -1.</_>
                <_>
                  8 3 4 3 3.</_></rects>
              <tilted>0</tilted></feature>
            <threshold>0.0656487792730331</threshold>
            <left_val>-0.4237892925739288</left_val>
            <right_val>0.6998925805091858</right_val></_></_>
        <_>
          <_>
            <feature>
              <rects>
                <_>
                  5 18 10 2 -1.</_>
                <_>
                  5 19 10 1 2.</_></rects>
              <tilted>0</tilted></feature>
            <threshold>-7.3834829963743687e-003</threshold>
            <left_val>0.5151113867759705</left_val>
            <right_val>-0.5762637257575989</right_val></_></_>
        <_>
          <_>
            <feature>
              <rects>
                <_>
                  5 8 6 4 -1.</_>
                <_>
                  5 8 3 4 2.</_></rects>
              <tilted>1</tilted></feature>
            <threshold>0.0220118407160044</threshold>
            <left_val>-0.7508754134178162</left_val>
            <right_val>0.2942110896110535</right_val></_></_>
        <_>
          <_>
            <feature>
              <rects>
                <_>
                  17 0 2 1 -1.</_>
                <_>
                  17 0 1 1 2.</_></rects>
              <tilted>0</tilted></feature>
            <threshold>1.9711849745362997e-004</threshold>
            <left_val>-0.2845734059810638</left_val>
            <right_val>0.3075641989707947</right_val></_></_>
        <_>
          <_>
            <feature>
              <rects>
                <_>
                  0 0 6 6 -1.</_>
                <_>
                  0 0 3 3 2.</_>
                <_>
                  3 3 3 3 2.</_></rects>
              <tilted>0</tilted></feature>
            <threshold>-5.1490268670022488e-003</threshold>
            <left_val>0.3770914077758789</left_val>
            <right_val>-0.5986374020576477</right_val></_></_>
        <_>
          <_>
            <feature>
              <rects>
                <_>
                  14 15 1 4 -1.</_>
                <_>
                  14 16 1 2 2.</_></rects>
              <tilted>0</tilted></feature>
            <threshold>4.8807989514898509e-005</threshold>
            <left_val>-0.5495861768722534</left_val>
            <right_val>0.2371767014265060</right_val></_></_>
        <_>
          <_>
            <feature>
              <rects>
                <_>
                  2 9 3 2 -1.</_>
                <_>
                  3 10 1 2 3.</_></rects>
              <tilted>1</tilted></feature>
            <threshold>-2.0946960430592299e-003</threshold>
            <left_val>-0.8905637860298157</left_val>
            <right_val>0.2481252998113632</right_val></_></_>
        <_>
          <_>
            <feature>
              <rects>
                <_>
                  18 10 1 2 -1.</_>
                <_>
                  18 11 1 1 2.</_></rects>
              <tilted>0</tilted></feature>
            <threshold>-1.8436620011925697e-003</threshold>
            <left_val>-0.9478812217712402</left_val>
            <right_val>0.0149511098861694</right_val></_></_>
        <_>
          <_>
            <feature>
              <rects>
                <_>
                  0 10 2 4 -1.</_>
                <_>
                  0 11 2 2 2.</_></rects>
              <tilted>0</tilted></feature>
            <threshold>1.1980680283159018e-003</threshold>
            <left_val>0.2755419015884399</left_val>
            <right_val>-0.7736234068870544</right_val></_></_>
        <_>
          <_>
            <feature>
              <rects>
                <_>
                  14 15 1 4 -1.</_>
                <_>
                  14 16 1 2 2.</_></rects>
              <tilted>0</tilted></feature>
            <threshold>4.9097482115030289e-003</threshold>
            <left_val>-0.0197145193815231</left_val>
            <right_val>-0.6593971848487854</right_val></_></_>
        <_>
          <_>
            <feature>
              <rects>
                <_>
                  5 15 1 4 -1.</_>
                <_>
                  5 16 1 2 2.</_></rects>
              <tilted>0</tilted></feature>
            <threshold>4.8531401262152940e-005</threshold>
            <left_val>-0.6697154045104981</left_val>
            <right_val>0.3429669141769409</right_val></_></_></trees>
      <stage_threshold>-1.4928820133209229</stage_threshold>
      <parent>4</parent>
      <next>-1</next></_>
    <_>
      <trees>
        <_>
          <_>
            <feature>
              <rects>
                <_>
                  4 4 4 6 -1.</_>
                <_>
                  4 6 4 2 3.</_></rects>
              <tilted>0</tilted></feature>
            <threshold>0.0181946102529764</threshold>
            <left_val>-0.5362405776977539</left_val>
            <right_val>0.5141047239303589</right_val></_></_>
        <_>
          <_>
            <feature>
              <rects>
                <_>
                  7 0 6 9 -1.</_>
                <_>
                  9 0 2 9 3.</_></rects>
              <tilted>0</tilted></feature>
            <threshold>0.0364849008619785</threshold>
            <left_val>-0.4216678142547607</left_val>
            <right_val>0.5676627755165100</right_val></_></_>
        <_>
          <_>
            <feature>
              <rects>
                <_>
                  4 17 11 3 -1.</_>
                <_>
                  4 18 11 1 3.</_></rects>
              <tilted>0</tilted></feature>
            <threshold>6.2709851190447807e-003</threshold>
            <left_val>-0.5659682154655457</left_val>
            <right_val>0.4576942026615143</right_val></_></_>
        <_>
          <_>
            <feature>
              <rects>
                <_>
                  12 2 8 10 -1.</_>
                <_>
                  14 4 4 10 2.</_></rects>
              <tilted>1</tilted></feature>
            <threshold>-0.0104105900973082</threshold>
            <left_val>0.2163731008768082</left_val>
            <right_val>-0.4086552858352661</right_val></_></_>
        <_>
          <_>
            <feature>
              <rects>
                <_>
                  2 6 16 12 -1.</_>
                <_>
                  2 6 8 6 2.</_>
                <_>
                  10 12 8 6 2.</_></rects>
              <tilted>0</tilted></feature>
            <threshold>0.0620629116892815</threshold>
            <left_val>0.2641147971153259</left_val>
            <right_val>-0.8684141039848328</right_val></_></_>
        <_>
          <_>
            <feature>
              <rects>
                <_>
                  16 0 4 1 -1.</_>
                <_>
                  16 0 2 1 2.</_></rects>
              <tilted>0</tilted></feature>
            <threshold>3.2444039825350046e-003</threshold>
            <left_val>-0.2542445063591003</left_val>
            <right_val>0.3489362001419067</right_val></_></_>
        <_>
          <_>
            <feature>
              <rects>
                <_>
                  0 0 6 4 -1.</_>
                <_>
                  0 0 3 2 2.</_>
                <_>
                  3 2 3 2 2.</_></rects>
              <tilted>0</tilted></feature>
            <threshold>-9.4826538115739822e-003</threshold>
            <left_val>0.3911794126033783</left_val>
            <right_val>-0.4845690131187439</right_val></_></_>
        <_>
          <_>
            <feature>
              <rects>
                <_>
                  13 15 2 2 -1.</_>
                <_>
                  14 15 1 1 2.</_>
                <_>
                  13 16 1 1 2.</_></rects>
              <tilted>0</tilted></feature>
            <threshold>-1.8431659555062652e-003</threshold>
            <left_val>-0.7765542864799500</left_val>
            <right_val>0.0345485992729664</right_val></_></_>
        <_>
          <_>
            <feature>
              <rects>
                <_>
                  1 1 16 3 -1.</_>
                <_>
                  9 1 8 3 2.</_></rects>
              <tilted>0</tilted></feature>
            <threshold>0.0762348771095276</threshold>
            <left_val>0.2014559060335159</left_val>
            <right_val>-0.9099583029747009</right_val></_></_>
        <_>
          <_>
            <feature>
              <rects>
                <_>
                  11 17 3 2 -1.</_>
                <_>
                  12 17 1 2 3.</_></rects>
              <tilted>0</tilted></feature>
            <threshold>-1.6215620562434196e-003</threshold>
            <left_val>-0.8924031257629395</left_val>
            <right_val>0.0492345094680786</right_val></_></_></trees>
      <stage_threshold>-1.2462430000305176</stage_threshold>
      <parent>5</parent>
      <next>-1</next></_>
    <_>
      <trees>
        <_>
          <_>
            <feature>
              <rects>
                <_>
                  3 1 8 4 -1.</_>
                <_>
                  7 1 4 4 2.</_></rects>
              <tilted>0</tilted></feature>
            <threshold>0.0240693800151348</threshold>
            <left_val>-0.6578553915023804</left_val>
            <right_val>0.4617285132408142</right_val></_></_>
        <_>
          <_>
            <feature>
              <rects>
                <_>
                  11 14 8 4 -1.</_>
                <_>
                  15 14 4 2 2.</_>
                <_>
                  11 16 4 2 2.</_></rects>
              <tilted>0</tilted></feature>
            <threshold>0.0102338204160333</threshold>
            <left_val>-0.4500432908535004</left_val>
            <right_val>0.4329308867454529</right_val></_></_>
        <_>
          <_>
            <feature>
              <rects>
                <_>
                  0 0 20 12 -1.</_>
                <_>
                  0 6 20 6 2.</_></rects>
              <tilted>0</tilted></feature>
            <threshold>0.1196891963481903</threshold>
            <left_val>-0.8530833125114441</left_val>
            <right_val>0.2355760931968689</right_val></_></_>
        <_>
          <_>
            <feature>
              <rects>
                <_>
                  18 10 1 2 -1.</_>
                <_>
                  18 11 1 1 2.</_></rects>
              <tilted>0</tilted></feature>
            <threshold>-6.0205380577826872e-005</threshold>
            <left_val>0.2789795100688934</left_val>
            <right_val>-0.4357174932956696</right_val></_></_>
        <_>
          <_>
            <feature>
              <rects>
                <_>
                  3 14 13 2 -1.</_>
                <_>
                  3 15 13 1 2.</_></rects>
              <tilted>0</tilted></feature>
            <threshold>6.0186618939042091e-003</threshold>
            <left_val>-0.4842942953109741</left_val>
            <right_val>0.4349226951599121</right_val></_></_>
        <_>
          <_>
            <feature>
              <rects>
                <_>
                  18 0 2 8 -1.</_>
                <_>
                  19 0 1 4 2.</_>
                <_>
                  18 4 1 4 2.</_></rects>
              <tilted>0</tilted></feature>
            <threshold>-2.7745410334318876e-003</threshold>
            <left_val>0.4825829863548279</left_val>
            <right_val>-0.2722103893756867</right_val></_></_>
        <_>
          <_>
            <feature>
              <rects>
                <_>
                  4 9 2 1 -1.</_>
                <_>
                  5 9 1 1 2.</_></rects>
              <tilted>0</tilted></feature>
            <threshold>-3.0289820278994739e-004</threshold>
            <left_val>0.3756585121154785</left_val>
            <right_val>-0.5569658279418945</right_val></_></_>
        <_>
          <_>
            <feature>
              <rects>
                <_>
                  18 10 1 2 -1.</_>
                <_>
                  18 11 1 1 2.</_></rects>
              <tilted>0</tilted></feature>
            <threshold>-1.8368669552728534e-003</threshold>
            <left_val>-0.9512119293212891</left_val>
            <right_val>0.0505302585661411</right_val></_></_>
        <_>
          <_>
            <feature>
              <rects>
                <_>
                  3 1 11 3 -1.</_>
                <_>
                  3 2 11 1 3.</_></rects>
              <tilted>0</tilted></feature>
            <threshold>-0.0171827692538500</threshold>
            <left_val>0.7488899230957031</left_val>
            <right_val>-0.2893944084644318</right_val></_></_></trees>
      <stage_threshold>-1.2130539417266846</stage_threshold>
      <parent>6</parent>
      <next>-1</next></_>
    <_>
      <trees>
        <_>
          <_>
            <feature>
              <rects>
                <_>
                  4 11 9 3 -1.</_>
                <_>
                  4 12 9 1 3.</_></rects>
              <tilted>0</tilted></feature>
            <threshold>0.0103562399744987</threshold>
            <left_val>-0.3652606904506683</left_val>
            <right_val>0.6571547985076904</right_val></_></_>
        <_>
          <_>
            <feature>
              <rects>
                <_>
                  10 0 4 4 -1.</_>
                <_>
                  10 0 2 4 2.</_></rects>
              <tilted>0</tilted></feature>
            <threshold>4.6215560287237167e-003</threshold>
            <left_val>-0.5444008111953735</left_val>
            <right_val>0.3321976065635681</right_val></_></_>
        <_>
          <_>
            <feature>
              <rects>
                <_>
                  1 0 2 1 -1.</_>
                <_>
                  1 0 1 1 2.</_></rects>
              <tilted>1</tilted></feature>
            <threshold>-3.8206679746508598e-003</threshold>
            <left_val>0.6163923740386963</left_val>
            <right_val>-0.3642395138740540</right_val></_></_>
        <_>
          <_>
            <feature>
              <rects>
                <_>
                  1 0 19 9 -1.</_>
                <_>
                  1 3 19 3 3.</_></rects>
              <tilted>0</tilted></feature>
            <threshold>-0.1523728072643280</threshold>
            <left_val>0.5119096040725708</left_val>
            <right_val>-0.3341794013977051</right_val></_></_>
        <_>
          <_>
            <feature>
              <rects>
                <_>
                  5 14 4 4 -1.</_>
                <_>
                  5 16 4 2 2.</_></rects>
              <tilted>0</tilted></feature>
            <threshold>3.0924950260668993e-003</threshold>
            <left_val>-0.5710021853446960</left_val>
            <right_val>0.3868004977703095</right_val></_></_>
        <_>
          <_>
            <feature>
              <rects>
                <_>
                  17 14 1 4 -1.</_>
                <_>
                  17 14 1 2 2.</_></rects>
              <tilted>1</tilted></feature>
            <threshold>3.3374431077390909e-003</threshold>
            <left_val>0.0798733979463577</left_val>
            <right_val>-0.5412155985832214</right_val></_></_>
        <_>
          <_>
            <feature>
              <rects>
                <_>
                  3 14 4 1 -1.</_>
                <_>
                  3 14 2 1 2.</_></rects>
              <tilted>1</tilted></feature>
            <threshold>-3.1587579287588596e-003</threshold>
            <left_val>-0.8011649250984192</left_val>
            <right_val>0.2994596064090729</right_val></_></_>
        <_>
          <_>
            <feature>
              <rects>
                <_>
                  18 1 2 8 -1.</_>
                <_>
                  18 5 2 4 2.</_></rects>
              <tilted>0</tilted></feature>
            <threshold>4.7573382034897804e-003</threshold>
            <left_val>-0.6471996903419495</left_val>
            <right_val>0.1622778028249741</right_val></_></_>
        <_>
          <_>
            <feature>
              <rects>
                <_>
                  0 1 1 8 -1.</_>
                <_>
                  0 5 1 4 2.</_></rects>
              <tilted>0</tilted></feature>
            <threshold>8.1525609130039811e-004</threshold>
            <left_val>-0.8861281275749207</left_val>
            <right_val>0.1741065979003906</right_val></_></_>
        <_>
          <_>
            <feature>
              <rects>
                <_>
                  8 17 6 3 -1.</_>
                <_>
                  8 18 6 1 3.</_></rects>
              <tilted>0</tilted></feature>
            <threshold>7.3143718764185905e-003</threshold>
            <left_val>-0.3763433098793030</left_val>
            <right_val>0.3411889076232910</right_val></_></_>
        <_>
          <_>
            <feature>
              <rects>
                <_>
                  2 0 16 7 -1.</_>
                <_>
                  6 0 8 7 2.</_></rects>
              <tilted>0</tilted></feature>
            <threshold>0.0242315195500851</threshold>
            <left_val>-0.7491601705551148</left_val>
            <right_val>0.2738941013813019</right_val></_></_></trees>
      <stage_threshold>-1.5292030572891235</stage_threshold>
      <parent>7</parent>
      <next>-1</next></_>
    <_>
      <trees>
        <_>
          <_>
            <feature>
              <rects>
                <_>
                  2 14 6 4 -1.</_>
                <_>
                  2 14 3 2 2.</_>
                <_>
                  5 16 3 2 2.</_></rects>
              <tilted>0</tilted></feature>
            <threshold>8.4543628618121147e-003</threshold>
            <left_val>-0.4907740056514740</left_val>
            <right_val>0.4245625138282776</right_val></_></_>
        <_>
          <_>
            <feature>
              <rects>
                <_>
                  16 0 4 6 -1.</_>
                <_>
                  18 0 2 3 2.</_>
                <_>
                  16 3 2 3 2.</_></rects>
              <tilted>0</tilted></feature>
            <threshold>-5.7727689854800701e-003</threshold>
            <left_val>0.2986750900745392</left_val>
            <right_val>-0.3847452104091644</right_val></_></_>
        <_>
          <_>
            <feature>
              <rects>
                <_>
                  3 14 3 1 -1.</_>
                <_>
                  4 15 1 1 3.</_></rects>
              <tilted>1</tilted></feature>
            <threshold>1.4931729529052973e-003</threshold>
            <left_val>0.1829715967178345</left_val>
            <right_val>-0.8466966748237610</right_val></_></_>
        <_>
          <_>
            <feature>
              <rects>
                <_>
                  8 8 5 4 -1.</_>
                <_>
                  8 9 5 2 2.</_></rects>
              <tilted>0</tilted></feature>
            <threshold>-0.0101868100464344</threshold>
            <left_val>0.6462423205375671</left_val>
            <right_val>-0.2092978954315186</right_val></_></_>
        <_>
          <_>
            <feature>
              <rects>
                <_>
                  0 11 4 3 -1.</_>
                <_>
                  0 12 4 1 3.</_></rects>
              <tilted>0</tilted></feature>
            <threshold>7.8396702883765101e-004</threshold>
            <left_val>0.2636362016201019</left_val>
            <right_val>-0.6901950836181641</right_val></_></_>
        <_>
          <_>
            <feature>
              <rects>
                <_>
                  19 10 1 4 -1.</_>
                <_>
                  18 11 1 2 2.</_></rects>
              <tilted>1</tilted></feature>
            <threshold>-7.1778497658669949e-004</threshold>
            <left_val>-0.4754897952079773</left_val>
            <right_val>0.1549917012453079</right_val></_></_>
        <_>
          <_>
            <feature>
              <rects>
                <_>
                  0 0 2 6 -1.</_>
                <_>
                  0 0 1 3 2.</_>
                <_>
                  1 3 1 3 2.</_></rects>
              <tilted>0</tilted></feature>
            <threshold>-1.4704630011692643e-003</threshold>
            <left_val>0.3571833968162537</left_val>
            <right_val>-0.4895187020301819</right_val></_></_>
        <_>
          <_>
            <feature>
              <rects>
                <_>
                  19 10 1 4 -1.</_>
                <_>
                  18 11 1 2 2.</_></rects>
              <tilted>1</tilted></feature>
            <threshold>6.8191741593182087e-003</threshold>
            <left_val>0.0711243972182274</left_val>
            <right_val>-0.8961238265037537</right_val></_></_>
        <_>
          <_>
            <feature>
              <rects>
                <_>
                  4 18 10 1 -1.</_>
                <_>
                  9 18 5 1 2.</_></rects>
              <tilted>0</tilted></feature>
            <threshold>3.8238640408962965e-003</threshold>
            <left_val>-0.4686281085014343</left_val>
            <right_val>0.3763507902622223</right_val></_></_>
        <_>
          <_>
            <feature>
              <rects>
                <_>
                  19 10 1 4 -1.</_>
                <_>
                  18 11 1 2 2.</_></rects>
              <tilted>1</tilted></feature>
            <threshold>3.1400439183926210e-005</threshold>
            <left_val>-0.2183205038309097</left_val>
            <right_val>0.1522489041090012</right_val></_></_>
        <_>
          <_>
            <feature>
              <rects>
                <_>
                  8 17 3 1 -1.</_>
                <_>
                  9 17 1 1 3.</_></rects>
              <tilted>0</tilted></feature>
            <threshold>8.7663147132843733e-004</threshold>
            <left_val>0.2012088000774384</left_val>
            <right_val>-0.9410616755485535</right_val></_></_>
        <_>
          <_>
            <feature>
              <rects>
                <_>
                  1 8 18 6 -1.</_>
                <_>
                  10 8 9 3 2.</_>
                <_>
                  1 11 9 3 2.</_></rects>
              <tilted>0</tilted></feature>
            <threshold>-0.0228252802044153</threshold>
            <left_val>-0.8019301891326904</left_val>
            <right_val>0.1722241044044495</right_val></_></_></trees>
      <stage_threshold>-1.2151279449462891</stage_threshold>
      <parent>8</parent>
      <next>-1</next></_>
    <_>
      <trees>
        <_>
          <_>
            <feature>
              <rects>
                <_>
                  0 8 20 3 -1.</_>
                <_>
                  5 8 10 3 2.</_></rects>
              <tilted>0</tilted></feature>
            <threshold>-0.0142566896975040</threshold>
            <left_val>0.3036944866180420</left_val>
            <right_val>-0.5988777875900269</right_val></_></_>
        <_>
          <_>
            <feature>
              <rects>
                <_>
                  12 10 2 6 -1.</_>
                <_>
                  12 13 2 3 2.</_></rects>
              <tilted>0</tilted></feature>
            <threshold>-5.8552622795104980e-004</threshold>
            <left_val>0.1847352981567383</left_val>
            <right_val>-0.7275608181953430</right_val></_></_>
        <_>
          <_>
            <feature>
              <rects>
                <_>
                  10 7 6 6 -1.</_>
                <_>
                  12 9 2 6 3.</_></rects>
              <tilted>1</tilted></feature>
            <threshold>-2.0212980452924967e-003</threshold>
            <left_val>0.2481532990932465</left_val>
            <right_val>-0.6992741227149963</right_val></_></_>
        <_>
          <_>
            <feature>
              <rects>
                <_>
                  2 18 16 2 -1.</_>
                <_>
                  6 18 8 2 2.</_></rects>
              <tilted>0</tilted></feature>
            <threshold>0.0305805001407862</threshold>
            <left_val>-0.2986234128475189</left_val>
            <right_val>0.5889335274696350</right_val></_></_>
        <_>
          <_>
            <feature>
              <rects>
                <_>
                  3 12 14 8 -1.</_>
                <_>
                  3 16 14 4 2.</_></rects>
              <tilted>0</tilted></feature>
            <threshold>0.1086568012833595</threshold>
            <left_val>0.2132125049829483</left_val>
            <right_val>-0.8960630297660828</right_val></_></_>
        <_>
          <_>
            <feature>
              <rects>
                <_>
                  8 11 6 4 -1.</_>
                <_>
                  8 12 6 2 2.</_></rects>
              <tilted>0</tilted></feature>
            <threshold>-0.0171654094010592</threshold>
            <left_val>0.6878920793533325</left_val>
            <right_val>-0.2065504044294357</right_val></_></_>
        <_>
          <_>
            <feature>
              <rects>
                <_>
                  5 5 10 6 -1.</_>
                <_>
                  5 7 10 2 3.</_></rects>
              <tilted>0</tilted></feature>
            <threshold>0.0265978109091520</threshold>
            <left_val>-0.4347907900810242</left_val>
            <right_val>0.3567991852760315</right_val></_></_>
        <_>
          <_>
            <feature>
              <rects>
                <_>
                  6 14 8 2 -1.</_>
                <_>
                  6 15 8 1 2.</_></rects>
              <tilted>0</tilted></feature>
            <threshold>4.6434770338237286e-003</threshold>
            <left_val>-0.4203239083290100</left_val>
            <right_val>0.3792594969272614</right_val></_></_>
        <_>
          <_>
            <feature>
              <rects>
                <_>
                  2 0 15 4 -1.</_>
                <_>
                  2 2 15 2 2.</_></rects>
              <tilted>0</tilted></feature>
            <threshold>-0.0622223801910877</threshold>
            <left_val>0.5936002135276794</left_val>
            <right_val>-0.2699885964393616</right_val></_></_>
        <_>
          <_>
            <feature>
              <rects>
                <_>
                  18 10 2 3 -1.</_>
                <_>
                  17 11 2 1 3.</_></rects>
              <tilted>1</tilted></feature>
            <threshold>-3.3050130587071180e-003</threshold>
            <left_val>-0.5888838768005371</left_val>
            <right_val>0.1174231022596359</right_val></_></_>
        <_>
          <_>
            <feature>
              <rects>
                <_>
                  2 12 3 1 -1.</_>
                <_>
                  3 13 1 1 3.</_></rects>
              <tilted>1</tilted></feature>
            <threshold>3.4584600944072008e-003</threshold>
            <left_val>0.1523091048002243</left_val>
            <right_val>-0.9546685814857483</right_val></_></_>
        <_>
          <_>
            <feature>
              <rects>
                <_>
                  18 11 2 3 -1.</_>
                <_>
                  17 12 2 1 3.</_></rects>
              <tilted>1</tilted></feature>
            <threshold>6.1409701593220234e-003</threshold>
            <left_val>0.0649243891239166</left_val>
            <right_val>-0.7259048819541931</right_val></_></_></trees>
      <stage_threshold>-1.2932519912719727</stage_threshold>
      <parent>9</parent>
      <next>-1</next></_>
    <_>
      <trees>
        <_>
          <_>
            <feature>
              <rects>
                <_>
                  6 1 4 3 -1.</_>
                <_>
                  8 1 2 3 2.</_></rects>
              <tilted>0</tilted></feature>
            <threshold>7.0152939297258854e-003</threshold>
            <left_val>-0.6043241024017334</left_val>
            <right_val>0.3237788975238800</right_val></_></_>
        <_>
          <_>
            <feature>
              <rects>
                <_>
                  4 11 12 3 -1.</_>
                <_>
                  4 12 12 1 3.</_></rects>
              <tilted>0</tilted></feature>
            <threshold>0.0106262303888798</threshold>
            <left_val>-0.4158371090888977</left_val>
            <right_val>0.5063474178314209</right_val></_></_>
        <_>
          <_>
            <feature>
              <rects>
                <_>
                  0 10 3 3 -1.</_>
                <_>
                  0 11 3 1 3.</_></rects>
              <tilted>0</tilted></feature>
            <threshold>1.5006409958004951e-003</threshold>
            <left_val>0.1929596066474915</left_val>
            <right_val>-0.8791837096214294</right_val></_></_>
        <_>
          <_>
            <feature>
              <rects>
                <_>
                  6 10 14 3 -1.</_>
                <_>
                  6 11 14 1 3.</_></rects>
              <tilted>0</tilted></feature>
            <threshold>6.9905528798699379e-003</threshold>
            <left_val>-0.2806180119514465</left_val>
            <right_val>0.3723360896110535</right_val></_></_>
        <_>
          <_>
            <feature>
              <rects>
                <_>
                  0 0 4 6 -1.</_>
                <_>
                  0 0 2 3 2.</_>
                <_>
                  2 3 2 3 2.</_></rects>
              <tilted>0</tilted></feature>
            <threshold>-7.7571189031004906e-003</threshold>
            <left_val>0.3888725042343140</left_val>
            <right_val>-0.4137969911098480</right_val></_></_>
        <_>
          <_>
            <feature>
              <rects>
                <_>
                  15 15 2 3 -1.</_>
                <_>
                  15 16 2 1 3.</_></rects>
              <tilted>0</tilted></feature>
            <threshold>-1.2465059990063310e-003</threshold>
            <left_val>-0.7051656246185303</left_val>
            <right_val>0.1667851954698563</right_val></_></_>
        <_>
          <_>
            <feature>
              <rects>
                <_>
                  1 9 4 1 -1.</_>
                <_>
                  2 10 2 1 2.</_></rects>
              <tilted>1</tilted></feature>
            <threshold>-5.7756842579692602e-004</threshold>
            <left_val>-0.7093735933303833</left_val>
            <right_val>0.2210115045309067</right_val></_></_>
        <_>
          <_>
            <feature>
              <rects>
                <_>
                  13 2 6 3 -1.</_>
                <_>
                  13 3 6 1 3.</_></rects>
              <tilted>0</tilted></feature>
            <threshold>-0.0134075796231627</threshold>
            <left_val>0.6040868759155273</left_val>
            <right_val>-0.2771837115287781</right_val></_></_>
        <_>
          <_>
            <feature>
              <rects>
                <_>
                  3 15 6 4 -1.</_>
                <_>
                  3 15 3 2 2.</_>
                <_>
                  6 17 3 2 2.</_></rects>
              <tilted>0</tilted></feature>
            <threshold>4.3238881044089794e-003</threshold>
            <left_val>-0.4274902939796448</left_val>
            <right_val>0.3983806073665619</right_val></_></_></trees>
      <stage_threshold>-1.0819040536880493</stage_threshold>
      <parent>10</parent>
      <next>-1</next></_>
    <_>
      <trees>
        <_>
          <_>
            <feature>
              <rects>
                <_>
                  0 9 1 2 -1.</_>
                <_>
                  0 10 1 1 2.</_></rects>
              <tilted>0</tilted></feature>
            <threshold>-6.9131041527725756e-005</threshold>
            <left_val>0.2875738143920898</left_val>
            <right_val>-0.6082270145416260</right_val></_></_>
        <_>
          <_>
            <feature>
              <rects>
                <_>
                  17 14 1 4 -1.</_>
                <_>
                  16 15 1 2 2.</_></rects>
              <tilted>1</tilted></feature>
            <threshold>4.3607759289443493e-003</threshold>
            <left_val>0.0750651732087135</left_val>
            <right_val>-0.8133106827735901</right_val></_></_>
        <_>
          <_>
            <feature>
              <rects>
                <_>
                  5 14 10 2 -1.</_>
                <_>
                  5 15 10 1 2.</_></rects>
              <tilted>0</tilted></feature>
            <threshold>7.7696051448583603e-003</threshold>
            <left_val>-0.4140222072601318</left_val>
            <right_val>0.3839985132217407</right_val></_></_>
        <_>
          <_>
            <feature>
              <rects>
                <_>
                  17 14 1 4 -1.</_>
                <_>
                  16 15 1 2 2.</_></rects>
              <tilted>1</tilted></feature>
            <threshold>-6.5389177761971951e-003</threshold>
            <left_val>-0.8393098115921021</left_val>
            <right_val>0.0789091065526009</right_val></_></_>
        <_>
          <_>
            <feature>
              <rects>
                <_>
                  10 7 10 2 -1.</_>
                <_>
                  10 7 10 1 2.</_></rects>
              <tilted>1</tilted></feature>
            <threshold>9.7554484382271767e-003</threshold>
            <left_val>-0.4379807114601135</left_val>
            <right_val>0.3708263039588928</right_val></_></_>
        <_>
          <_>
            <feature>
              <rects>
                <_>
                  17 14 1 4 -1.</_>
                <_>
                  16 15 1 2 2.</_></rects>
              <tilted>1</tilted></feature>
            <threshold>-0.0108339199796319</threshold>
            <left_val>-1.</left_val>
            <right_val>-6.6062998957931995e-003</right_val></_></_>
        <_>
          <_>
            <feature>
              <rects>
                <_>
                  3 14 4 1 -1.</_>
                <_>
                  4 15 2 1 2.</_></rects>
              <tilted>1</tilted></feature>
            <threshold>2.8683058917522430e-003</threshold>
            <left_val>0.1746069937944412</left_val>
            <right_val>-0.9528080224990845</right_val></_></_>
        <_>
          <_>
            <feature>
              <rects>
                <_>
                  18 0 2 6 -1.</_>
                <_>
                  19 0 1 3 2.</_>
                <_>
                  18 3 1 3 2.</_></rects>
              <tilted>0</tilted></feature>
            <threshold>-1.6890499973669648e-003</threshold>
            <left_val>0.3504582047462463</left_val>
            <right_val>-0.4417054057121277</right_val></_></_>
        <_>
          <_>
            <feature>
              <rects>
                <_>
                  0 0 2 6 -1.</_>
                <_>
                  0 0 1 3 2.</_>
                <_>
                  1 3 1 3 2.</_></rects>
              <tilted>0</tilted></feature>
            <threshold>-3.6889628972858191e-003</threshold>
            <left_val>0.5198398828506470</left_val>
            <right_val>-0.3150967955589294</right_val></_></_>
        <_>
          <_>
            <feature>
              <rects>
                <_>
                  15 0 3 3 -1.</_>
                <_>
                  16 0 1 3 3.</_></rects>
              <tilted>0</tilted></feature>
            <threshold>6.1529809609055519e-003</threshold>
            <left_val>0.0212021805346012</left_val>
            <right_val>-0.7822195887565613</right_val></_></_>
        <_>
          <_>
            <feature>
              <rects>
                <_>
                  4 15 1 4 -1.</_>
                <_>
                  4 16 1 2 2.</_></rects>
              <tilted>0</tilted></feature>
            <threshold>-3.4306509769521654e-004</threshold>
            <left_val>-0.7303776741027832</left_val>
            <right_val>0.2255256026983261</right_val></_></_>
        <_>
          <_>
            <feature>
              <rects>
                <_>
                  12 0 8 1 -1.</_>
                <_>
                  12 0 4 1 2.</_></rects>
              <tilted>0</tilted></feature>
            <threshold>0.0224364399909973</threshold>
            <left_val>-0.0955271571874619</left_val>
            <right_val>0.5911856889724731</right_val></_></_>
        <_>
          <_>
            <feature>
              <rects>
                <_>
                  0 0 8 1 -1.</_>
                <_>
                  4 0 4 1 2.</_></rects>
              <tilted>0</tilted></feature>
            <threshold>6.2365662306547165e-003</threshold>
            <left_val>-0.4007566869258881</left_val>
            <right_val>0.3991430103778839</right_val></_></_>
        <_>
          <_>
            <feature>
              <rects>
                <_>
                  9 9 4 8 -1.</_>
                <_>
                  11 9 2 4 2.</_>
                <_>
                  9 13 2 4 2.</_></rects>
              <tilted>0</tilted></feature>
            <threshold>0.0187074802815914</threshold>
            <left_val>0.0312562398612499</left_val>
            <right_val>-0.9836549162864685</right_val></_></_>
        <_>
          <_>
            <feature>
              <rects>
                <_>
                  10 2 5 9 -1.</_>
                <_>
                  7 5 5 3 3.</_></rects>
              <tilted>1</tilted></feature>
            <threshold>0.0569903999567032</threshold>
            <left_val>0.1723119020462036</left_val>
            <right_val>-0.8283721208572388</right_val></_></_></trees>
      <stage_threshold>-1.2537649869918823</stage_threshold>
      <parent>11</parent>
      <next>-1</next></_>
    <_>
      <trees>
        <_>
          <_>
            <feature>
              <rects>
                <_>
                  4 16 11 4 -1.</_>
                <_>
                  4 17 11 2 2.</_></rects>
              <tilted>0</tilted></feature>
            <threshold>0.0160800293087959</threshold>
            <left_val>-0.4599607884883881</left_val>
            <right_val>0.4392529129981995</right_val></_></_>
        <_>
          <_>
            <feature>
              <rects>
                <_>
                  17 10 1 2 -1.</_>
                <_>
                  17 11 1 1 2.</_></rects>
              <tilted>0</tilted></feature>
            <threshold>2.1873859805054963e-004</threshold>
            <left_val>0.1389376074075699</left_val>
            <right_val>-0.7834811806678772</right_val></_></_>
        <_>
          <_>
            <feature>
              <rects>
                <_>
                  1 10 2 2 -1.</_>
                <_>
                  1 11 2 1 2.</_></rects>
              <tilted>0</tilted></feature>
            <threshold>-8.0113146395888180e-005</threshold>
            <left_val>0.2413942962884903</left_val>
            <right_val>-0.7211254239082336</right_val></_></_>
        <_>
          <_>
            <feature>
              <rects>
                <_>
                  12 4 6 1 -1.</_>
                <_>
                  14 4 2 1 3.</_></rects>
              <tilted>0</tilted></feature>
            <threshold>-0.0104331700131297</threshold>
            <left_val>0.6821938157081604</left_val>
            <right_val>-0.1866043061017990</right_val></_></_>
        <_>
          <_>
            <feature>
              <rects>
                <_>
                  10 0 10 2 -1.</_>
                <_>
                  10 0 5 2 2.</_></rects>
              <tilted>1</tilted></feature>
            <threshold>0.0280403904616833</threshold>
            <left_val>0.1634456068277359</left_val>
            <right_val>-0.9384970068931580</right_val></_></_>
        <_>
          <_>
            <feature>
              <rects>
                <_>
                  2 2 16 5 -1.</_>
                <_>
                  6 2 8 5 2.</_></rects>
              <tilted>0</tilted></feature>
            <threshold>0.0328090898692608</threshold>
            <left_val>-0.5593240857124329</left_val>
            <right_val>0.2913314998149872</right_val></_></_>
        <_>
          <_>
            <feature>
              <rects>
                <_>
                  4 0 3 3 -1.</_>
                <_>
                  5 0 1 3 3.</_></rects>
              <tilted>0</tilted></feature>
            <threshold>-5.1256138831377029e-003</threshold>
            <left_val>-0.9942445755004883</left_val>
            <right_val>0.1089157015085220</right_val></_></_>
        <_>
          <_>
            <feature>
              <rects>
                <_>
                  12 14 3 2 -1.</_>
                <_>
                  12 15 3 1 2.</_></rects>
              <tilted>0</tilted></feature>
            <threshold>9.3351578107103705e-004</threshold>
            <left_val>-0.3649980127811432</left_val>
            <right_val>0.2027036994695664</right_val></_></_>
        <_>
          <_>
            <feature>
              <rects>
                <_>
                  8 12 4 1 -1.</_>
                <_>
                  8 12 2 1 2.</_></rects>
              <tilted>1</tilted></feature>
            <threshold>5.3268778137862682e-003</threshold>
            <left_val>-0.2787703871726990</left_val>
            <right_val>0.5575662851333618</right_val></_></_>
        <_>
          <_>
            <feature>
              <rects>
                <_>
                  15 13 2 6 -1.</_>
                <_>
                  15 15 2 2 3.</_></rects>
              <tilted>0</tilted></feature>
            <threshold>-3.4646030981093645e-003</threshold>
            <left_val>-0.3358978033065796</left_val>
            <right_val>0.1498599946498871</right_val></_></_>
        <_>
          <_>
            <feature>
              <rects>
                <_>
                  3 13 2 6 -1.</_>
                <_>
                  3 15 2 2 3.</_></rects>
              <tilted>0</tilted></feature>
            <threshold>5.5629858979955316e-004</threshold>
            <left_val>-0.4149199128150940</left_val>
            <right_val>0.3607020974159241</right_val></_></_></trees>
      <stage_threshold>-1.0812200307846069</stage_threshold>
      <parent>12</parent>
      <next>-1</next></_>
    <_>
      <trees>
        <_>
          <_>
            <feature>
              <rects>
                <_>
                  4 1 1 10 -1.</_>
                <_>
                  4 6 1 5 2.</_></rects>
              <tilted>0</tilted></feature>
            <threshold>0.0116409203037620</threshold>
            <left_val>-0.7142531275749207</left_val>
            <right_val>0.2341651022434235</right_val></_></_>
        <_>
          <_>
            <feature>
              <rects>
                <_>
                  0 2 20 12 -1.</_>
                <_>
                  10 2 10 6 2.</_>
                <_>
                  0 8 10 6 2.</_></rects>
              <tilted>0</tilted></feature>
            <threshold>0.0983137115836143</threshold>
            <left_val>0.1577180027961731</left_val>
            <right_val>-0.9093937873840332</right_val></_></_>
        <_>
          <_>
            <feature>
              <rects>
                <_>
                  0 18 8 2 -1.</_>
                <_>
                  0 18 4 1 2.</_>
                <_>
                  4 19 4 1 2.</_></rects>
              <tilted>0</tilted></feature>
            <threshold>-2.6266749482601881e-003</threshold>
            <left_val>0.3849973976612091</left_val>
            <right_val>-0.4385735988616943</right_val></_></_>
        <_>
          <_>
            <feature>
              <rects>
                <_>
                  14 2 4 3 -1.</_>
                <_>
                  14 3 4 1 3.</_></rects>
              <tilted>0</tilted></feature>
            <threshold>0.0107296900823712</threshold>
            <left_val>-0.1235897988080978</left_val>
            <right_val>0.6333788037300110</right_val></_></_>
        <_>
          <_>
            <feature>
              <rects>
                <_>
                  5 0 2 3 -1.</_>
                <_>
                  6 0 1 3 2.</_></rects>
              <tilted>0</tilted></feature>
            <threshold>-9.7550998907536268e-004</threshold>
            <left_val>-0.7618762254714966</left_val>
            <right_val>0.1947458982467651</right_val></_></_>
        <_>
          <_>
            <feature>
              <rects>
                <_>
                  18 11 1 8 -1.</_>
                <_>
                  18 11 1 4 2.</_></rects>
              <tilted>1</tilted></feature>
            <threshold>-0.0122335702180862</threshold>
            <left_val>-0.5287312269210815</left_val>
            <right_val>0.1164892017841339</right_val></_></_>
        <_>
          <_>
            <feature>
              <rects>
                <_>
                  1 1 7 3 -1.</_>
                <_>
                  1 2 7 1 3.</_></rects>
              <tilted>0</tilted></feature>
            <threshold>-0.0163978207856417</threshold>
            <left_val>0.6172180175781250</left_val>
            <right_val>-0.2296109944581986</right_val></_></_>
        <_>
          <_>
            <feature>
              <rects>
                <_>
                  8 12 7 4 -1.</_>
                <_>
                  8 13 7 2 2.</_></rects>
              <tilted>0</tilted></feature>
            <threshold>-0.0101630901917815</threshold>
            <left_val>0.2880339026451111</left_val>
            <right_val>-0.3360559940338135</right_val></_></_>
        <_>
          <_>
            <feature>
              <rects>
                <_>
                  0 0 1 2 -1.</_>
                <_>
                  0 1 1 1 2.</_></rects>
              <tilted>0</tilted></feature>
            <threshold>-1.0549690341576934e-003</threshold>
            <left_val>-0.8267753124237061</left_val>
            <right_val>0.1733096987009049</right_val></_></_></trees>
      <stage_threshold>-1.0214699506759644</stage_threshold>
      <parent>13</parent>
      <next>-1</next></_></stages></myfacedetector_6_1_2017_v1>
</opencv_storage>
